<?xml version="1.0"?>
<MethodSetup Method="BDT::BDTG">
  <GeneralInfo>
    <Info name="TMVA Release" value="4.2.0 [262656]"/>
    <Info name="ROOT Release" value="6.02/05 [393733]"/>
    <Info name="Creator" value="yhaddad"/>
    <Info name="Date" value="Fri Oct 16 11:01:54 2015"/>
    <Info name="Host" value="Linux vocms029.cern.ch 2.6.32-504.12.2.el6.x86_64 #1 SMP Thu Mar 12 07:33:00 CET 2015 x86_64 x86_64 x86_64 GNU/Linux"/>
    <Info name="Dir" value="/afs/cern.ch/user/y/yhaddad/CMSSW_7_4_12/src/flashgg/Taggers/test/MVATraining"/>
    <Info name="Training events" value="32401"/>
    <Info name="TrainingTime" value="3.44799421e+01"/>
    <Info name="AnalysisType" value="Classification"/>
  </GeneralInfo>
  <Options>
    <Option name="V" modified="Yes">False</Option>
    <Option name="VerbosityLevel" modified="No">Default</Option>
    <Option name="VarTransform" modified="No">None</Option>
    <Option name="H" modified="Yes">False</Option>
    <Option name="CreateMVAPdfs" modified="No">False</Option>
    <Option name="IgnoreNegWeightsInTraining" modified="No">False</Option>
    <Option name="NTrees" modified="Yes">1000</Option>
    <Option name="MaxDepth" modified="Yes">2</Option>
    <Option name="MinNodeSize" modified="No">5%</Option>
    <Option name="nCuts" modified="Yes">20</Option>
    <Option name="BoostType" modified="Yes">Grad</Option>
    <Option name="AdaBoostR2Loss" modified="No">quadratic</Option>
    <Option name="UseBaggedBoost" modified="No">True</Option>
    <Option name="Shrinkage" modified="Yes">3.000000e-01</Option>
    <Option name="AdaBoostBeta" modified="No">5.000000e-01</Option>
    <Option name="UseRandomisedTrees" modified="No">False</Option>
    <Option name="UseNvars" modified="No">3</Option>
    <Option name="UsePoissonNvars" modified="No">True</Option>
    <Option name="BaggedSampleFraction" modified="No">6.000000e-01</Option>
    <Option name="UseYesNoLeaf" modified="No">True</Option>
    <Option name="NegWeightTreatment" modified="No">ignorenegweightsintraining</Option>
    <Option name="Css" modified="No">1.000000e+00</Option>
    <Option name="Cts_sb" modified="No">1.000000e+00</Option>
    <Option name="Ctb_ss" modified="No">1.000000e+00</Option>
    <Option name="Cbb" modified="No">1.000000e+00</Option>
    <Option name="NodePurityLimit" modified="No">5.000000e-01</Option>
    <Option name="SeparationType" modified="Yes">giniindex</Option>
    <Option name="DoBoostMonitor" modified="No">False</Option>
    <Option name="UseFisherCuts" modified="No">False</Option>
    <Option name="MinLinCorrForFisher" modified="No">8.000000e-01</Option>
    <Option name="UseExclusiveVars" modified="No">False</Option>
    <Option name="DoPreselection" modified="No">False</Option>
    <Option name="SigToBkgFraction" modified="No">1.000000e+00</Option>
    <Option name="PruneMethod" modified="No">nopruning</Option>
    <Option name="PruneStrength" modified="No">0.000000e+00</Option>
    <Option name="PruningValFraction" modified="No">5.000000e-01</Option>
    <Option name="nEventsMin" modified="No">0</Option>
    <Option name="UseBaggedGrad" modified="Yes">True</Option>
    <Option name="GradBaggingFraction" modified="Yes">6.000000e-01</Option>
    <Option name="UseNTrainEvents" modified="No">0</Option>
    <Option name="NNodesMax" modified="Yes">5</Option>
  </Options>
  <Variables NVar="11">
    <Variable VarIndex="0" Expression="dijet_LeadJPt" Label="dijet_LeadJPt" Title="dijet_LeadJPt" Unit="" Internal="dijet_LeadJPt" Type="F" Min="3.00056419e+01" Max="1.43976514e+03"/>
    <Variable VarIndex="1" Expression="dijet_SubJPt" Label="dijet_SubJPt" Title="dijet_SubJPt" Unit="" Internal="dijet_SubJPt" Type="F" Min="2.00058537e+01" Max="1.06947815e+03"/>
    <Variable VarIndex="2" Expression="dijet_abs_dEta" Label="dijet_abs_dEta" Title="dijet_abs_dEta" Unit="" Internal="dijet_abs_dEta" Type="F" Min="2.84545124e-04" Max="9.28866577e+00"/>
    <Variable VarIndex="3" Expression="dijet_Mjj" Label="dijet_Mjj" Title="dijet_Mjj" Unit="" Internal="dijet_Mjj" Type="F" Min="2.50010941e+02" Max="7.05697852e+03"/>
    <Variable VarIndex="4" Expression="dijet_Zep" Label="dijet_Zep" Title="dijet_Zep" Unit="" Internal="dijet_Zep" Type="F" Min="2.65131303e-06" Max="7.80280018e+00"/>
    <Variable VarIndex="5" Expression="dijet_dPhi_trunc" Label="dijet_dPhi_trunc" Title="dijet_dPhi_trunc" Unit="" Internal="dijet_dPhi_trunc" Type="F" Min="1.76280481e-03" Max="2.91599989e+00"/>
    <Variable VarIndex="6" Expression="dipho_PToM" Label="dipho_PToM" Title="dipho_PToM" Unit="" Internal="dipho_PToM" Type="F" Min="6.46883668e-03" Max="1.67195023e+02"/>
    <Variable VarIndex="7" Expression="leadPho_PToM" Label="leadPho_PToM" Title="leadPho_PToM" Unit="" Internal="leadPho_PToM" Type="F" Min="5.00004828e-01" Max="1.12708557e+02"/>
    <Variable VarIndex="8" Expression="sublPho_PToM" Label="sublPho_PToM" Title="sublPho_PToM" Unit="" Internal="sublPho_PToM" Type="F" Min="3.42101194e-02" Max="6.62488632e+01"/>
    <Variable VarIndex="9" Expression="dijet_dy" Label="dijet_dy" Title="dijet_dy" Unit="" Internal="dijet_dy" Type="F" Min="1.79912327e-04" Max="7.50923347e+00"/>
    <Variable VarIndex="10" Expression="minDRJetPho" Label="minDRJetPho" Title="minDRJetPho" Unit="" Internal="minDRJetPho" Type="F" Min="5.00411630e-01" Max="5.53366041e+00"/>
  </Variables>
  <Spectators NSpec="0"/>
  <Classes NClass="2">
    <Class Name="Signal" Index="0"/>
    <Class Name="Background" Index="1"/>
  </Classes>
  <Transformations NTransformations="0"/>
  <MVAPdfs/>
  <Weights NTrees="1000" AnalysisType="1">
    <BinaryTree type="DecisionTree" boostWeight="1.0000000000000000e+00" itree="0">
      <Node pos="s" depth="0" NCoef="0" IVar="4" Cut="2.5016610622406006e+00" cType="1" res="5.4672798141837120e-03" rms="4.9997010827064514e-01" purity="5.0546723604202271e-01" nType="0">
        <Node pos="l" depth="1" NCoef="0" IVar="3" Cut="5.7415692138671875e+02" cType="1" res="1.1267007142305374e-01" rms="4.8714008927345276e-01" purity="6.1267006397247314e-01" nType="0">
          <Node pos="l" depth="2" NCoef="0" IVar="-1" Cut="0.0000000000000000e+00" cType="1" res="-2.7240703348070383e-03" rms="4.9558624625205994e-01" purity="4.3371069431304932e-01" nType="-99"/>
          <Node pos="r" depth="2" NCoef="0" IVar="-1" Cut="0.0000000000000000e+00" cType="1" res="3.3808954060077667e-02" rms="3.9227718114852905e-01" purity="8.1002998352050781e-01" nType="-99"/>
        </Node>
        <Node pos="r" depth="1" NCoef="0" IVar="0" Cut="5.3394256591796875e+01" cType="1" res="-2.9124948382377625e-01" rms="4.0641573071479797e-01" purity="2.0875053107738495e-01" nType="0">
          <Node pos="l" depth="2" NCoef="0" IVar="-1" Cut="0.0000000000000000e+00" cType="1" res="-1.0657470673322678e-02" rms="2.9275095462799072e-01" purity="9.4664491713047028e-02" nType="-99"/>
          <Node pos="r" depth="2" NCoef="0" IVar="-1" Cut="0.0000000000000000e+00" cType="1" res="-6.3988384790718555e-03" rms="4.6379411220550537e-01" purity="3.1319791078567505e-01" nType="-99"/>
        </Node>
      </Node>
    </BinaryTree>
    <BinaryTree type="DecisionTree" boostWeight="1.0000000000000000e+00" itree="1">
      <Node pos="s" depth="0" NCoef="0" IVar="4" Cut="2.2293753623962402e+00" cType="1" res="-8.1208730116486549e-03" rms="4.9541801214218140e-01" purity="4.9579450488090515e-01" nType="0">
        <Node pos="l" depth="1" NCoef="0" IVar="3" Cut="5.7265209960937500e+02" cType="1" res="1.1952893435955048e-01" rms="4.7979599237442017e-01" purity="6.2646412849426270e-01" nType="0">
          <Node pos="l" depth="2" NCoef="0" IVar="-1" Cut="0.0000000000000000e+00" cType="1" res="-2.7149496600031853e-03" rms="4.9540820717811584e-01" purity="4.3239310383796692e-01" nType="-99"/>
          <Node pos="r" depth="2" NCoef="0" IVar="-1" Cut="0.0000000000000000e+00" cType="1" res="4.6954769641160965e-02" rms="3.4970036149024963e-01" purity="8.5719442367553711e-01" nType="-99"/>
        </Node>
        <Node pos="r" depth="1" NCoef="0" IVar="3" Cut="1.0764355468750000e+03" cType="1" res="-2.6781418919563293e-01" rms="4.1933590173721313e-01" purity="2.2995755076408386e-01" nType="0">
          <Node pos="l" depth="2" NCoef="0" IVar="-1" Cut="0.0000000000000000e+00" cType="1" res="-9.3443598598241806e-03" rms="3.7562495470046997e-01" purity="1.7078623175621033e-01" nType="-99"/>
          <Node pos="r" depth="2" NCoef="0" IVar="-1" Cut="0.0000000000000000e+00" cType="1" res="3.2891207374632359e-03" rms="4.9251154065132141e-01" purity="5.6284773349761963e-01" nType="-99"/>
        </Node>
      </Node>
    </BinaryTree>
    <BinaryTree type="DecisionTree" boostWeight="1.0000000000000000e+00" itree="2">
      <Node pos="s" depth="0" NCoef="0" IVar="3" Cut="5.7265209960937500e+02" cType="1" res="8.5878120735287666e-03" rms="4.8932144045829773e-01" purity="5.1832956075668335e-01" nType="0">
        <Node pos="l" depth="1" NCoef="0" IVar="0" Cut="6.2653423309326172e+01" cType="1" res="-1.4659075438976288e-01" rms="4.7579157352447510e-01" purity="3.4879574179649353e-01" nType="0">
          <Node pos="l" depth="2" NCoef="0" IVar="-1" Cut="0.0000000000000000e+00" cType="1" res="-9.0383840724825859e-03" rms="3.8598603010177612e-01" purity="1.8298414349555969e-01" nType="-99"/>
          <Node pos="r" depth="2" NCoef="0" IVar="-1" Cut="0.0000000000000000e+00" cType="1" res="4.1920898365788162e-04" rms="4.9942469596862793e-01" purity="5.0505876541137695e-01" nType="-99"/>
        </Node>
        <Node pos="r" depth="1" NCoef="0" IVar="4" Cut="2.2257630825042725e+00" cType="1" res="2.1063496172428131e-01" rms="4.2925602197647095e-01" purity="7.3906773328781128e-01" nType="0">
          <Node pos="l" depth="2" NCoef="0" IVar="-1" Cut="0.0000000000000000e+00" cType="1" res="5.1273927092552185e-02" rms="3.3105140924453735e-01" purity="8.7453925609588623e-01" nType="-99"/>
          <Node pos="r" depth="2" NCoef="0" IVar="-1" Cut="0.0000000000000000e+00" cType="1" res="-4.2166565544903278e-03" rms="4.8499906063079834e-01" purity="3.8756901025772095e-01" nType="-99"/>
        </Node>
      </Node>
    </BinaryTree>
    <BinaryTree type="DecisionTree" boostWeight="1.0000000000000000e+00" itree="3">
      <Node pos="s" depth="0" NCoef="0" IVar="4" Cut="2.1177966594696045e+00" cType="1" res="-1.0278602130711079e-02" rms="4.8439091444015503e-01" purity="5.0691628456115723e-01" nType="0">
        <Node pos="l" depth="1" NCoef="0" IVar="5" Cut="2.6385488510131836e+00" cType="1" res="1.1366961896419525e-01" rms="4.6610462665557861e-01" purity="6.4289671182632446e-01" nType="0">
          <Node pos="l" depth="2" NCoef="0" IVar="-1" Cut="0.0000000000000000e+00" cType="1" res="-7.6234242878854275e-03" rms="4.4542109966278076e-01" purity="2.8713387250900269e-01" nType="-99"/>
          <Node pos="r" depth="2" NCoef="0" IVar="-1" Cut="0.0000000000000000e+00" cType="1" res="1.4571373350918293e-02" rms="4.3695473670959473e-01" purity="7.1842491626739502e-01" nType="-99"/>
        </Node>
        <Node pos="r" depth="1" NCoef="0" IVar="3" Cut="1.0130806274414062e+03" cType="1" res="-2.4848262965679169e-01" rms="4.2634651064872742e-01" purity="2.4558882415294647e-01" nType="0">
          <Node pos="l" depth="2" NCoef="0" IVar="-1" Cut="0.0000000000000000e+00" cType="1" res="-8.9579215273261070e-03" rms="3.8589590787887573e-01" purity="1.8420195579528809e-01" nType="-99"/>
          <Node pos="r" depth="2" NCoef="0" IVar="-1" Cut="0.0000000000000000e+00" cType="1" res="7.0745154516771436e-04" rms="4.9204409122467041e-01" purity="5.1715922355651855e-01" nType="-99"/>
        </Node>
      </Node>
    </BinaryTree>
    <BinaryTree type="DecisionTree" boostWeight="1.0000000000000000e+00" itree="4">
      <Node pos="s" depth="0" NCoef="0" IVar="5" Cut="2.4996802806854248e+00" cType="1" res="2.5294502265751362e-03" rms="4.8282459378242493e-01" purity="5.2392172813415527e-01" nType="0">
        <Node pos="l" depth="1" NCoef="0" IVar="0" Cut="6.3162788391113281e+01" cType="1" res="-3.2624396681785583e-01" rms="3.7616804242134094e-01" purity="1.7486831545829773e-01" nType="0">
          <Node pos="l" depth="2" NCoef="0" IVar="-1" Cut="0.0000000000000000e+00" cType="1" res="-1.0548103600740433e-02" rms="2.9951706528663635e-01" purity="1.0133631527423859e-01" nType="-99"/>
          <Node pos="r" depth="2" NCoef="0" IVar="-1" Cut="0.0000000000000000e+00" cType="1" res="-5.1546040922403336e-03" rms="4.7938543558120728e-01" purity="3.6945694684982300e-01" nType="-99"/>
        </Node>
        <Node pos="r" depth="1" NCoef="0" IVar="3" Cut="5.7422027587890625e+02" cType="1" res="9.5867820084095001e-02" rms="4.6875405311584473e-01" purity="6.2301760911941528e-01" nType="0">
          <Node pos="l" depth="2" NCoef="0" IVar="-1" Cut="0.0000000000000000e+00" cType="1" res="-1.7485942225903273e-03" rms="4.9583232402801514e-01" purity="4.5769223570823669e-01" nType="-99"/>
          <Node pos="r" depth="2" NCoef="0" IVar="-1" Cut="0.0000000000000000e+00" cType="1" res="2.2753020748496056e-02" rms="3.9754152297973633e-01" purity="7.8472006320953369e-01" nType="-99"/>
        </Node>
      </Node>
    </BinaryTree>
    <BinaryTree type="DecisionTree" boostWeight="1.0000000000000000e+00" itree="5">
      <Node pos="s" depth="0" NCoef="0" IVar="4" Cut="2.2293734550476074e+00" cType="1" res="2.0320999901741743e-03" rms="4.7876399755477905e-01" purity="5.2528142929077148e-01" nType="0">
        <Node pos="l" depth="1" NCoef="0" IVar="0" Cut="7.7488922119140625e+01" cType="1" res="1.2287739664316177e-01" rms="4.5652273297309875e-01" purity="6.6171783208847046e-01" nType="0">
          <Node pos="l" depth="2" NCoef="0" IVar="-1" Cut="0.0000000000000000e+00" cType="1" res="-2.0827660337090492e-03" rms="4.8530897498130798e-01" purity="4.8051443696022034e-01" nType="-99"/>
          <Node pos="r" depth="2" NCoef="0" IVar="-1" Cut="0.0000000000000000e+00" cType="1" res="2.8805200010538101e-02" rms="3.7871006131172180e-01" purity="8.1024134159088135e-01" nType="-99"/>
        </Node>
        <Node pos="r" depth="1" NCoef="0" IVar="0" Cut="5.4902420043945312e+01" cType="1" res="-2.5273323059082031e-01" rms="4.2116150259971619e-01" purity="2.3764707148075104e-01" nType="0">
          <Node pos="l" depth="2" NCoef="0" IVar="-1" Cut="0.0000000000000000e+00" cType="1" res="-9.9613787606358528e-03" rms="3.1701484322547913e-01" purity="1.1543624103069305e-01" nType="-99"/>
          <Node pos="r" depth="2" NCoef="0" IVar="-1" Cut="0.0000000000000000e+00" cType="1" res="-5.4091745987534523e-03" rms="4.7105380892753601e-01" purity="3.4371566772460938e-01" nType="-99"/>
        </Node>
      </Node>
    </BinaryTree>
    <BinaryTree type="DecisionTree" boostWeight="1.0000000000000000e+00" itree="6">
      <Node pos="s" depth="0" NCoef="0" IVar="5" Cut="2.6384534835815430e+00" cType="1" res="-3.6266073584556580e-02" rms="4.7582840919494629e-01" purity="4.8909968137741089e-01" nType="0">
        <Node pos="l" depth="1" NCoef="0" IVar="0" Cut="6.1456993103027344e+01" cType="1" res="-3.0473345518112183e-01" rms="3.8417622447013855e-01" purity="1.9103142619132996e-01" nType="0">
          <Node pos="l" depth="2" NCoef="0" IVar="-1" Cut="0.0000000000000000e+00" cType="1" res="-1.0214908979833126e-02" rms="3.0369588732719421e-01" purity="1.0629647225141525e-01" nType="-99"/>
          <Node pos="r" depth="2" NCoef="0" IVar="-1" Cut="0.0000000000000000e+00" cType="1" res="-4.3963589705526829e-03" rms="4.8169615864753723e-01" purity="4.0010851621627808e-01" nType="-99"/>
        </Node>
        <Node pos="r" depth="1" NCoef="0" IVar="4" Cut="2.8494005203247070e+00" cType="1" res="5.1207944750785828e-02" rms="4.7006297111511230e-01" purity="5.8621841669082642e-01" nType="0">
          <Node pos="l" depth="2" NCoef="0" IVar="-1" Cut="0.0000000000000000e+00" cType="1" res="7.7487425878643990e-03" rms="4.5476165413856506e-01" purity="6.6114443540573120e-01" nType="-99"/>
          <Node pos="r" depth="2" NCoef="0" IVar="-1" Cut="0.0000000000000000e+00" cType="1" res="-8.6170071735978127e-03" rms="3.9251920580863953e-01" purity="1.9374786317348480e-01" nType="-99"/>
        </Node>
      </Node>
    </BinaryTree>
    <BinaryTree type="DecisionTree" boostWeight="1.0000000000000000e+00" itree="7">
      <Node pos="s" depth="0" NCoef="0" IVar="4" Cut="2.2293734550476074e+00" cType="1" res="-4.1054382920265198e-02" rms="4.7519421577453613e-01" purity="4.8525610566139221e-01" nType="0">
        <Node pos="l" depth="1" NCoef="0" IVar="3" Cut="8.9529846191406250e+02" cType="1" res="7.9313471913337708e-02" rms="4.6522456407546997e-01" purity="6.2778413295745850e-01" nType="0">
          <Node pos="l" depth="2" NCoef="0" IVar="-1" Cut="0.0000000000000000e+00" cType="1" res="-4.2823076364584267e-04" rms="4.8888584971427917e-01" purity="5.2196156978607178e-01" nType="-99"/>
          <Node pos="r" depth="2" NCoef="0" IVar="-1" Cut="0.0000000000000000e+00" cType="1" res="5.8621320873498917e-02" rms="2.9146862030029297e-01" purity="9.0298062562942505e-01" nType="-99"/>
        </Node>
        <Node pos="r" depth="1" NCoef="0" IVar="0" Cut="5.6401641845703125e+01" cType="1" res="-2.7175971865653992e-01" rms="4.0346631407737732e-01" purity="2.1207714080810547e-01" nType="0">
          <Node pos="l" depth="2" NCoef="0" IVar="-1" Cut="0.0000000000000000e+00" cType="1" res="-1.0051204822957516e-02" rms="2.9172089695930481e-01" purity="9.6244275569915771e-02" nType="-99"/>
          <Node pos="r" depth="2" NCoef="0" IVar="-1" Cut="0.0000000000000000e+00" cType="1" res="-5.6884703226387501e-03" rms="4.6564564108848572e-01" purity="3.2810470461845398e-01" nType="-99"/>
        </Node>
      </Node>
    </BinaryTree>
    <BinaryTree type="DecisionTree" boostWeight="1.0000000000000000e+00" itree="8">
      <Node pos="s" depth="0" NCoef="0" IVar="4" Cut="2.2256298065185547e+00" cType="1" res="-3.1607739627361298e-02" rms="4.6970900893211365e-01" purity="4.9849519133567810e-01" nType="0">
        <Node pos="l" depth="1" NCoef="0" IVar="3" Cut="5.7415692138671875e+02" cType="1" res="7.3357500135898590e-02" rms="4.5792534947395325e-01" purity="6.2683296203613281e-01" nType="0">
          <Node pos="l" depth="2" NCoef="0" IVar="-1" Cut="0.0000000000000000e+00" cType="1" res="-2.9910907614976168e-03" rms="4.9102863669395447e-01" purity="4.3380582332611084e-01" nType="-99"/>
          <Node pos="r" depth="2" NCoef="0" IVar="-1" Cut="0.0000000000000000e+00" cType="1" res="3.5018268972635269e-02" rms="3.4194871783256531e-01" purity="8.5611432790756226e-01" nType="-99"/>
        </Node>
        <Node pos="r" depth="1" NCoef="0" IVar="3" Cut="8.0639331054687500e+02" cType="1" res="-2.5256747007369995e-01" rms="4.1427120566368103e-01" purity="2.2833436727523804e-01" nType="0">
          <Node pos="l" depth="2" NCoef="0" IVar="-1" Cut="0.0000000000000000e+00" cType="1" res="-8.8291149586439133e-03" rms="3.7090164422988892e-01" purity="1.6693913936614990e-01" nType="-99"/>
          <Node pos="r" depth="2" NCoef="0" IVar="-1" Cut="0.0000000000000000e+00" cType="1" res="-3.6735716275870800e-03" rms="4.8281240463256836e-01" purity="4.0047949552536011e-01" nType="-99"/>
        </Node>
      </Node>
    </BinaryTree>
    <BinaryTree type="DecisionTree" boostWeight="1.0000000000000000e+00" itree="9">
      <Node pos="s" depth="0" NCoef="0" IVar="0" Cut="8.4977279663085938e+01" cType="1" res="-5.6537542492151260e-02" rms="4.6509644389152527e-01" purity="4.7635951638221741e-01" nType="0">
        <Node pos="l" depth="1" NCoef="0" IVar="0" Cut="5.3562404632568359e+01" cType="1" res="-1.8421317636966705e-01" rms="4.4400209188461304e-01" purity="3.2707571983337402e-01" nType="0">
          <Node pos="l" depth="2" NCoef="0" IVar="-1" Cut="0.0000000000000000e+00" cType="1" res="-9.3312077224254608e-03" rms="3.6058393120765686e-01" purity="1.7218303680419922e-01" nType="-99"/>
          <Node pos="r" depth="2" NCoef="0" IVar="-1" Cut="0.0000000000000000e+00" cType="1" res="-1.0022239293903112e-03" rms="4.7577500343322754e-01" purity="5.0823158025741577e-01" nType="-99"/>
        </Node>
        <Node pos="r" depth="1" NCoef="0" IVar="2" Cut="2.9506099224090576e+00" cType="1" res="1.4055943489074707e-01" rms="4.2650544643402100e-01" purity="7.0681375265121460e-01" nType="0">
          <Node pos="l" depth="2" NCoef="0" IVar="-1" Cut="0.0000000000000000e+00" cType="1" res="-4.8965285532176495e-03" rms="4.8249119520187378e-01" purity="3.8346740603446960e-01" nType="-99"/>
          <Node pos="r" depth="2" NCoef="0" IVar="-1" Cut="0.0000000000000000e+00" cType="1" res="3.0877403914928436e-02" rms="3.4895423054695129e-01" purity="8.3482831716537476e-01" nType="-99"/>
        </Node>
      </Node>
    </BinaryTree>
    <BinaryTree type="DecisionTree" boostWeight="1.0000000000000000e+00" itree="10">
      <Node pos="s" depth="0" NCoef="0" IVar="5" Cut="2.4996802806854248e+00" cType="1" res="-2.4293370544910431e-02" rms="4.6390324831008911e-01" purity="5.1402813196182251e-01" nType="0">
        <Node pos="l" depth="1" NCoef="0" IVar="0" Cut="6.1472587585449219e+01" cType="1" res="-3.0929127335548401e-01" rms="3.7813490629196167e-01" purity="1.8374203145503998e-01" nType="0">
          <Node pos="l" depth="2" NCoef="0" IVar="-1" Cut="0.0000000000000000e+00" cType="1" res="-1.0039593093097210e-02" rms="3.0936592817306519e-01" purity="1.0892248153686523e-01" nType="-99"/>
          <Node pos="r" depth="2" NCoef="0" IVar="-1" Cut="0.0000000000000000e+00" cType="1" res="-6.2969024293124676e-03" rms="4.6517506241798401e-01" purity="3.4217315912246704e-01" nType="-99"/>
        </Node>
        <Node pos="r" depth="1" NCoef="0" IVar="3" Cut="8.9829357910156250e+02" cType="1" res="4.9360174685716629e-02" rms="4.5547175407409668e-01" purity="5.9938579797744751e-01" nType="0">
          <Node pos="l" depth="2" NCoef="0" IVar="-1" Cut="0.0000000000000000e+00" cType="1" res="-1.8446716712787747e-03" rms="4.7975063323974609e-01" purity="4.8160341382026672e-01" nType="-99"/>
          <Node pos="r" depth="2" NCoef="0" IVar="-1" Cut="0.0000000000000000e+00" cType="1" res="5.3226836025714874e-02" rms="2.7233403921127319e-01" purity="9.0200775861740112e-01" nType="-99"/>
        </Node>
      </Node>
    </BinaryTree>
    <BinaryTree type="DecisionTree" boostWeight="1.0000000000000000e+00" itree="11">
      <Node pos="s" depth="0" NCoef="0" IVar="4" Cut="2.2256276607513428e+00" cType="1" res="-3.4730285406112671e-02" rms="4.6081987023353577e-01" purity="5.0626826286315918e-01" nType="0">
        <Node pos="l" depth="1" NCoef="0" IVar="3" Cut="5.7415228271484375e+02" cType="1" res="7.2981826961040497e-02" rms="4.4726410508155823e-01" purity="6.4543747901916504e-01" nType="0">
          <Node pos="l" depth="2" NCoef="0" IVar="-1" Cut="0.0000000000000000e+00" cType="1" res="-1.8918694695457816e-03" rms="4.9320456385612488e-01" purity="4.6285963058471680e-01" nType="-99"/>
          <Node pos="r" depth="2" NCoef="0" IVar="-1" Cut="0.0000000000000000e+00" cType="1" res="2.9100988060235977e-02" rms="3.4461745619773865e-01" purity="8.5107779502868652e-01" nType="-99"/>
        </Node>
        <Node pos="r" depth="1" NCoef="0" IVar="0" Cut="6.7835502624511719e+01" cType="1" res="-2.4744267761707306e-01" rms="4.1049522161483765e-01" purity="2.3143361508846283e-01" nType="0">
          <Node pos="l" depth="2" NCoef="0" IVar="-1" Cut="0.0000000000000000e+00" cType="1" res="-9.1821076348423958e-03" rms="3.3709511160850525e-01" purity="1.3689003884792328e-01" nType="-99"/>
          <Node pos="r" depth="2" NCoef="0" IVar="-1" Cut="0.0000000000000000e+00" cType="1" res="-3.6004730500280857e-03" rms="4.8229491710662842e-01" purity="4.0651759505271912e-01" nType="-99"/>
        </Node>
      </Node>
    </BinaryTree>
    <BinaryTree type="DecisionTree" boostWeight="1.0000000000000000e+00" itree="12">
      <Node pos="s" depth="0" NCoef="0" IVar="4" Cut="2.2256276607513428e+00" cType="1" res="-4.0552526712417603e-02" rms="4.5719707012176514e-01" purity="5.0409215688705444e-01" nType="0">
        <Node pos="l" depth="1" NCoef="0" IVar="5" Cut="2.5005264282226562e+00" cType="1" res="5.9417676180601120e-02" rms="4.4672784209251404e-01" purity="6.3737916946411133e-01" nType="0">
          <Node pos="l" depth="2" NCoef="0" IVar="-1" Cut="0.0000000000000000e+00" cType="1" res="-7.8368531540036201e-03" rms="4.3059697747230530e-01" purity="2.6975440979003906e-01" nType="-99"/>
          <Node pos="r" depth="2" NCoef="0" IVar="-1" Cut="0.0000000000000000e+00" cType="1" res="8.1240646541118622e-03" rms="4.2974555492401123e-01" purity="6.9786942005157471e-01" nType="-99"/>
        </Node>
        <Node pos="r" depth="1" NCoef="0" IVar="0" Cut="6.7838493347167969e+01" cType="1" res="-2.4852697551250458e-01" rms="4.0579777956008911e-01" purity="2.2680661082267761e-01" nType="0">
          <Node pos="l" depth="2" NCoef="0" IVar="-1" Cut="0.0000000000000000e+00" cType="1" res="-9.1160284355282784e-03" rms="3.3444014191627502e-01" purity="1.3409379124641418e-01" nType="-99"/>
          <Node pos="r" depth="2" NCoef="0" IVar="-1" Cut="0.0000000000000000e+00" cType="1" res="-4.3524829670786858e-03" rms="4.7196698188781738e-01" purity="3.7900656461715698e-01" nType="-99"/>
        </Node>
      </Node>
    </BinaryTree>
    <BinaryTree type="DecisionTree" boostWeight="1.0000000000000000e+00" itree="13">
      <Node pos="s" depth="0" NCoef="0" IVar="4" Cut="2.2256298065185547e+00" cType="1" res="-3.9161253720521927e-02" rms="4.5478689670562744e-01" purity="5.0432676076889038e-01" nType="0">
        <Node pos="l" depth="1" NCoef="0" IVar="3" Cut="5.7415228271484375e+02" cType="1" res="5.6550197303295135e-02" rms="4.4232514500617981e-01" purity="6.3279950618743896e-01" nType="0">
          <Node pos="l" depth="2" NCoef="0" IVar="-1" Cut="0.0000000000000000e+00" cType="1" res="-3.2458999194204807e-03" rms="4.8868086934089661e-01" purity="4.2813327908515930e-01" nType="-99"/>
          <Node pos="r" depth="2" NCoef="0" IVar="-1" Cut="0.0000000000000000e+00" cType="1" res="4.2483299970626831e-02" rms="2.9576873779296875e-01" purity="8.9262706041336060e-01" nType="-99"/>
        </Node>
        <Node pos="r" depth="1" NCoef="0" IVar="0" Cut="5.6396873474121094e+01" cType="1" res="-2.4010181427001953e-01" rms="4.1314956545829773e-01" purity="2.3460580408573151e-01" nType="0">
          <Node pos="l" depth="2" NCoef="0" IVar="-1" Cut="0.0000000000000000e+00" cType="1" res="-9.3841738998889923e-03" rms="3.0899947881698608e-01" purity="1.0999258607625961e-01" nType="-99"/>
          <Node pos="r" depth="2" NCoef="0" IVar="-1" Cut="0.0000000000000000e+00" cType="1" res="-5.0610485486686230e-03" rms="4.6900418400764465e-01" purity="3.5088074207305908e-01" nType="-99"/>
        </Node>
      </Node>
    </BinaryTree>
    <BinaryTree type="DecisionTree" boostWeight="1.0000000000000000e+00" itree="14">
      <Node pos="s" depth="0" NCoef="0" IVar="0" Cut="8.4977279663085938e+01" cType="1" res="-3.2257437705993652e-02" rms="4.5328789949417114e-01" purity="5.1858067512512207e-01" nType="0">
        <Node pos="l" depth="1" NCoef="0" IVar="0" Cut="5.6175060272216797e+01" cType="1" res="-1.3753263652324677e-01" rms="4.4957160949707031e-01" purity="3.7780365347862244e-01" nType="0">
          <Node pos="l" depth="2" NCoef="0" IVar="-1" Cut="0.0000000000000000e+00" cType="1" res="-7.8793354332447052e-03" rms="4.0685242414474487e-01" purity="2.4513746798038483e-01" nType="-99"/>
          <Node pos="r" depth="2" NCoef="0" IVar="-1" Cut="0.0000000000000000e+00" cType="1" res="-5.9943005908280611e-04" rms="4.6259787678718567e-01" purity="5.2815490961074829e-01" nType="-99"/>
        </Node>
        <Node pos="r" depth="1" NCoef="0" IVar="2" Cut="4.2121868133544922e+00" cType="1" res="1.1899642646312714e-01" rms="4.1411304473876953e-01" purity="7.2084176540374756e-01" nType="0">
          <Node pos="l" depth="2" NCoef="0" IVar="-1" Cut="0.0000000000000000e+00" cType="1" res="1.3822452165186405e-03" rms="4.8138102889060974e-01" purity="5.7275062799453735e-01" nType="-99"/>
          <Node pos="r" depth="2" NCoef="0" IVar="-1" Cut="0.0000000000000000e+00" cType="1" res="4.6777993440628052e-02" rms="2.6984363794326782e-01" purity="9.0393054485321045e-01" nType="-99"/>
        </Node>
      </Node>
    </BinaryTree>
    <BinaryTree type="DecisionTree" boostWeight="1.0000000000000000e+00" itree="15">
      <Node pos="s" depth="0" NCoef="0" IVar="4" Cut="2.6009368896484375e+00" cType="1" res="-4.0226943790912628e-02" rms="4.4980132579803467e-01" purity="5.1091098785400391e-01" nType="0">
        <Node pos="l" depth="1" NCoef="0" IVar="0" Cut="8.4977279663085938e+01" cType="1" res="4.2272020131349564e-02" rms="4.4330605864524841e-01" purity="6.2494689226150513e-01" nType="0">
          <Node pos="l" depth="2" NCoef="0" IVar="-1" Cut="0.0000000000000000e+00" cType="1" res="-3.2899647485464811e-03" rms="4.6740806102752686e-01" purity="4.6553879976272583e-01" nType="-99"/>
          <Node pos="r" depth="2" NCoef="0" IVar="-1" Cut="0.0000000000000000e+00" cType="1" res="2.0861569792032242e-02" rms="3.6859327554702759e-01" purity="8.1217306852340698e-01" nType="-99"/>
        </Node>
        <Node pos="r" depth="1" NCoef="0" IVar="0" Cut="5.4901390075683594e+01" cType="1" res="-2.7419194579124451e-01" rms="3.8043546676635742e-01" purity="1.8750804662704468e-01" nType="0">
          <Node pos="l" depth="2" NCoef="0" IVar="-1" Cut="0.0000000000000000e+00" cType="1" res="-9.5165614038705826e-03" rms="2.6963835954666138e-01" purity="8.0672346055507660e-02" nType="-99"/>
          <Node pos="r" depth="2" NCoef="0" IVar="-1" Cut="0.0000000000000000e+00" cType="1" res="-5.9957234188914299e-03" rms="4.5519471168518066e-01" purity="3.0745184421539307e-01" nType="-99"/>
        </Node>
      </Node>
    </BinaryTree>
    <BinaryTree type="DecisionTree" boostWeight="1.0000000000000000e+00" itree="16">
      <Node pos="s" depth="0" NCoef="0" IVar="4" Cut="2.2293753623962402e+00" cType="1" res="-5.6590050458908081e-02" rms="4.4662633538246155e-01" purity="4.9207383394241333e-01" nType="0">
        <Node pos="l" depth="1" NCoef="0" IVar="5" Cut="2.6386990547180176e+00" cType="1" res="4.1378457099199295e-02" rms="4.3834775686264038e-01" purity="6.3260972499847412e-01" nType="0">
          <Node pos="l" depth="2" NCoef="0" IVar="-1" Cut="0.0000000000000000e+00" cType="1" res="-7.7820224687457085e-03" rms="4.2590495944023132e-01" purity="2.7864041924476624e-01" nType="-99"/>
          <Node pos="r" depth="2" NCoef="0" IVar="-1" Cut="0.0000000000000000e+00" cType="1" res="8.0801378935575485e-03" rms="4.1675829887390137e-01" purity="7.1173197031021118e-01" nType="-99"/>
        </Node>
        <Node pos="r" depth="1" NCoef="0" IVar="3" Cut="7.1977410888671875e+02" cType="1" res="-2.4771539866924286e-01" rms="3.9813905954360962e-01" purity="2.1790446341037750e-01" nType="0">
          <Node pos="l" depth="2" NCoef="0" IVar="-1" Cut="0.0000000000000000e+00" cType="1" res="-8.5962815210223198e-03" rms="3.4744623303413391e-01" purity="1.4565096795558929e-01" nType="-99"/>
          <Node pos="r" depth="2" NCoef="0" IVar="-1" Cut="0.0000000000000000e+00" cType="1" res="-3.8063686806708574e-03" rms="4.7501122951507568e-01" purity="4.0691706538200378e-01" nType="-99"/>
        </Node>
      </Node>
    </BinaryTree>
    <BinaryTree type="DecisionTree" boostWeight="1.0000000000000000e+00" itree="17">
      <Node pos="s" depth="0" NCoef="0" IVar="0" Cut="8.4977279663085938e+01" cType="1" res="-5.3130619227886200e-02" rms="4.4720873236656189e-01" purity="5.0003927946090698e-01" nType="0">
        <Node pos="l" depth="1" NCoef="0" IVar="0" Cut="5.3561096191406250e+01" cType="1" res="-1.5249793231487274e-01" rms="4.4396382570266724e-01" purity="3.5915583372116089e-01" nType="0">
          <Node pos="l" depth="2" NCoef="0" IVar="-1" Cut="0.0000000000000000e+00" cType="1" res="-8.6653446778655052e-03" rms="3.7602329254150391e-01" purity="1.9561168551445007e-01" nType="-99"/>
          <Node pos="r" depth="2" NCoef="0" IVar="-1" Cut="0.0000000000000000e+00" cType="1" res="-6.3787726685404778e-04" rms="4.6408739686012268e-01" purity="5.2594912052154541e-01" nType="-99"/>
        </Node>
        <Node pos="r" depth="1" NCoef="0" IVar="4" Cut="2.6201272010803223e+00" cType="1" res="9.4178013503551483e-02" rms="4.0981107950210571e-01" purity="7.0889407396316528e-01" nType="0">
          <Node pos="l" depth="2" NCoef="0" IVar="-1" Cut="0.0000000000000000e+00" cType="1" res="1.5313647687435150e-02" rms="3.7879410386085510e-01" purity="7.8646034002304077e-01" nType="-99"/>
          <Node pos="r" depth="2" NCoef="0" IVar="-1" Cut="0.0000000000000000e+00" cType="1" res="-6.4149210229516029e-03" rms="4.4845670461654663e-01" purity="2.9950335621833801e-01" nType="-99"/>
        </Node>
      </Node>
    </BinaryTree>
    <BinaryTree type="DecisionTree" boostWeight="1.0000000000000000e+00" itree="18">
      <Node pos="s" depth="0" NCoef="0" IVar="4" Cut="2.2293753623962402e+00" cType="1" res="-6.1162021011114120e-02" rms="4.4452533125877380e-01" purity="4.9012383818626404e-01" nType="0">
        <Node pos="l" depth="1" NCoef="0" IVar="5" Cut="2.4998569488525391e+00" cType="1" res="4.2095310986042023e-02" rms="4.3574807047843933e-01" purity="6.4081507921218872e-01" nType="0">
          <Node pos="l" depth="2" NCoef="0" IVar="-1" Cut="0.0000000000000000e+00" cType="1" res="-8.2871103659272194e-03" rms="4.1196677088737488e-01" purity="2.4625897407531738e-01" nType="-99"/>
          <Node pos="r" depth="2" NCoef="0" IVar="-1" Cut="0.0000000000000000e+00" cType="1" res="7.3628174141049385e-03" rms="4.1825255751609802e-01" purity="7.0886933803558350e-01" nType="-99"/>
        </Node>
        <Node pos="r" depth="1" NCoef="0" IVar="0" Cut="6.7844963073730469e+01" cType="1" res="-2.5134563446044922e-01" rms="3.9500114321708679e-01" purity="2.1257437765598297e-01" nType="0">
          <Node pos="l" depth="2" NCoef="0" IVar="-1" Cut="0.0000000000000000e+00" cType="1" res="-8.8003175333142281e-03" rms="3.2543212175369263e-01" purity="1.2604394555091858e-01" nType="-99"/>
          <Node pos="r" depth="2" NCoef="0" IVar="-1" Cut="0.0000000000000000e+00" cType="1" res="-5.2127274684607983e-03" rms="4.6676725149154663e-01" purity="3.5201200842857361e-01" nType="-99"/>
        </Node>
      </Node>
    </BinaryTree>
    <BinaryTree type="DecisionTree" boostWeight="1.0000000000000000e+00" itree="19">
      <Node pos="s" depth="0" NCoef="0" IVar="4" Cut="2.2256298065185547e+00" cType="1" res="-5.7620335370302200e-02" rms="4.4574603438377380e-01" purity="4.9597662687301636e-01" nType="0">
        <Node pos="l" depth="1" NCoef="0" IVar="5" Cut="2.3610978126525879e+00" cType="1" res="2.9108876362442970e-02" rms="4.4168794155120850e-01" purity="6.3003557920455933e-01" nType="0">
          <Node pos="l" depth="2" NCoef="0" IVar="-1" Cut="0.0000000000000000e+00" cType="1" res="-8.2421172410249710e-03" rms="4.0394434332847595e-01" purity="2.3259523510932922e-01" nType="-99"/>
          <Node pos="r" depth="2" NCoef="0" IVar="-1" Cut="0.0000000000000000e+00" cType="1" res="5.2367802709341049e-03" rms="4.3091008067131042e-01" purity="6.8697839975357056e-01" nType="-99"/>
        </Node>
        <Node pos="r" depth="1" NCoef="0" IVar="0" Cut="6.7833724975585938e+01" cType="1" res="-2.3470950126647949e-01" rms="3.9915344119071960e-01" purity="2.2224660217761993e-01" nType="0">
          <Node pos="l" depth="2" NCoef="0" IVar="-1" Cut="0.0000000000000000e+00" cType="1" res="-8.5862018167972565e-03" rms="3.3151379227638245e-01" purity="1.3128478825092316e-01" nType="-99"/>
          <Node pos="r" depth="2" NCoef="0" IVar="-1" Cut="0.0000000000000000e+00" cType="1" res="-4.2601996101438999e-03" rms="4.6650949120521545e-01" purity="3.7296450138092041e-01" nType="-99"/>
        </Node>
      </Node>
    </BinaryTree>
    <BinaryTree type="DecisionTree" boostWeight="1.0000000000000000e+00" itree="20">
      <Node pos="s" depth="0" NCoef="0" IVar="4" Cut="2.2293734550476074e+00" cType="1" res="-5.2609600126743317e-02" rms="4.4057884812355042e-01" purity="5.0027275085449219e-01" nType="0">
        <Node pos="l" depth="1" NCoef="0" IVar="3" Cut="5.6636621093750000e+02" cType="1" res="3.1876213848590851e-02" rms="4.3295985460281372e-01" purity="6.3229501247406006e-01" nType="0">
          <Node pos="l" depth="2" NCoef="0" IVar="-1" Cut="0.0000000000000000e+00" cType="1" res="-3.4895294811576605e-03" rms="4.8269158601760864e-01" purity="4.2895492911338806e-01" nType="-99"/>
          <Node pos="r" depth="2" NCoef="0" IVar="-1" Cut="0.0000000000000000e+00" cType="1" res="2.7948802337050438e-02" rms="3.1536999344825745e-01" purity="8.7017452716827393e-01" nType="-99"/>
        </Node>
        <Node pos="r" depth="1" NCoef="0" IVar="0" Cut="6.7844963073730469e+01" cType="1" res="-2.2815401852130890e-01" rms="4.0285441279411316e-01" purity="2.2595742344856262e-01" nType="0">
          <Node pos="l" depth="2" NCoef="0" IVar="-1" Cut="0.0000000000000000e+00" cType="1" res="-8.3774151280522346e-03" rms="3.3647754788398743e-01" purity="1.3594567775726318e-01" nType="-99"/>
          <Node pos="r" depth="2" NCoef="0" IVar="-1" Cut="0.0000000000000000e+00" cType="1" res="-3.7703120615333319e-03" rms="4.7733628749847412e-01" purity="3.9452180266380310e-01" nType="-99"/>
        </Node>
      </Node>
    </BinaryTree>
    <BinaryTree type="DecisionTree" boostWeight="1.0000000000000000e+00" itree="21">
      <Node pos="s" depth="0" NCoef="0" IVar="4" Cut="1.8578137159347534e+00" cType="1" res="-6.0558009892702103e-02" rms="4.4300365447998047e-01" purity="4.9545422196388245e-01" nType="0">
        <Node pos="l" depth="1" NCoef="0" IVar="5" Cut="2.3611428737640381e+00" cType="1" res="5.3275130689144135e-02" rms="4.3236762285232544e-01" purity="6.6730278730392456e-01" nType="0">
          <Node pos="l" depth="2" NCoef="0" IVar="-1" Cut="0.0000000000000000e+00" cType="1" res="-8.0232666805386543e-03" rms="4.3960851430892944e-01" purity="2.7384364604949951e-01" nType="-99"/>
          <Node pos="r" depth="2" NCoef="0" IVar="-1" Cut="0.0000000000000000e+00" cType="1" res="6.8177455104887486e-03" rms="4.1914898157119751e-01" purity="7.1084654331207275e-01" nType="-99"/>
        </Node>
        <Node pos="r" depth="1" NCoef="0" IVar="3" Cut="1.0763884277343750e+03" cType="1" res="-2.0954926311969757e-01" rms="4.1143625974655151e-01" purity="2.7052909135818481e-01" nType="0">
          <Node pos="l" depth="2" NCoef="0" IVar="-1" Cut="0.0000000000000000e+00" cType="1" res="-7.9066930338740349e-03" rms="3.8694766163825989e-01" purity="2.0449449121952057e-01" nType="-99"/>
          <Node pos="r" depth="2" NCoef="0" IVar="-1" Cut="0.0000000000000000e+00" cType="1" res="1.8616897286847234e-03" rms="4.3838173151016235e-01" purity="5.8802413940429688e-01" nType="-99"/>
        </Node>
      </Node>
    </BinaryTree>
    <BinaryTree type="DecisionTree" boostWeight="1.0000000000000000e+00" itree="22">
      <Node pos="s" depth="0" NCoef="0" IVar="4" Cut="1.0723043680191040e+00" cType="1" res="-3.7434794008731842e-02" rms="4.3731239438056946e-01" purity="5.1990133523941040e-01" nType="0">
        <Node pos="l" depth="1" NCoef="0" IVar="3" Cut="5.2634387207031250e+02" cType="1" res="1.2105474621057510e-01" rms="3.9234766364097595e-01" purity="7.3745989799499512e-01" nType="0">
          <Node pos="l" depth="2" NCoef="0" IVar="-1" Cut="0.0000000000000000e+00" cType="1" res="1.7040973762050271e-04" rms="4.8700565099716187e-01" purity="5.2241200208663940e-01" nType="-99"/>
          <Node pos="r" depth="2" NCoef="0" IVar="-1" Cut="0.0000000000000000e+00" cType="1" res="7.4986360967159271e-02" rms="2.1506640315055847e-01" purity="9.4699501991271973e-01" nType="-99"/>
        </Node>
        <Node pos="r" depth="1" NCoef="0" IVar="3" Cut="1.2224349365234375e+03" cType="1" res="-1.2695859372615814e-01" rms="4.3601748347282410e-01" purity="3.9701193571090698e-01" nType="0">
          <Node pos="l" depth="2" NCoef="0" IVar="-1" Cut="0.0000000000000000e+00" cType="1" res="-6.3691530376672745e-03" rms="4.3170747160911560e-01" purity="3.2567724585533142e-01" nType="-99"/>
          <Node pos="r" depth="2" NCoef="0" IVar="-1" Cut="0.0000000000000000e+00" cType="1" res="1.6575155779719353e-02" rms="3.4122076630592346e-01" purity="7.9253607988357544e-01" nType="-99"/>
        </Node>
      </Node>
    </BinaryTree>
    <BinaryTree type="DecisionTree" boostWeight="1.0000000000000000e+00" itree="23">
      <Node pos="s" depth="0" NCoef="0" IVar="0" Cut="6.9889060974121094e+01" cType="1" res="-3.9868783205747604e-02" rms="4.3536379933357239e-01" purity="5.2654939889907837e-01" nType="0">
        <Node pos="l" depth="1" NCoef="0" IVar="1" Cut="3.6144004821777344e+01" cType="1" res="-1.7664454877376556e-01" rms="4.2582789063453674e-01" purity="3.2183277606964111e-01" nType="0">
          <Node pos="l" depth="2" NCoef="0" IVar="-1" Cut="0.0000000000000000e+00" cType="1" res="-8.5548330098390579e-03" rms="3.7457209825515747e-01" purity="2.0005249977111816e-01" nType="-99"/>
          <Node pos="r" depth="2" NCoef="0" IVar="-1" Cut="0.0000000000000000e+00" cType="1" res="1.7501274123787880e-03" rms="4.4559910893440247e-01" purity="5.6697332859039307e-01" nType="-99"/>
        </Node>
        <Node pos="r" depth="1" NCoef="0" IVar="3" Cut="5.7417120361328125e+02" cType="1" res="7.7957287430763245e-02" rms="4.0818792581558228e-01" purity="7.0290338993072510e-01" nType="0">
          <Node pos="l" depth="2" NCoef="0" IVar="-1" Cut="0.0000000000000000e+00" cType="1" res="-1.3284661108627915e-03" rms="4.8846283555030823e-01" purity="4.9296924471855164e-01" nType="-99"/>
          <Node pos="r" depth="2" NCoef="0" IVar="-1" Cut="0.0000000000000000e+00" cType="1" res="3.5347003489732742e-02" rms="2.8399479389190674e-01" purity="8.9522999525070190e-01" nType="-99"/>
        </Node>
      </Node>
    </BinaryTree>
    <BinaryTree type="DecisionTree" boostWeight="1.0000000000000000e+00" itree="24">
      <Node pos="s" depth="0" NCoef="0" IVar="0" Cut="8.4982276916503906e+01" cType="1" res="-6.7258685827255249e-02" rms="4.3613851070404053e-01" purity="4.9742102622985840e-01" nType="0">
        <Node pos="l" depth="1" NCoef="0" IVar="0" Cut="4.8327732086181641e+01" cType="1" res="-1.6300947964191437e-01" rms="4.2989069223403931e-01" purity="3.4532186388969421e-01" nType="0">
          <Node pos="l" depth="2" NCoef="0" IVar="-1" Cut="0.0000000000000000e+00" cType="1" res="-9.1004800051450729e-03" rms="3.3752658963203430e-01" purity="1.4990252256393433e-01" nType="-99"/>
          <Node pos="r" depth="2" NCoef="0" IVar="-1" Cut="0.0000000000000000e+00" cType="1" res="-2.1108025684952736e-03" rms="4.5540457963943481e-01" purity="4.9589812755584717e-01" nType="-99"/>
        </Node>
        <Node pos="r" depth="1" NCoef="0" IVar="4" Cut="2.6198756694793701e+00" cType="1" res="8.4285780787467957e-02" rms="4.0162697434425354e-01" purity="7.3814779520034790e-01" nType="0">
          <Node pos="l" depth="2" NCoef="0" IVar="-1" Cut="0.0000000000000000e+00" cType="1" res="1.5378007665276527e-02" rms="3.7865418195724487e-01" purity="8.0934560298919678e-01" nType="-99"/>
          <Node pos="r" depth="2" NCoef="0" IVar="-1" Cut="0.0000000000000000e+00" cType="1" res="-5.5963001213967800e-03" rms="4.4540682435035706e-01" purity="3.0772942304611206e-01" nType="-99"/>
        </Node>
      </Node>
    </BinaryTree>
    <BinaryTree type="DecisionTree" boostWeight="1.0000000000000000e+00" itree="25">
      <Node pos="s" depth="0" NCoef="0" IVar="4" Cut="2.1444323062896729e+00" cType="1" res="-5.3706489503383636e-02" rms="4.3104392290115356e-01" purity="5.0854247808456421e-01" nType="0">
        <Node pos="l" depth="1" NCoef="0" IVar="5" Cut="2.2224285602569580e+00" cType="1" res="3.2000910490751266e-02" rms="4.2026114463806152e-01" purity="6.5458095073699951e-01" nType="0">
          <Node pos="l" depth="2" NCoef="0" IVar="-1" Cut="0.0000000000000000e+00" cType="1" res="-8.2179913297295570e-03" rms="4.0859198570251465e-01" purity="2.4034579098224640e-01" nType="-99"/>
          <Node pos="r" depth="2" NCoef="0" IVar="-1" Cut="0.0000000000000000e+00" cType="1" res="4.9624079838395119e-03" rms="4.0900477766990662e-01" purity="7.0121008157730103e-01" nType="-99"/>
        </Node>
        <Node pos="r" depth="1" NCoef="0" IVar="3" Cut="1.0128170166015625e+03" cType="1" res="-2.0904244482517242e-01" rms="4.0619325637817383e-01" purity="2.4386242032051086e-01" nType="0">
          <Node pos="l" depth="2" NCoef="0" IVar="-1" Cut="0.0000000000000000e+00" cType="1" res="-7.4451384134590626e-03" rms="3.8105508685112000e-01" purity="1.8976502120494843e-01" nType="-99"/>
          <Node pos="r" depth="2" NCoef="0" IVar="-1" Cut="0.0000000000000000e+00" cType="1" res="-2.2959448397159576e-03" rms="4.6143436431884766e-01" purity="4.5836275815963745e-01" nType="-99"/>
        </Node>
      </Node>
    </BinaryTree>
    <BinaryTree type="DecisionTree" boostWeight="1.0000000000000000e+00" itree="26">
      <Node pos="s" depth="0" NCoef="0" IVar="4" Cut="2.6010761260986328e+00" cType="1" res="-6.0918271541595459e-02" rms="4.2743062973022461e-01" purity="5.0131851434707642e-01" nType="0">
        <Node pos="l" depth="1" NCoef="0" IVar="5" Cut="2.2221338748931885e+00" cType="1" res="1.8161483108997345e-02" rms="4.2724108695983887e-01" purity="6.3259798288345337e-01" nType="0">
          <Node pos="l" depth="2" NCoef="0" IVar="-1" Cut="0.0000000000000000e+00" cType="1" res="-8.5985604673624039e-03" rms="4.1623291373252869e-01" purity="2.2849303483963013e-01" nType="-99"/>
          <Node pos="r" depth="2" NCoef="0" IVar="-1" Cut="0.0000000000000000e+00" cType="1" res="4.1797412559390068e-03" rms="4.1381829977035522e-01" purity="6.8651628494262695e-01" nType="-99"/>
        </Node>
        <Node pos="r" depth="1" NCoef="0" IVar="1" Cut="3.7462882995605469e+01" cType="1" res="-2.6601347327232361e-01" rms="3.5331866145133972e-01" purity="1.6084212064743042e-01" nType="0">
          <Node pos="l" depth="2" NCoef="0" IVar="-1" Cut="0.0000000000000000e+00" cType="1" res="-8.8064903393387794e-03" rms="2.8096929192543030e-01" purity="9.0867824852466583e-02" nType="-99"/>
          <Node pos="r" depth="2" NCoef="0" IVar="-1" Cut="0.0000000000000000e+00" cType="1" res="-5.3954184986650944e-03" rms="4.3618875741958618e-01" purity="2.8733173012733459e-01" nType="-99"/>
        </Node>
      </Node>
    </BinaryTree>
    <BinaryTree type="DecisionTree" boostWeight="1.0000000000000000e+00" itree="27">
      <Node pos="s" depth="0" NCoef="0" IVar="4" Cut="2.2293753623962402e+00" cType="1" res="-7.3265515267848969e-02" rms="4.3025097250938416e-01" purity="4.8601984977722168e-01" nType="0">
        <Node pos="l" depth="1" NCoef="0" IVar="5" Cut="2.4998233318328857e+00" cType="1" res="1.6431283438578248e-03" rms="4.3076220154762268e-01" purity="6.2263405323028564e-01" nType="0">
          <Node pos="l" depth="2" NCoef="0" IVar="-1" Cut="0.0000000000000000e+00" cType="1" res="-8.6362781003117561e-03" rms="4.0833130478858948e-01" purity="2.3405751585960388e-01" nType="-99"/>
          <Node pos="r" depth="2" NCoef="0" IVar="-1" Cut="0.0000000000000000e+00" cType="1" res="4.3518343009054661e-03" rms="4.1414251923561096e-01" purity="7.0067161321640015e-01" nType="-99"/>
        </Node>
        <Node pos="r" depth="1" NCoef="0" IVar="1" Cut="3.7444496154785156e+01" cType="1" res="-2.2307384014129639e-01" rms="3.8803502917289734e-01" purity="2.1280772984027863e-01" nType="0">
          <Node pos="l" depth="2" NCoef="0" IVar="-1" Cut="0.0000000000000000e+00" cType="1" res="-8.2873022183775902e-03" rms="3.1509345769882202e-01" purity="1.2230058759450912e-01" nType="-99"/>
          <Node pos="r" depth="2" NCoef="0" IVar="-1" Cut="0.0000000000000000e+00" cType="1" res="-3.7634563632309437e-03" rms="4.6266683936119080e-01" purity="3.6747813224792480e-01" nType="-99"/>
        </Node>
      </Node>
    </BinaryTree>
    <BinaryTree type="DecisionTree" boostWeight="1.0000000000000000e+00" itree="28">
      <Node pos="s" depth="0" NCoef="0" IVar="0" Cut="8.4977279663085938e+01" cType="1" res="-4.2376235127449036e-02" rms="4.3102613091468811e-01" purity="5.2597820758819580e-01" nType="0">
        <Node pos="l" depth="1" NCoef="0" IVar="1" Cut="4.0877437591552734e+01" cType="1" res="-1.3103859126567841e-01" rms="4.3429917097091675e-01" purity="3.7525641918182373e-01" nType="0">
          <Node pos="l" depth="2" NCoef="0" IVar="-1" Cut="0.0000000000000000e+00" cType="1" res="-7.2518293745815754e-03" rms="4.0486723184585571e-01" purity="2.6549127697944641e-01" nType="-99"/>
          <Node pos="r" depth="2" NCoef="0" IVar="-1" Cut="0.0000000000000000e+00" cType="1" res="4.2464248836040497e-03" rms="4.3402346968650818e-01" purity="6.2790995836257935e-01" nType="-99"/>
        </Node>
        <Node pos="r" depth="1" NCoef="0" IVar="4" Cut="2.0249481201171875e+00" cType="1" res="9.1204382479190826e-02" rms="3.8965246081352234e-01" purity="7.5305873155593872e-01" nType="0">
          <Node pos="l" depth="2" NCoef="0" IVar="-1" Cut="0.0000000000000000e+00" cType="1" res="1.8421983346343040e-02" rms="3.4417831897735596e-01" purity="8.3543413877487183e-01" nType="-99"/>
          <Node pos="r" depth="2" NCoef="0" IVar="-1" Cut="0.0000000000000000e+00" cType="1" res="-2.3203375749289989e-03" rms="4.8289760947227478e-01" purity="4.8800802230834961e-01" nType="-99"/>
        </Node>
      </Node>
    </BinaryTree>
    <BinaryTree type="DecisionTree" boostWeight="1.0000000000000000e+00" itree="29">
      <Node pos="s" depth="0" NCoef="0" IVar="5" Cut="2.6384534835815430e+00" cType="1" res="-7.6903425157070160e-02" rms="4.3063297867774963e-01" purity="4.8441764712333679e-01" nType="0">
        <Node pos="l" depth="1" NCoef="0" IVar="0" Cut="6.2408851623535156e+01" cType="1" res="-2.4576358497142792e-01" rms="3.6903831362724304e-01" purity="2.0272175967693329e-01" nType="0">
          <Node pos="l" depth="2" NCoef="0" IVar="-1" Cut="0.0000000000000000e+00" cType="1" res="-8.5572795942425728e-03" rms="3.0372980237007141e-01" purity="1.1509112268686295e-01" nType="-99"/>
          <Node pos="r" depth="2" NCoef="0" IVar="-1" Cut="0.0000000000000000e+00" cType="1" res="-4.2137755081057549e-03" rms="4.6011930704116821e-01" purity="4.1068485379219055e-01" nType="-99"/>
        </Node>
        <Node pos="r" depth="1" NCoef="0" IVar="9" Cut="1.0255465507507324e+00" cType="1" res="-2.4486925452947617e-02" rms="4.3489745259284973e-01" purity="5.7185983657836914e-01" nType="0">
          <Node pos="l" depth="2" NCoef="0" IVar="-1" Cut="0.0000000000000000e+00" cType="1" res="-6.8320287391543388e-03" rms="4.4040167331695557e-01" purity="3.6823821067810059e-01" nType="-99"/>
          <Node pos="r" depth="2" NCoef="0" IVar="-1" Cut="0.0000000000000000e+00" cType="1" res="2.3306456860154867e-03" rms="4.1810256242752075e-01" purity="6.5102034807205200e-01" nType="-99"/>
        </Node>
      </Node>
    </BinaryTree>
    <BinaryTree type="DecisionTree" boostWeight="1.0000000000000000e+00" itree="30">
      <Node pos="s" depth="0" NCoef="0" IVar="4" Cut="1.4247007369995117e+00" cType="1" res="-7.6523840427398682e-02" rms="4.2654755711555481e-01" purity="4.8102080821990967e-01" nType="0">
        <Node pos="l" depth="1" NCoef="0" IVar="5" Cut="2.4999797344207764e+00" cType="1" res="4.0809158235788345e-02" rms="4.1053280234336853e-01" purity="6.7241024971008301e-01" nType="0">
          <Node pos="l" depth="2" NCoef="0" IVar="-1" Cut="0.0000000000000000e+00" cType="1" res="-7.4038896709680557e-03" rms="4.2363500595092773e-01" purity="2.7399063110351562e-01" nType="-99"/>
          <Node pos="r" depth="2" NCoef="0" IVar="-1" Cut="0.0000000000000000e+00" cType="1" res="6.2714735977351665e-03" rms="3.9595529437065125e-01" purity="7.2540265321731567e-01" nType="-99"/>
        </Node>
        <Node pos="r" depth="1" NCoef="0" IVar="3" Cut="1.2224519042968750e+03" cType="1" res="-1.7629428207874298e-01" rms="4.1434451937675476e-01" purity="3.1827875971794128e-01" nType="0">
          <Node pos="l" depth="2" NCoef="0" IVar="-1" Cut="0.0000000000000000e+00" cType="1" res="-7.2256019338965416e-03" rms="4.0365380048751831e-01" purity="2.5600600242614746e-01" nType="-99"/>
          <Node pos="r" depth="2" NCoef="0" IVar="-1" Cut="0.0000000000000000e+00" cType="1" res="5.6198774836957455e-03" rms="3.8783243298530579e-01" purity="6.9054228067398071e-01" nType="-99"/>
        </Node>
      </Node>
    </BinaryTree>
    <BinaryTree type="DecisionTree" boostWeight="1.0000000000000000e+00" itree="31">
      <Node pos="s" depth="0" NCoef="0" IVar="9" Cut="1.0504206418991089e+00" cType="1" res="-5.3173739463090897e-02" rms="4.2985916137695312e-01" purity="5.1391547918319702e-01" nType="0">
        <Node pos="l" depth="1" NCoef="0" IVar="4" Cut="1.3528169393539429e+00" cType="1" res="-2.0585618913173676e-01" rms="4.1805037856101990e-01" purity="3.0782565474510193e-01" nType="0">
          <Node pos="l" depth="2" NCoef="0" IVar="-1" Cut="0.0000000000000000e+00" cType="1" res="-3.0532111413776875e-03" rms="4.6669441461563110e-01" purity="5.2801692485809326e-01" nType="-99"/>
          <Node pos="r" depth="2" NCoef="0" IVar="-1" Cut="0.0000000000000000e+00" cType="1" res="-8.3928806707262993e-03" rms="3.7762752175331116e-01" purity="2.1200115978717804e-01" nType="-99"/>
        </Node>
        <Node pos="r" depth="1" NCoef="0" IVar="5" Cut="1.8067967891693115e+00" cType="1" res="1.2276078574359417e-02" rms="4.1808411478996277e-01" purity="6.0225927829742432e-01" nType="0">
          <Node pos="l" depth="2" NCoef="0" IVar="-1" Cut="0.0000000000000000e+00" cType="1" res="-8.2437582314014435e-03" rms="3.3757746219635010e-01" purity="1.4253622293472290e-01" nType="-99"/>
          <Node pos="r" depth="2" NCoef="0" IVar="-1" Cut="0.0000000000000000e+00" cType="1" res="3.4190258011221886e-03" rms="4.1231065988540649e-01" purity="6.6012978553771973e-01" nType="-99"/>
        </Node>
      </Node>
    </BinaryTree>
    <BinaryTree type="DecisionTree" boostWeight="1.0000000000000000e+00" itree="32">
      <Node pos="s" depth="0" NCoef="0" IVar="0" Cut="8.4988166809082031e+01" cType="1" res="-4.4966123998165131e-02" rms="4.3000361323356628e-01" purity="5.2550864219665527e-01" nType="0">
        <Node pos="l" depth="1" NCoef="0" IVar="0" Cut="5.3575428009033203e+01" cType="1" res="-1.3329322636127472e-01" rms="4.3492665886878967e-01" purity="3.7314775586128235e-01" nType="0">
          <Node pos="l" depth="2" NCoef="0" IVar="-1" Cut="0.0000000000000000e+00" cType="1" res="-7.8582391142845154e-03" rms="3.7607365846633911e-01" purity="2.0569777488708496e-01" nType="-99"/>
          <Node pos="r" depth="2" NCoef="0" IVar="-1" Cut="0.0000000000000000e+00" cType="1" res="-2.0687449432443827e-04" rms="4.5708540081977844e-01" purity="5.5528199672698975e-01" nType="-99"/>
        </Node>
        <Node pos="r" depth="1" NCoef="0" IVar="2" Cut="2.9502248764038086e+00" cType="1" res="8.5940249264240265e-02" rms="3.8716053962707520e-01" purity="7.5131720304489136e-01" nType="0">
          <Node pos="l" depth="2" NCoef="0" IVar="-1" Cut="0.0000000000000000e+00" cType="1" res="-1.8818021053448319e-03" rms="4.8389098048210144e-01" purity="4.9478036165237427e-01" nType="-99"/>
          <Node pos="r" depth="2" NCoef="0" IVar="-1" Cut="0.0000000000000000e+00" cType="1" res="1.7391765490174294e-02" rms="3.4085279703140259e-01" purity="8.3345741033554077e-01" nType="-99"/>
        </Node>
      </Node>
    </BinaryTree>
    <BinaryTree type="DecisionTree" boostWeight="1.0000000000000000e+00" itree="33">
      <Node pos="s" depth="0" NCoef="0" IVar="4" Cut="1.7869014739990234e+00" cType="1" res="-6.3600316643714905e-02" rms="4.2346236109733582e-01" purity="4.9719488620758057e-01" nType="0">
        <Node pos="l" depth="1" NCoef="0" IVar="5" Cut="2.6386530399322510e+00" cType="1" res="2.5420542806386948e-02" rms="4.1683626174926758e-01" purity="6.6196376085281372e-01" nType="0">
          <Node pos="l" depth="2" NCoef="0" IVar="-1" Cut="0.0000000000000000e+00" cType="1" res="-7.0922062732279301e-03" rms="4.3878251314163208e-01" purity="3.1577748060226440e-01" nType="-99"/>
          <Node pos="r" depth="2" NCoef="0" IVar="-1" Cut="0.0000000000000000e+00" cType="1" res="5.8419788256287575e-03" rms="3.9808079600334167e-01" purity="7.2905164957046509e-01" nType="-99"/>
        </Node>
        <Node pos="r" depth="1" NCoef="0" IVar="3" Cut="1.0845574951171875e+03" cType="1" res="-1.8106995522975922e-01" rms="4.0300276875495911e-01" purity="2.7977010607719421e-01" nType="0">
          <Node pos="l" depth="2" NCoef="0" IVar="-1" Cut="0.0000000000000000e+00" cType="1" res="-7.0415195077657700e-03" rms="3.8753086328506470e-01" purity="2.1664643287658691e-01" nType="-99"/>
          <Node pos="r" depth="2" NCoef="0" IVar="-1" Cut="0.0000000000000000e+00" cType="1" res="1.6111613949760795e-03" rms="4.1371434926986694e-01" purity="5.9524238109588623e-01" nType="-99"/>
        </Node>
      </Node>
    </BinaryTree>
    <BinaryTree type="DecisionTree" boostWeight="1.0000000000000000e+00" itree="34">
      <Node pos="s" depth="0" NCoef="0" IVar="0" Cut="8.4977279663085938e+01" cType="1" res="-8.1886164844036102e-02" rms="4.2653888463973999e-01" purity="4.8214235901832581e-01" nType="0">
        <Node pos="l" depth="1" NCoef="0" IVar="0" Cut="4.3092731475830078e+01" cType="1" res="-1.5996392071247101e-01" rms="4.2539021372795105e-01" purity="3.4063482284545898e-01" nType="0">
          <Node pos="l" depth="2" NCoef="0" IVar="-1" Cut="0.0000000000000000e+00" cType="1" res="-9.3762418255209923e-03" rms="3.1561735272407532e-01" purity="1.2031911313533783e-01" nType="-99"/>
          <Node pos="r" depth="2" NCoef="0" IVar="-1" Cut="0.0000000000000000e+00" cType="1" res="-3.6292579025030136e-03" rms="4.4549027085304260e-01" purity="4.3782249093055725e-01" nType="-99"/>
        </Node>
        <Node pos="r" depth="1" NCoef="0" IVar="4" Cut="2.6201272010803223e+00" cType="1" res="3.2354563474655151e-02" rms="4.0174201130867004e-01" purity="6.8919146060943604e-01" nType="0">
          <Node pos="l" depth="2" NCoef="0" IVar="-1" Cut="0.0000000000000000e+00" cType="1" res="8.4073366597294807e-03" rms="3.7956458330154419e-01" purity="7.7593570947647095e-01" nType="-99"/>
          <Node pos="r" depth="2" NCoef="0" IVar="-1" Cut="0.0000000000000000e+00" cType="1" res="-6.7007173784077168e-03" rms="4.2281466722488403e-01" purity="2.5345021486282349e-01" nType="-99"/>
        </Node>
      </Node>
    </BinaryTree>
    <BinaryTree type="DecisionTree" boostWeight="1.0000000000000000e+00" itree="35">
      <Node pos="s" depth="0" NCoef="0" IVar="3" Cut="1.2179344482421875e+03" cType="1" res="-6.2840700149536133e-02" rms="4.2521041631698608e-01" purity="5.0276702642440796e-01" nType="0">
        <Node pos="l" depth="1" NCoef="0" IVar="4" Cut="1.1148693561553955e+00" cType="1" res="-1.0745654255151749e-01" rms="4.3736147880554199e-01" purity="4.2861467599868774e-01" nType="0">
          <Node pos="l" depth="2" NCoef="0" IVar="-1" Cut="0.0000000000000000e+00" cType="1" res="3.4493941348046064e-04" rms="4.4166785478591919e-01" purity="6.2176638841629028e-01" nType="-99"/>
          <Node pos="r" depth="2" NCoef="0" IVar="-1" Cut="0.0000000000000000e+00" cType="1" res="-6.3099530525505543e-03" rms="4.2022454738616943e-01" purity="3.1174302101135254e-01" nType="-99"/>
        </Node>
        <Node pos="r" depth="1" NCoef="0" IVar="2" Cut="7.0584712028503418e+00" cType="1" res="1.7639356851577759e-01" rms="2.3810976743698120e-01" purity="9.0037870407104492e-01" nType="0">
          <Node pos="l" depth="2" NCoef="0" IVar="-1" Cut="0.0000000000000000e+00" cType="1" res="2.1616064012050629e-01" rms="9.6562191843986511e-02" purity="9.9867928028106689e-01" nType="-99"/>
          <Node pos="r" depth="2" NCoef="0" IVar="-1" Cut="0.0000000000000000e+00" cType="1" res="6.4258063212037086e-03" rms="3.6877766251564026e-01" purity="7.0767366886138916e-01" nType="-99"/>
        </Node>
      </Node>
    </BinaryTree>
    <BinaryTree type="DecisionTree" boostWeight="1.0000000000000000e+00" itree="36">
      <Node pos="s" depth="0" NCoef="0" IVar="4" Cut="2.2293734550476074e+00" cType="1" res="-6.0329932719469070e-02" rms="4.1931483149528503e-01" purity="5.0967532396316528e-01" nType="0">
        <Node pos="l" depth="1" NCoef="0" IVar="3" Cut="5.7415295410156250e+02" cType="1" res="1.0968288406729698e-02" rms="4.1629520058631897e-01" purity="6.5442371368408203e-01" nType="0">
          <Node pos="l" depth="2" NCoef="0" IVar="-1" Cut="0.0000000000000000e+00" cType="1" res="-2.5676642544567585e-03" rms="4.7983103990554810e-01" purity="4.6476346254348755e-01" nType="-99"/>
          <Node pos="r" depth="2" NCoef="0" IVar="-1" Cut="0.0000000000000000e+00" cType="1" res="1.5718715265393257e-02" rms="3.1539544463157654e-01" purity="8.6343079805374146e-01" nType="-99"/>
        </Node>
        <Node pos="r" depth="1" NCoef="0" IVar="5" Cut="2.0876598358154297e+00" cType="1" res="-2.0016196370124817e-01" rms="3.8890978693962097e-01" purity="2.2579090297222137e-01" nType="0">
          <Node pos="l" depth="2" NCoef="0" IVar="-1" Cut="0.0000000000000000e+00" cType="1" res="-8.3506042137742043e-03" rms="2.6402643322944641e-01" purity="7.9943068325519562e-02" nType="-99"/>
          <Node pos="r" depth="2" NCoef="0" IVar="-1" Cut="0.0000000000000000e+00" cType="1" res="-5.5040139704942703e-03" rms="4.1976636648178101e-01" purity="2.7983921766281128e-01" nType="-99"/>
        </Node>
      </Node>
    </BinaryTree>
    <BinaryTree type="DecisionTree" boostWeight="1.0000000000000000e+00" itree="37">
      <Node pos="s" depth="0" NCoef="0" IVar="5" Cut="2.3611428737640381e+00" cType="1" res="-7.9137489199638367e-02" rms="4.2281439900398254e-01" purity="4.9247980117797852e-01" nType="0">
        <Node pos="l" depth="1" NCoef="0" IVar="10" Cut="1.8190135955810547e+00" cType="1" res="-2.6673668622970581e-01" rms="3.5222682356834412e-01" purity="1.6253596544265747e-01" nType="0">
          <Node pos="l" depth="2" NCoef="0" IVar="-1" Cut="0.0000000000000000e+00" cType="1" res="-7.2766747325658798e-03" rms="3.5506600141525269e-01" purity="1.6638451814651489e-01" nType="-99"/>
          <Node pos="r" depth="2" NCoef="0" IVar="-1" Cut="0.0000000000000000e+00" cType="1" res="-9.0182414278388023e-03" rms="3.4550824761390686e-01" purity="1.5752090513706207e-01" nType="-99"/>
        </Node>
        <Node pos="r" depth="1" NCoef="0" IVar="4" Cut="3.5617492198944092e+00" cType="1" res="-3.7016104906797409e-02" rms="4.2588666081428528e-01" purity="5.6656163930892944e-01" nType="0">
          <Node pos="l" depth="2" NCoef="0" IVar="-1" Cut="0.0000000000000000e+00" cType="1" res="-6.6636665724217892e-04" rms="4.2768386006355286e-01" purity="6.1279004812240601e-01" nType="-99"/>
          <Node pos="r" depth="2" NCoef="0" IVar="-1" Cut="0.0000000000000000e+00" cType="1" res="-8.3333002403378487e-03" rms="3.0559250712394714e-01" purity="1.1351314187049866e-01" nType="-99"/>
        </Node>
      </Node>
    </BinaryTree>
    <BinaryTree type="DecisionTree" boostWeight="1.0000000000000000e+00" itree="38">
      <Node pos="s" depth="0" NCoef="0" IVar="0" Cut="8.3281837463378906e+01" cType="1" res="-7.1638591587543488e-02" rms="4.1629406809806824e-01" purity="4.9480736255645752e-01" nType="0">
        <Node pos="l" depth="1" NCoef="0" IVar="0" Cut="6.0449645996093750e+01" cType="1" res="-1.5239240229129791e-01" rms="4.1462662816047668e-01" purity="3.3728092908859253e-01" nType="0">
          <Node pos="l" depth="2" NCoef="0" IVar="-1" Cut="0.0000000000000000e+00" cType="1" res="-7.3082824237644672e-03" rms="3.8379696011543274e-01" purity="2.3138535022735596e-01" nType="-99"/>
          <Node pos="r" depth="2" NCoef="0" IVar="-1" Cut="0.0000000000000000e+00" cType="1" res="-6.0625601327046752e-04" rms="4.3449094891548157e-01" purity="5.3945606946945190e-01" nType="-99"/>
        </Node>
        <Node pos="r" depth="1" NCoef="0" IVar="9" Cut="1.3125756978988647e+00" cType="1" res="4.4457431882619858e-02" rms="3.9043462276458740e-01" purity="7.2127580642700195e-01" nType="0">
          <Node pos="l" depth="2" NCoef="0" IVar="-1" Cut="0.0000000000000000e+00" cType="1" res="-3.6916062235832214e-03" rms="4.5932450890541077e-01" purity="5.4165720939636230e-01" nType="-99"/>
          <Node pos="r" depth="2" NCoef="0" IVar="-1" Cut="0.0000000000000000e+00" cType="1" res="1.4945697039365768e-02" rms="3.2241585850715637e-01" purity="8.3096200227737427e-01" nType="-99"/>
        </Node>
      </Node>
    </BinaryTree>
    <BinaryTree type="DecisionTree" boostWeight="1.0000000000000000e+00" itree="39">
      <Node pos="s" depth="0" NCoef="0" IVar="3" Cut="1.2224355468750000e+03" cType="1" res="-7.3295064270496368e-02" rms="4.2568612098693848e-01" purity="4.9988302588462830e-01" nType="0">
        <Node pos="l" depth="1" NCoef="0" IVar="1" Cut="3.8930610656738281e+01" cType="1" res="-1.0347497463226318e-01" rms="4.4007670879364014e-01" purity="4.3317699432373047e-01" nType="0">
          <Node pos="l" depth="2" NCoef="0" IVar="-1" Cut="0.0000000000000000e+00" cType="1" res="-6.8703787401318550e-03" rms="4.1044080257415771e-01" purity="2.9024550318717957e-01" nType="-99"/>
          <Node pos="r" depth="2" NCoef="0" IVar="-1" Cut="0.0000000000000000e+00" cType="1" res="-5.5643013911321759e-04" rms="4.4899615645408630e-01" purity="5.7726109027862549e-01" nType="-99"/>
        </Node>
        <Node pos="r" depth="1" NCoef="0" IVar="2" Cut="6.6460318565368652e+00" cType="1" res="8.9492976665496826e-02" rms="2.8739136457443237e-01" purity="8.5968977212905884e-01" nType="0">
          <Node pos="l" depth="2" NCoef="0" IVar="-1" Cut="0.0000000000000000e+00" cType="1" res="1.9539836049079895e-01" rms="7.8004434704780579e-02" purity="9.9889749288558960e-01" nType="-99"/>
          <Node pos="r" depth="2" NCoef="0" IVar="-1" Cut="0.0000000000000000e+00" cType="1" res="2.5018283631652594e-03" rms="3.9106297492980957e-01" purity="7.1814239025115967e-01" nType="-99"/>
        </Node>
      </Node>
    </BinaryTree>
    <BinaryTree type="DecisionTree" boostWeight="1.0000000000000000e+00" itree="40">
      <Node pos="s" depth="0" NCoef="0" IVar="4" Cut="2.2256276607513428e+00" cType="1" res="-4.1013747453689575e-02" rms="4.1720804572105408e-01" purity="5.3785550594329834e-01" nType="0">
        <Node pos="l" depth="1" NCoef="0" IVar="5" Cut="2.4998233318328857e+00" cType="1" res="2.8223717585206032e-02" rms="4.1191145777702332e-01" purity="6.8470662832260132e-01" nType="0">
          <Node pos="l" depth="2" NCoef="0" IVar="-1" Cut="0.0000000000000000e+00" cType="1" res="-6.7137712612748146e-03" rms="4.4751608371734619e-01" purity="3.1383961439132690e-01" nType="-99"/>
          <Node pos="r" depth="2" NCoef="0" IVar="-1" Cut="0.0000000000000000e+00" cType="1" res="5.6628813035786152e-03" rms="3.9560121297836304e-01" purity="7.4297404289245605e-01" nType="-99"/>
        </Node>
        <Node pos="r" depth="1" NCoef="0" IVar="1" Cut="3.7308994293212891e+01" cType="1" res="-1.8054068088531494e-01" rms="3.9215302467346191e-01" purity="2.4192193150520325e-01" nType="0">
          <Node pos="l" depth="2" NCoef="0" IVar="-1" Cut="0.0000000000000000e+00" cType="1" res="-7.3475078679621220e-03" rms="3.3085417747497559e-01" purity="1.4262905716896057e-01" nType="-99"/>
          <Node pos="r" depth="2" NCoef="0" IVar="-1" Cut="0.0000000000000000e+00" cType="1" res="-2.9754370916634798e-03" rms="4.5287379622459412e-01" purity="3.9839574694633484e-01" nType="-99"/>
        </Node>
      </Node>
    </BinaryTree>
    <BinaryTree type="DecisionTree" boostWeight="1.0000000000000000e+00" itree="41">
      <Node pos="s" depth="0" NCoef="0" IVar="5" Cut="2.6384539604187012e+00" cType="1" res="-8.9725352823734283e-02" rms="4.1691973805427551e-01" purity="4.7634121775627136e-01" nType="0">
        <Node pos="l" depth="1" NCoef="0" IVar="0" Cut="5.4733749389648438e+01" cType="1" res="-2.4234540760517120e-01" rms="3.5234564542770386e-01" purity="1.8560977280139923e-01" nType="0">
          <Node pos="l" depth="2" NCoef="0" IVar="-1" Cut="0.0000000000000000e+00" cType="1" res="-8.5095996037125587e-03" rms="2.6525133848190308e-01" purity="8.0119699239730835e-02" nType="-99"/>
          <Node pos="r" depth="2" NCoef="0" IVar="-1" Cut="0.0000000000000000e+00" cType="1" res="-5.3793862462043762e-03" rms="4.4107335805892944e-01" purity="3.5544097423553467e-01" nType="-99"/>
        </Node>
        <Node pos="r" depth="1" NCoef="0" IVar="9" Cut="1.0507658720016479e+00" cType="1" res="-3.8936737924814224e-02" rms="4.2428982257843018e-01" purity="5.7309031486511230e-01" nType="0">
          <Node pos="l" depth="2" NCoef="0" IVar="-1" Cut="0.0000000000000000e+00" cType="1" res="-6.4034741371870041e-03" rms="4.2683058977127075e-01" purity="3.7147638201713562e-01" nType="-99"/>
          <Node pos="r" depth="2" NCoef="0" IVar="-1" Cut="0.0000000000000000e+00" cType="1" res="7.5574155198410153e-04" rms="4.1300261020660400e-01" purity="6.5435439348220825e-01" nType="-99"/>
        </Node>
      </Node>
    </BinaryTree>
    <BinaryTree type="DecisionTree" boostWeight="1.0000000000000000e+00" itree="42">
      <Node pos="s" depth="0" NCoef="0" IVar="5" Cut="2.6386530399322510e+00" cType="1" res="-7.6411172747612000e-02" rms="4.1802957653999329e-01" purity="4.8752349615097046e-01" nType="0">
        <Node pos="l" depth="1" NCoef="0" IVar="1" Cut="3.9139938354492188e+01" cType="1" res="-2.4166846275329590e-01" rms="3.6364591121673584e-01" purity="1.9097299873828888e-01" nType="0">
          <Node pos="l" depth="2" NCoef="0" IVar="-1" Cut="0.0000000000000000e+00" cType="1" res="-8.6020678281784058e-03" rms="2.8770571947097778e-01" purity="9.6755675971508026e-02" nType="-99"/>
          <Node pos="r" depth="2" NCoef="0" IVar="-1" Cut="0.0000000000000000e+00" cType="1" res="-5.1612481474876404e-03" rms="4.4805142283439636e-01" purity="3.5635441541671753e-01" nType="-99"/>
        </Node>
        <Node pos="r" depth="1" NCoef="0" IVar="4" Cut="2.5784103870391846e+00" cType="1" res="-1.8583448603749275e-02" rms="4.2038518190383911e-01" purity="5.9129405021667480e-01" nType="0">
          <Node pos="l" depth="2" NCoef="0" IVar="-1" Cut="0.0000000000000000e+00" cType="1" res="1.9110612338408828e-03" rms="4.1559877991676331e-01" purity="6.8527531623840332e-01" nType="-99"/>
          <Node pos="r" depth="2" NCoef="0" IVar="-1" Cut="0.0000000000000000e+00" cType="1" res="-6.0609234496951103e-03" rms="3.9612242579460144e-01" purity="2.3538923263549805e-01" nType="-99"/>
        </Node>
      </Node>
    </BinaryTree>
    <BinaryTree type="DecisionTree" boostWeight="1.0000000000000000e+00" itree="43">
      <Node pos="s" depth="0" NCoef="0" IVar="5" Cut="2.4996807575225830e+00" cType="1" res="-7.8826650977134705e-02" rms="4.1970029473304749e-01" purity="4.9400168657302856e-01" nType="0">
        <Node pos="l" depth="1" NCoef="0" IVar="3" Cut="4.2024243164062500e+02" cType="1" res="-2.3012660443782806e-01" rms="3.6478912830352783e-01" purity="1.9016601145267487e-01" nType="0">
          <Node pos="l" depth="2" NCoef="0" IVar="-1" Cut="0.0000000000000000e+00" cType="1" res="-7.8729260712862015e-03" rms="3.0553939938545227e-01" purity="1.0893529653549194e-01" nType="-99"/>
          <Node pos="r" depth="2" NCoef="0" IVar="-1" Cut="0.0000000000000000e+00" cType="1" res="-6.1192153953015804e-03" rms="4.2178359627723694e-01" purity="2.9451161623001099e-01" nType="-99"/>
        </Node>
        <Node pos="r" depth="1" NCoef="0" IVar="4" Cut="2.6497914791107178e+00" cType="1" res="-4.0453270077705383e-02" rms="4.2402285337448120e-01" purity="5.7106190919876099e-01" nType="0">
          <Node pos="l" depth="2" NCoef="0" IVar="-1" Cut="0.0000000000000000e+00" cType="1" res="-1.2393924407660961e-04" rms="4.1941362619400024e-01" purity="6.5247434377670288e-01" nType="-99"/>
          <Node pos="r" depth="2" NCoef="0" IVar="-1" Cut="0.0000000000000000e+00" cType="1" res="-6.5935272723436356e-03" rms="4.0430459380149841e-01" purity="2.2896920144557953e-01" nType="-99"/>
        </Node>
      </Node>
    </BinaryTree>
    <BinaryTree type="DecisionTree" boostWeight="1.0000000000000000e+00" itree="44">
      <Node pos="s" depth="0" NCoef="0" IVar="4" Cut="2.6009368896484375e+00" cType="1" res="-5.9110574424266815e-02" rms="4.1603896021842957e-01" purity="5.1185929775238037e-01" nType="0">
        <Node pos="l" depth="1" NCoef="0" IVar="3" Cut="5.7415692138671875e+02" cType="1" res="-9.4545576721429825e-03" rms="4.1904112696647644e-01" purity="6.1809319257736206e-01" nType="0">
          <Node pos="l" depth="2" NCoef="0" IVar="-1" Cut="0.0000000000000000e+00" cType="1" res="-3.2884266693145037e-03" rms="4.7513270378112793e-01" purity="4.3097239732742310e-01" nType="-99"/>
          <Node pos="r" depth="2" NCoef="0" IVar="-1" Cut="0.0000000000000000e+00" cType="1" res="1.0446794331073761e-02" rms="3.2433560490608215e-01" purity="8.3622360229492188e-01" nType="-99"/>
        </Node>
        <Node pos="r" depth="1" NCoef="0" IVar="4" Cut="3.5924391746520996e+00" cType="1" res="-2.1190802752971649e-01" rms="3.6666002869606018e-01" purity="1.8496511876583099e-01" nType="0">
          <Node pos="l" depth="2" NCoef="0" IVar="-1" Cut="0.0000000000000000e+00" cType="1" res="-5.2811619825661182e-03" rms="4.1243276000022888e-01" purity="2.5731387734413147e-01" nType="-99"/>
          <Node pos="r" depth="2" NCoef="0" IVar="-1" Cut="0.0000000000000000e+00" cType="1" res="-8.0095836892724037e-03" rms="2.9026344418525696e-01" purity="9.9452935159206390e-02" nType="-99"/>
        </Node>
      </Node>
    </BinaryTree>
    <BinaryTree type="DecisionTree" boostWeight="1.0000000000000000e+00" itree="45">
      <Node pos="s" depth="0" NCoef="0" IVar="5" Cut="2.2223722934722900e+00" cType="1" res="-6.8198800086975098e-02" rms="4.1592293977737427e-01" purity="5.0032776594161987e-01" nType="0">
        <Node pos="l" depth="1" NCoef="0" IVar="2" Cut="4.8391447067260742e+00" cType="1" res="-2.5794196128845215e-01" rms="3.2292321324348450e-01" purity="1.3676925003528595e-01" nType="0">
          <Node pos="l" depth="2" NCoef="0" IVar="-1" Cut="0.0000000000000000e+00" cType="1" res="-6.7334258928894997e-03" rms="3.3642524480819702e-01" purity="1.5503320097923279e-01" nType="-99"/>
          <Node pos="r" depth="2" NCoef="0" IVar="-1" Cut="0.0000000000000000e+00" cType="1" res="-8.8351108133792877e-03" rms="3.0316635966300964e-01" purity="1.1768843978643417e-01" nType="-99"/>
        </Node>
        <Node pos="r" depth="1" NCoef="0" IVar="9" Cut="1.0241484642028809e+00" cType="1" res="-3.0526569113135338e-02" rms="4.2197990417480469e-01" purity="5.7250988483428955e-01" nType="0">
          <Node pos="l" depth="2" NCoef="0" IVar="-1" Cut="0.0000000000000000e+00" cType="1" res="-5.8847898617386818e-03" rms="4.3463265895843506e-01" purity="3.7527659535408020e-01" nType="-99"/>
          <Node pos="r" depth="2" NCoef="0" IVar="-1" Cut="0.0000000000000000e+00" cType="1" res="1.1296797310933471e-03" rms="4.0747997164726257e-01" purity="6.5074545145034790e-01" nType="-99"/>
        </Node>
      </Node>
    </BinaryTree>
    <BinaryTree type="DecisionTree" boostWeight="1.0000000000000000e+00" itree="46">
      <Node pos="s" depth="0" NCoef="0" IVar="4" Cut="2.1370499134063721e+00" cType="1" res="-6.8261966109275818e-02" rms="4.1119909286499023e-01" purity="4.9157381057739258e-01" nType="0">
        <Node pos="l" depth="1" NCoef="0" IVar="5" Cut="2.6385488510131836e+00" cType="1" res="-3.9505339227616787e-03" rms="4.1563522815704346e-01" purity="6.4153671264648438e-01" nType="0">
          <Node pos="l" depth="2" NCoef="0" IVar="-1" Cut="0.0000000000000000e+00" cType="1" res="-6.5463865175843239e-03" rms="4.3654641509056091e-01" purity="3.1264916062355042e-01" nType="-99"/>
          <Node pos="r" depth="2" NCoef="0" IVar="-1" Cut="0.0000000000000000e+00" cType="1" res="2.4634781293570995e-03" rms="4.0230920910835266e-01" purity="7.0556873083114624e-01" nType="-99"/>
        </Node>
        <Node pos="r" depth="1" NCoef="0" IVar="0" Cut="6.4906982421875000e+01" cType="1" res="-1.8128843605518341e-01" rms="3.7761682271957397e-01" purity="2.2801604866981506e-01" nType="0">
          <Node pos="l" depth="2" NCoef="0" IVar="-1" Cut="0.0000000000000000e+00" cType="1" res="-7.0277289487421513e-03" rms="3.1866133213043213e-01" purity="1.3036367297172546e-01" nType="-99"/>
          <Node pos="r" depth="2" NCoef="0" IVar="-1" Cut="0.0000000000000000e+00" cType="1" res="-3.7565904203802347e-03" rms="4.4350481033325195e-01" purity="3.8546666502952576e-01" nType="-99"/>
        </Node>
      </Node>
    </BinaryTree>
    <BinaryTree type="DecisionTree" boostWeight="1.0000000000000000e+00" itree="47">
      <Node pos="s" depth="0" NCoef="0" IVar="4" Cut="2.2293734550476074e+00" cType="1" res="-5.0504919141530991e-02" rms="4.0904384851455688e-01" purity="5.1498401165008545e-01" nType="0">
        <Node pos="l" depth="1" NCoef="0" IVar="5" Cut="2.3610978126525879e+00" cType="1" res="7.4211186729371548e-03" rms="4.0363433957099915e-01" purity="6.4678663015365601e-01" nType="0">
          <Node pos="l" depth="2" NCoef="0" IVar="-1" Cut="0.0000000000000000e+00" cType="1" res="-6.6051380708813667e-03" rms="3.6775448918342590e-01" purity="2.1026161313056946e-01" nType="-99"/>
          <Node pos="r" depth="2" NCoef="0" IVar="-1" Cut="0.0000000000000000e+00" cType="1" res="3.3354542683809996e-03" rms="3.9889708161354065e-01" purity="7.1511757373809814e-01" nType="-99"/>
        </Node>
        <Node pos="r" depth="1" NCoef="0" IVar="0" Cut="6.7833724975585938e+01" cType="1" res="-1.7245733737945557e-01" rms="3.9323732256889343e-01" purity="2.3749838769435883e-01" nType="0">
          <Node pos="l" depth="2" NCoef="0" IVar="-1" Cut="0.0000000000000000e+00" cType="1" res="-6.9140596315264702e-03" rms="3.3493730425834656e-01" purity="1.3907133042812347e-01" nType="-99"/>
          <Node pos="r" depth="2" NCoef="0" IVar="-1" Cut="0.0000000000000000e+00" cType="1" res="-3.1717459205538034e-03" rms="4.5782008767127991e-01" purity="3.9746785163879395e-01" nType="-99"/>
        </Node>
      </Node>
    </BinaryTree>
    <BinaryTree type="DecisionTree" boostWeight="1.0000000000000000e+00" itree="48">
      <Node pos="s" depth="0" NCoef="0" IVar="5" Cut="2.6385712623596191e+00" cType="1" res="-7.6312944293022156e-02" rms="4.1129589080810547e-01" purity="4.8493853211402893e-01" nType="0">
        <Node pos="l" depth="1" NCoef="0" IVar="0" Cut="6.3163650512695312e+01" cType="1" res="-2.1181066334247589e-01" rms="3.6492726206779480e-01" purity="2.0073242485523224e-01" nType="0">
          <Node pos="l" depth="2" NCoef="0" IVar="-1" Cut="0.0000000000000000e+00" cType="1" res="-7.5459857471287251e-03" rms="3.1211033463478088e-01" purity="1.2036033719778061e-01" nType="-99"/>
          <Node pos="r" depth="2" NCoef="0" IVar="-1" Cut="0.0000000000000000e+00" cType="1" res="-4.7535174526274204e-03" rms="4.4382891058921814e-01" purity="3.7109890580177307e-01" nType="-99"/>
        </Node>
        <Node pos="r" depth="1" NCoef="0" IVar="3" Cut="5.7415228271484375e+02" cType="1" res="-3.4175179898738861e-02" rms="4.1577908396720886e-01" purity="5.7332235574722290e-01" nType="0">
          <Node pos="l" depth="2" NCoef="0" IVar="-1" Cut="0.0000000000000000e+00" cType="1" res="-4.2188856750726700e-03" rms="4.6083632111549377e-01" purity="3.9244884252548218e-01" nType="-99"/>
          <Node pos="r" depth="2" NCoef="0" IVar="-1" Cut="0.0000000000000000e+00" cType="1" res="4.9681579694151878e-03" rms="3.4188109636306763e-01" purity="7.7381312847137451e-01" nType="-99"/>
        </Node>
      </Node>
    </BinaryTree>
    <BinaryTree type="DecisionTree" boostWeight="1.0000000000000000e+00" itree="49">
      <Node pos="s" depth="0" NCoef="0" IVar="0" Cut="8.3277885437011719e+01" cType="1" res="-5.7641975581645966e-02" rms="4.0692159533500671e-01" purity="5.0443089008331299e-01" nType="0">
        <Node pos="l" depth="1" NCoef="0" IVar="0" Cut="4.0153400421142578e+01" cType="1" res="-1.3268168270587921e-01" rms="4.0851619839668274e-01" purity="3.4347248077392578e-01" nType="0">
          <Node pos="l" depth="2" NCoef="0" IVar="-1" Cut="0.0000000000000000e+00" cType="1" res="-8.8996449485421181e-03" rms="2.7011328935623169e-01" purity="8.6477100849151611e-02" nType="-99"/>
          <Node pos="r" depth="2" NCoef="0" IVar="-1" Cut="0.0000000000000000e+00" cType="1" res="-2.6483333203941584e-03" rms="4.3124637007713318e-01" purity="4.4703823328018188e-01" nType="-99"/>
        </Node>
        <Node pos="r" depth="1" NCoef="0" IVar="2" Cut="3.9144020080566406e+00" cType="1" res="5.1853958517313004e-02" rms="3.7879005074501038e-01" purity="7.3929709196090698e-01" nType="0">
          <Node pos="l" depth="2" NCoef="0" IVar="-1" Cut="0.0000000000000000e+00" cType="1" res="-1.2830640189349651e-03" rms="4.6693626046180725e-01" purity="5.3720647096633911e-01" nType="-99"/>
          <Node pos="r" depth="2" NCoef="0" IVar="-1" Cut="0.0000000000000000e+00" cType="1" res="4.9308847635984421e-02" rms="2.4000987410545349e-01" purity="9.4065469503402710e-01" nType="-99"/>
        </Node>
      </Node>
    </BinaryTree>
    <BinaryTree type="DecisionTree" boostWeight="1.0000000000000000e+00" itree="50">
      <Node pos="s" depth="0" NCoef="0" IVar="5" Cut="2.4996802806854248e+00" cType="1" res="-4.7831952571868896e-02" rms="4.0617677569389343e-01" purity="5.1393693685531616e-01" nType="0">
        <Node pos="l" depth="1" NCoef="0" IVar="5" Cut="1.4285809993743896e+00" cType="1" res="-2.0988410711288452e-01" rms="3.4527337551116943e-01" purity="1.7651858925819397e-01" nType="0">
          <Node pos="l" depth="2" NCoef="0" IVar="-1" Cut="0.0000000000000000e+00" cType="1" res="-8.0044474452733994e-03" rms="2.8669089078903198e-01" purity="9.9831514060497284e-02" nType="-99"/>
          <Node pos="r" depth="2" NCoef="0" IVar="-1" Cut="0.0000000000000000e+00" cType="1" res="-5.5501400493085384e-03" rms="3.7509086728096008e-01" purity="2.3124411702156067e-01" nType="-99"/>
        </Node>
        <Node pos="r" depth="1" NCoef="0" IVar="4" Cut="2.5212459564208984e+00" cType="1" res="-2.6100941468030214e-03" rms="4.1033837199211121e-01" purity="6.0809606313705444e-01" nType="0">
          <Node pos="l" depth="2" NCoef="0" IVar="-1" Cut="0.0000000000000000e+00" cType="1" res="3.2799832988530397e-03" rms="4.0102851390838623e-01" purity="7.0850467681884766e-01" nType="-99"/>
          <Node pos="r" depth="2" NCoef="0" IVar="-1" Cut="0.0000000000000000e+00" cType="1" res="-5.2348310127854347e-03" rms="4.0676778554916382e-01" purity="2.5342452526092529e-01" nType="-99"/>
        </Node>
      </Node>
    </BinaryTree>
    <BinaryTree type="DecisionTree" boostWeight="1.0000000000000000e+00" itree="51">
      <Node pos="s" depth="0" NCoef="0" IVar="5" Cut="2.6385488510131836e+00" cType="1" res="-6.0522910207509995e-02" rms="4.1577464342117310e-01" purity="5.1229786872863770e-01" nType="0">
        <Node pos="l" depth="1" NCoef="0" IVar="1" Cut="4.9437316894531250e+01" cType="1" res="-2.0001706480979919e-01" rms="3.7946593761444092e-01" purity="2.2136360406875610e-01" nType="0">
          <Node pos="l" depth="2" NCoef="0" IVar="-1" Cut="0.0000000000000000e+00" cType="1" res="-7.1973251178860664e-03" rms="3.4702226519584656e-01" purity="1.5797786414623260e-01" nType="-99"/>
          <Node pos="r" depth="2" NCoef="0" IVar="-1" Cut="0.0000000000000000e+00" cType="1" res="-4.7501809895038605e-03" rms="4.4229072332382202e-01" purity="3.8541415333747864e-01" nType="-99"/>
        </Node>
        <Node pos="r" depth="1" NCoef="0" IVar="3" Cut="5.2637634277343750e+02" cType="1" res="-1.9547661766409874e-02" rms="4.1707950830459595e-01" purity="5.9775739908218384e-01" nType="0">
          <Node pos="l" depth="2" NCoef="0" IVar="-1" Cut="0.0000000000000000e+00" cType="1" res="-3.8343393243849277e-03" rms="4.6578797698020935e-01" purity="3.9925438165664673e-01" nType="-99"/>
          <Node pos="r" depth="2" NCoef="0" IVar="-1" Cut="0.0000000000000000e+00" cType="1" res="5.9889578260481358e-03" rms="3.5081338882446289e-01" purity="7.8426414728164673e-01" nType="-99"/>
        </Node>
      </Node>
    </BinaryTree>
    <BinaryTree type="DecisionTree" boostWeight="1.0000000000000000e+00" itree="52">
      <Node pos="s" depth="0" NCoef="0" IVar="9" Cut="1.0505216121673584e+00" cType="1" res="-5.2586719393730164e-02" rms="4.0987658500671387e-01" purity="5.1735103130340576e-01" nType="0">
        <Node pos="l" depth="1" NCoef="0" IVar="3" Cut="5.9064227294921875e+02" cType="1" res="-1.6705428063869476e-01" rms="4.0994012355804443e-01" purity="3.3087038993835449e-01" nType="0">
          <Node pos="l" depth="2" NCoef="0" IVar="-1" Cut="0.0000000000000000e+00" cType="1" res="-7.0683648809790611e-03" rms="4.0894675254821777e-01" purity="2.4882830679416656e-01" nType="-99"/>
          <Node pos="r" depth="2" NCoef="0" IVar="-1" Cut="0.0000000000000000e+00" cType="1" res="-1.4910959871485829e-03" rms="3.7948006391525269e-01" purity="5.8773684501647949e-01" nType="-99"/>
        </Node>
        <Node pos="r" depth="1" NCoef="0" IVar="4" Cut="1.7808753252029419e+00" cType="1" res="-7.6208561658859253e-03" rms="4.0101033449172974e-01" purity="5.9060555696487427e-01" nType="0">
          <Node pos="l" depth="2" NCoef="0" IVar="-1" Cut="0.0000000000000000e+00" cType="1" res="4.1002095676958561e-03" rms="3.8142991065979004e-01" purity="7.2228187322616577e-01" nType="-99"/>
          <Node pos="r" depth="2" NCoef="0" IVar="-1" Cut="0.0000000000000000e+00" cType="1" res="-4.1171293705701828e-03" rms="4.1581422090530396e-01" purity="3.6267542839050293e-01" nType="-99"/>
        </Node>
      </Node>
    </BinaryTree>
    <BinaryTree type="DecisionTree" boostWeight="1.0000000000000000e+00" itree="53">
      <Node pos="s" depth="0" NCoef="0" IVar="4" Cut="2.2295086383819580e+00" cType="1" res="-6.3248954713344574e-02" rms="4.1490411758422852e-01" purity="5.0846844911575317e-01" nType="0">
        <Node pos="l" depth="1" NCoef="0" IVar="3" Cut="5.7415692138671875e+02" cType="1" res="-1.1014939285814762e-02" rms="4.1696900129318237e-01" purity="6.3949030637741089e-01" nType="0">
          <Node pos="l" depth="2" NCoef="0" IVar="-1" Cut="0.0000000000000000e+00" cType="1" res="-2.6757325977087021e-03" rms="4.7855335474014282e-01" purity="4.5754033327102661e-01" nType="-99"/>
          <Node pos="r" depth="2" NCoef="0" IVar="-1" Cut="0.0000000000000000e+00" cType="1" res="7.7046593651175499e-03" rms="3.2356309890747070e-01" purity="8.4750002622604370e-01" nType="-99"/>
        </Node>
        <Node pos="r" depth="1" NCoef="0" IVar="9" Cut="1.4308820962905884e+00" cType="1" res="-1.7365647852420807e-01" rms="3.8801780343055725e-01" purity="2.3152637481689453e-01" nType="0">
          <Node pos="l" depth="2" NCoef="0" IVar="-1" Cut="0.0000000000000000e+00" cType="1" res="-7.3536555282771587e-03" rms="3.4834074974060059e-01" purity="1.6597534716129303e-01" nType="-99"/>
          <Node pos="r" depth="2" NCoef="0" IVar="-1" Cut="0.0000000000000000e+00" cType="1" res="-4.0814918465912342e-03" rms="4.1421166062355042e-01" purity="2.9646819829940796e-01" nType="-99"/>
        </Node>
      </Node>
    </BinaryTree>
    <BinaryTree type="DecisionTree" boostWeight="1.0000000000000000e+00" itree="54">
      <Node pos="s" depth="0" NCoef="0" IVar="4" Cut="2.6009352207183838e+00" cType="1" res="-5.5819287896156311e-02" rms="4.0729898214340210e-01" purity="5.1060557365417480e-01" nType="0">
        <Node pos="l" depth="1" NCoef="0" IVar="5" Cut="1.8058143854141235e+00" cType="1" res="-1.2649357318878174e-02" rms="4.1043728590011597e-01" purity="6.1526453495025635e-01" nType="0">
          <Node pos="l" depth="2" NCoef="0" IVar="-1" Cut="0.0000000000000000e+00" cType="1" res="-7.8310770913958549e-03" rms="3.1827065348625183e-01" purity="1.3130703568458557e-01" nType="-99"/>
          <Node pos="r" depth="2" NCoef="0" IVar="-1" Cut="0.0000000000000000e+00" cType="1" res="7.5917673530057073e-04" rms="4.1023001074790955e-01" purity="6.6039073467254639e-01" nType="-99"/>
        </Node>
        <Node pos="r" depth="1" NCoef="0" IVar="0" Cut="6.7833724975585938e+01" cType="1" res="-1.8744611740112305e-01" rms="3.6750471591949463e-01" purity="1.9149635732173920e-01" nType="0">
          <Node pos="l" depth="2" NCoef="0" IVar="-1" Cut="0.0000000000000000e+00" cType="1" res="-6.9361040368676186e-03" rms="2.9970979690551758e-01" purity="1.0874368250370026e-01" nType="-99"/>
          <Node pos="r" depth="2" NCoef="0" IVar="-1" Cut="0.0000000000000000e+00" cType="1" res="-4.1507952846586704e-03" rms="4.5732757449150085e-01" purity="3.4360849857330322e-01" nType="-99"/>
        </Node>
      </Node>
    </BinaryTree>
    <BinaryTree type="DecisionTree" boostWeight="1.0000000000000000e+00" itree="55">
      <Node pos="s" depth="0" NCoef="0" IVar="4" Cut="2.2293753623962402e+00" cType="1" res="-6.9036975502967834e-02" rms="4.0710157155990601e-01" purity="4.8854622244834900e-01" nType="0">
        <Node pos="l" depth="1" NCoef="0" IVar="5" Cut="2.6386530399322510e+00" cType="1" res="-1.3437360525131226e-02" rms="4.1336542367935181e-01" purity="6.3245791196823120e-01" nType="0">
          <Node pos="l" depth="2" NCoef="0" IVar="-1" Cut="0.0000000000000000e+00" cType="1" res="-6.4795217476785183e-03" rms="4.1441226005554199e-01" purity="2.7934062480926514e-01" nType="-99"/>
          <Node pos="r" depth="2" NCoef="0" IVar="-1" Cut="0.0000000000000000e+00" cType="1" res="2.1613060962408781e-03" rms="4.0293148159980774e-01" purity="7.1305561065673828e-01" nType="-99"/>
        </Node>
        <Node pos="r" depth="1" NCoef="0" IVar="1" Cut="3.3072910308837891e+01" cType="1" res="-1.7547969520092010e-01" rms="3.7235009670257568e-01" purity="2.1303437650203705e-01" nType="0">
          <Node pos="l" depth="2" NCoef="0" IVar="-1" Cut="0.0000000000000000e+00" cType="1" res="-7.0896837860345840e-03" rms="3.1168907880783081e-01" purity="1.2339119613170624e-01" nType="-99"/>
          <Node pos="r" depth="2" NCoef="0" IVar="-1" Cut="0.0000000000000000e+00" cType="1" res="-4.3219635263085365e-03" rms="4.1568019986152649e-01" purity="3.0091390013694763e-01" nType="-99"/>
        </Node>
      </Node>
    </BinaryTree>
    <BinaryTree type="DecisionTree" boostWeight="1.0000000000000000e+00" itree="56">
      <Node pos="s" depth="0" NCoef="0" IVar="0" Cut="8.4663314819335938e+01" cType="1" res="-6.1759725213050842e-02" rms="4.0574848651885986e-01" purity="4.9707093834877014e-01" nType="0">
        <Node pos="l" depth="1" NCoef="0" IVar="0" Cut="6.1238243103027344e+01" cType="1" res="-1.2164977937936783e-01" rms="4.0956094861030579e-01" purity="3.4984743595123291e-01" nType="0">
          <Node pos="l" depth="2" NCoef="0" IVar="-1" Cut="0.0000000000000000e+00" cType="1" res="-6.8655502982437611e-03" rms="3.7040793895721436e-01" purity="2.2327922284603119e-01" nType="-99"/>
          <Node pos="r" depth="2" NCoef="0" IVar="-1" Cut="0.0000000000000000e+00" cType="1" res="5.9063909575343132e-03" rms="4.2707240581512451e-01" purity="6.5941393375396729e-01" nType="-99"/>
        </Node>
        <Node pos="r" depth="1" NCoef="0" IVar="9" Cut="1.3107638359069824e+00" cType="1" res="3.0201544985175133e-02" rms="3.8196146488189697e-01" purity="7.2313278913497925e-01" nType="0">
          <Node pos="l" depth="2" NCoef="0" IVar="-1" Cut="0.0000000000000000e+00" cType="1" res="-4.0009850636124611e-03" rms="4.5277684926986694e-01" purity="5.3821152448654175e-01" nType="-99"/>
          <Node pos="r" depth="2" NCoef="0" IVar="-1" Cut="0.0000000000000000e+00" cType="1" res="1.4340090565383434e-02" rms="3.1023839116096497e-01" purity="8.4210062026977539e-01" nType="-99"/>
        </Node>
      </Node>
    </BinaryTree>
    <BinaryTree type="DecisionTree" boostWeight="1.0000000000000000e+00" itree="57">
      <Node pos="s" depth="0" NCoef="0" IVar="4" Cut="1.8578115701675415e+00" cType="1" res="-5.6721415370702744e-02" rms="4.1025820374488831e-01" purity="5.1088732481002808e-01" nType="0">
        <Node pos="l" depth="1" NCoef="0" IVar="9" Cut="2.8332450389862061e+00" cType="1" res="1.2715441407635808e-03" rms="4.0803834795951843e-01" purity="6.5973186492919922e-01" nType="0">
          <Node pos="l" depth="2" NCoef="0" IVar="-1" Cut="0.0000000000000000e+00" cType="1" res="-2.3346196394413710e-03" rms="4.2605566978454590e-01" purity="5.8553153276443481e-01" nType="-99"/>
          <Node pos="r" depth="2" NCoef="0" IVar="-1" Cut="0.0000000000000000e+00" cType="1" res="2.5078630074858665e-02" rms="3.1897988915443420e-01" purity="8.8117516040802002e-01" nType="-99"/>
        </Node>
        <Node pos="r" depth="1" NCoef="0" IVar="3" Cut="1.0845574951171875e+03" cType="1" res="-1.4095601439476013e-01" rms="3.9871013164520264e-01" purity="2.9469102621078491e-01" nType="0">
          <Node pos="l" depth="2" NCoef="0" IVar="-1" Cut="0.0000000000000000e+00" cType="1" res="-5.7839225046336651e-03" rms="3.9164122939109802e-01" purity="2.2758391499519348e-01" nType="-99"/>
          <Node pos="r" depth="2" NCoef="0" IVar="-1" Cut="0.0000000000000000e+00" cType="1" res="1.0329366195946932e-03" rms="3.9828488230705261e-01" purity="6.3908249139785767e-01" nType="-99"/>
        </Node>
      </Node>
    </BinaryTree>
    <BinaryTree type="DecisionTree" boostWeight="1.0000000000000000e+00" itree="58">
      <Node pos="s" depth="0" NCoef="0" IVar="5" Cut="2.2221348285675049e+00" cType="1" res="-5.6284312158823013e-02" rms="4.0674951672554016e-01" purity="5.0941103696823120e-01" nType="0">
        <Node pos="l" depth="1" NCoef="0" IVar="5" Cut="1.5872720479965210e+00" cType="1" res="-2.2491286695003510e-01" rms="3.3135581016540527e-01" purity="1.5083490312099457e-01" nType="0">
          <Node pos="l" depth="2" NCoef="0" IVar="-1" Cut="0.0000000000000000e+00" cType="1" res="-7.7962456271052361e-03" rms="3.0415084958076477e-01" purity="1.1386934667825699e-01" nType="-99"/>
          <Node pos="r" depth="2" NCoef="0" IVar="-1" Cut="0.0000000000000000e+00" cType="1" res="-5.8456673286855221e-03" rms="3.6172416806221008e-01" purity="2.0507030189037323e-01" nType="-99"/>
        </Node>
        <Node pos="r" depth="1" NCoef="0" IVar="9" Cut="1.3634561300277710e+00" cType="1" res="-2.2466624155640602e-02" rms="4.1201815009117126e-01" purity="5.8132183551788330e-01" nType="0">
          <Node pos="l" depth="2" NCoef="0" IVar="-1" Cut="0.0000000000000000e+00" cType="1" res="-5.0923167727887630e-03" rms="4.2340531945228577e-01" purity="4.0137082338333130e-01" nType="-99"/>
          <Node pos="r" depth="2" NCoef="0" IVar="-1" Cut="0.0000000000000000e+00" cType="1" res="2.8441620524972677e-03" rms="3.9343619346618652e-01" purity="6.8766695261001587e-01" nType="-99"/>
        </Node>
      </Node>
    </BinaryTree>
    <BinaryTree type="DecisionTree" boostWeight="1.0000000000000000e+00" itree="59">
      <Node pos="s" depth="0" NCoef="0" IVar="0" Cut="9.7142906188964844e+01" cType="1" res="-7.0938885211944580e-02" rms="4.1549605131149292e-01" purity="4.9714669585227966e-01" nType="0">
        <Node pos="l" depth="1" NCoef="0" IVar="0" Cut="3.9600864410400391e+01" cType="1" res="-1.2320236116647720e-01" rms="4.2405581474304199e-01" purity="3.8240742683410645e-01" nType="0">
          <Node pos="l" depth="2" NCoef="0" IVar="-1" Cut="0.0000000000000000e+00" cType="1" res="-9.6038030460476875e-03" rms="2.9827371239662170e-01" purity="8.9058868587017059e-02" nType="-99"/>
          <Node pos="r" depth="2" NCoef="0" IVar="-1" Cut="0.0000000000000000e+00" cType="1" res="-2.5511179119348526e-03" rms="4.3756118416786194e-01" purity="4.8265439271926880e-01" nType="-99"/>
        </Node>
        <Node pos="r" depth="1" NCoef="0" IVar="2" Cut="2.9502248764038086e+00" cType="1" res="4.7354329377412796e-02" rms="3.6904695630073547e-01" purity="7.5684779882431030e-01" nType="0">
          <Node pos="l" depth="2" NCoef="0" IVar="-1" Cut="0.0000000000000000e+00" cType="1" res="-2.6545976288616657e-03" rms="4.8768261075019836e-01" purity="4.7442948818206787e-01" nType="-99"/>
          <Node pos="r" depth="2" NCoef="0" IVar="-1" Cut="0.0000000000000000e+00" cType="1" res="1.4379324391484261e-02" rms="3.0774483084678650e-01" purity="8.5757791996002197e-01" nType="-99"/>
        </Node>
      </Node>
    </BinaryTree>
    <BinaryTree type="DecisionTree" boostWeight="1.0000000000000000e+00" itree="60">
      <Node pos="s" depth="0" NCoef="0" IVar="5" Cut="2.6386990547180176e+00" cType="1" res="-4.4865537434816360e-02" rms="4.0474799275398254e-01" purity="5.2110171318054199e-01" nType="0">
        <Node pos="l" depth="1" NCoef="0" IVar="1" Cut="3.7471755981445312e+01" cType="1" res="-1.6203171014785767e-01" rms="3.7528467178344727e-01" purity="2.3118849098682404e-01" nType="0">
          <Node pos="l" depth="2" NCoef="0" IVar="-1" Cut="0.0000000000000000e+00" cType="1" res="-7.2408569976687431e-03" rms="3.1624108552932739e-01" purity="1.2247171252965927e-01" nType="-99"/>
          <Node pos="r" depth="2" NCoef="0" IVar="-1" Cut="0.0000000000000000e+00" cType="1" res="-2.1271265577524900e-03" rms="4.2911168932914734e-01" purity="4.0095120668411255e-01" nType="-99"/>
        </Node>
        <Node pos="r" depth="1" NCoef="0" IVar="4" Cut="2.9007112979888916e+00" cType="1" res="-1.2732717208564281e-02" rms="4.0660357475280762e-01" purity="6.0061043500900269e-01" nType="0">
          <Node pos="l" depth="2" NCoef="0" IVar="-1" Cut="0.0000000000000000e+00" cType="1" res="9.9494622554630041e-04" rms="4.0568634867668152e-01" purity="6.6659820079803467e-01" nType="-99"/>
          <Node pos="r" depth="2" NCoef="0" IVar="-1" Cut="0.0000000000000000e+00" cType="1" res="-5.5979173630475998e-03" rms="3.7545636296272278e-01" purity="2.0793576538562775e-01" nType="-99"/>
        </Node>
      </Node>
    </BinaryTree>
    <BinaryTree type="DecisionTree" boostWeight="1.0000000000000000e+00" itree="61">
      <Node pos="s" depth="0" NCoef="0" IVar="0" Cut="8.4661407470703125e+01" cType="1" res="-6.7072063684463501e-02" rms="4.0269622206687927e-01" purity="4.8862355947494507e-01" nType="0">
        <Node pos="l" depth="1" NCoef="0" IVar="0" Cut="4.0415996551513672e+01" cType="1" res="-1.3497550785541534e-01" rms="4.0558564662933350e-01" purity="3.3175930380821228e-01" nType="0">
          <Node pos="l" depth="2" NCoef="0" IVar="-1" Cut="0.0000000000000000e+00" cType="1" res="-8.6490968242287636e-03" rms="2.9885119199752808e-01" purity="1.0174352675676346e-01" nType="-99"/>
          <Node pos="r" depth="2" NCoef="0" IVar="-1" Cut="0.0000000000000000e+00" cType="1" res="-3.4580286592245102e-03" rms="4.2355939745903015e-01" purity="4.1236472129821777e-01" nType="-99"/>
        </Node>
        <Node pos="r" depth="1" NCoef="0" IVar="2" Cut="2.9260110855102539e+00" cType="1" res="4.0712293237447739e-02" rms="3.7352469563484192e-01" purity="7.3761701583862305e-01" nType="0">
          <Node pos="l" depth="2" NCoef="0" IVar="-1" Cut="0.0000000000000000e+00" cType="1" res="-3.0314552132040262e-03" rms="4.6380326151847839e-01" purity="4.2774319648742676e-01" nType="-99"/>
          <Node pos="r" depth="2" NCoef="0" IVar="-1" Cut="0.0000000000000000e+00" cType="1" res="1.1971448548138142e-02" rms="3.2996183633804321e-01" purity="8.4040343761444092e-01" nType="-99"/>
        </Node>
      </Node>
    </BinaryTree>
    <BinaryTree type="DecisionTree" boostWeight="1.0000000000000000e+00" itree="62">
      <Node pos="s" depth="0" NCoef="0" IVar="0" Cut="8.4977279663085938e+01" cType="1" res="-7.8907549381256104e-02" rms="4.0241989493370056e-01" purity="4.7278687357902527e-01" nType="0">
        <Node pos="l" depth="1" NCoef="0" IVar="1" Cut="4.4398612976074219e+01" cType="1" res="-1.3996551930904388e-01" rms="4.0385797619819641e-01" purity="3.2265278697013855e-01" nType="0">
