<?xml version="1.0"?>
<MethodSetup Method="BDT::BDTG">
  <GeneralInfo>
    <Info name="TMVA Release" value="4.2.0 [262656]"/>
    <Info name="ROOT Release" value="6.02/05 [393733]"/>
    <Info name="Creator" value="yhaddad"/>
    <Info name="Date" value="Fri Sep 18 10:14:42 2015"/>
    <Info name="Host" value="Linux cmsbuild32.cern.ch 2.6.32-504.8.1.el6.x86_64 #1 SMP Wed Jan 28 08:50:46 CET 2015 x86_64 x86_64 x86_64 GNU/Linux"/>
    <Info name="Dir" value="/afs/cern.ch/user/y/yhaddad/CMSSW_7_4_6_patch2/src/flashgg/Taggers/test/MVATraining"/>
    <Info name="Training events" value="12646"/>
    <Info name="TrainingTime" value="1.00099449e+01"/>
    <Info name="AnalysisType" value="Classification"/>
  </GeneralInfo>
  <Options>
    <Option name="V" modified="Yes">False</Option>
    <Option name="VerbosityLevel" modified="No">Default</Option>
    <Option name="VarTransform" modified="No">None</Option>
    <Option name="H" modified="Yes">False</Option>
    <Option name="CreateMVAPdfs" modified="No">False</Option>
    <Option name="IgnoreNegWeightsInTraining" modified="No">False</Option>
    <Option name="NTrees" modified="Yes">1000</Option>
    <Option name="MaxDepth" modified="Yes">2</Option>
    <Option name="MinNodeSize" modified="No">5%</Option>
    <Option name="nCuts" modified="Yes">20</Option>
    <Option name="BoostType" modified="Yes">Grad</Option>
    <Option name="AdaBoostR2Loss" modified="No">quadratic</Option>
    <Option name="UseBaggedBoost" modified="No">True</Option>
    <Option name="Shrinkage" modified="Yes">3.000000e-01</Option>
    <Option name="AdaBoostBeta" modified="No">5.000000e-01</Option>
    <Option name="UseRandomisedTrees" modified="No">False</Option>
    <Option name="UseNvars" modified="No">3</Option>
    <Option name="UsePoissonNvars" modified="No">True</Option>
    <Option name="BaggedSampleFraction" modified="No">6.000000e-01</Option>
    <Option name="UseYesNoLeaf" modified="No">True</Option>
    <Option name="NegWeightTreatment" modified="No">ignorenegweightsintraining</Option>
    <Option name="Css" modified="No">1.000000e+00</Option>
    <Option name="Cts_sb" modified="No">1.000000e+00</Option>
    <Option name="Ctb_ss" modified="No">1.000000e+00</Option>
    <Option name="Cbb" modified="No">1.000000e+00</Option>
    <Option name="NodePurityLimit" modified="No">5.000000e-01</Option>
    <Option name="SeparationType" modified="Yes">giniindex</Option>
    <Option name="DoBoostMonitor" modified="No">False</Option>
    <Option name="UseFisherCuts" modified="No">False</Option>
    <Option name="MinLinCorrForFisher" modified="No">8.000000e-01</Option>
    <Option name="UseExclusiveVars" modified="No">False</Option>
    <Option name="DoPreselection" modified="No">False</Option>
    <Option name="SigToBkgFraction" modified="No">1.000000e+00</Option>
    <Option name="PruneMethod" modified="No">nopruning</Option>
    <Option name="PruneStrength" modified="No">0.000000e+00</Option>
    <Option name="PruningValFraction" modified="No">5.000000e-01</Option>
    <Option name="nEventsMin" modified="No">0</Option>
    <Option name="UseBaggedGrad" modified="Yes">True</Option>
    <Option name="GradBaggingFraction" modified="Yes">6.000000e-01</Option>
    <Option name="UseNTrainEvents" modified="No">0</Option>
    <Option name="NNodesMax" modified="Yes">5</Option>
  </Options>
  <Variables NVar="8">
    <Variable VarIndex="0" Expression="dijet_LeadJPt" Label="dijet_LeadJPt" Title="dijet_LeadJPt" Unit="" Internal="dijet_LeadJPt" Type="F" Min="3.00021496e+01" Max="9.18357788e+02"/>
    <Variable VarIndex="1" Expression="dijet_SubJPt" Label="dijet_SubJPt" Title="dijet_SubJPt" Unit="" Internal="dijet_SubJPt" Type="F" Min="2.00039082e+01" Max="5.24242859e+02"/>
    <Variable VarIndex="2" Expression="dijet_abs_dEta" Label="dijet_abs_dEta" Title="dijet_abs_dEta" Unit="" Internal="dijet_abs_dEta" Type="F" Min="1.05464458e-02" Max="9.28434086e+00"/>
    <Variable VarIndex="3" Expression="dijet_Mjj" Label="dijet_Mjj" Title="dijet_Mjj" Unit="" Internal="dijet_Mjj" Type="F" Min="2.50031403e+02" Max="6.61538965e+03"/>
    <Variable VarIndex="4" Expression="dijet_Zep" Label="dijet_Zep" Title="dijet_Zep" Unit="" Internal="dijet_Zep" Type="F" Min="1.11575668e-04" Max="7.16189957e+00"/>
    <Variable VarIndex="5" Expression="dijet_dPhi_trunc" Label="dijet_dPhi_trunc" Title="dijet_dPhi_trunc" Unit="" Internal="dijet_dPhi_trunc" Type="F" Min="1.82387251e-02" Max="2.91599989e+00"/>
    <Variable VarIndex="6" Expression="leadPho_PToM" Label="leadPho_PToM" Title="leadPho_PToM" Unit="" Internal="leadPho_PToM" Type="F" Min="5.00080049e-01" Max="6.73306961e+01"/>
    <Variable VarIndex="7" Expression="sublPho_PToM" Label="sublPho_PToM" Title="sublPho_PToM" Unit="" Internal="sublPho_PToM" Type="F" Min="4.03149202e-02" Max="4.25304184e+01"/>
  </Variables>
  <Spectators NSpec="0"/>
  <Classes NClass="2">
    <Class Name="Signal" Index="0"/>
    <Class Name="Background" Index="1"/>
  </Classes>
  <Transformations NTransformations="0"/>
  <MVAPdfs/>
  <Weights NTrees="1000" AnalysisType="1">
    <BinaryTree type="DecisionTree" boostWeight="1.0000000000000000e+00" itree="0">
      <Node pos="s" depth="0" NCoef="0" IVar="3" Cut="5.4656304931640625e+02" cType="1" res="-9.2081334441900253e-03" rms="4.9991521239280701e-01" purity="4.9079185724258423e-01" nType="0">
        <Node pos="l" depth="1" NCoef="0" IVar="4" Cut="1.1810930967330933e+00" cType="1" res="-1.5282960236072540e-01" rms="4.7607049345970154e-01" purity="3.4717038273811340e-01" nType="0">
          <Node pos="l" depth="2" NCoef="0" IVar="-1" Cut="0.0000000000000000e+00" cType="1" res="-1.2113254051655531e-03" rms="4.9992418289184570e-01" purity="4.9129223823547363e-01" nType="-99"/>
          <Node pos="r" depth="2" NCoef="0" IVar="-1" Cut="0.0000000000000000e+00" cType="1" res="-2.5279428809881210e-02" rms="4.2673704028129578e-01" purity="2.3943233489990234e-01" nType="-99"/>
        </Node>
        <Node pos="r" depth="1" NCoef="0" IVar="4" Cut="2.2524843215942383e+00" cType="1" res="1.5478079020977020e-01" rms="4.7543969750404358e-01" purity="6.5478074550628662e-01" nType="0">
          <Node pos="l" depth="2" NCoef="0" IVar="-1" Cut="0.0000000000000000e+00" cType="1" res="6.8403899669647217e-02" rms="4.2571789026260376e-01" purity="7.6222944259643555e-01" nType="-99"/>
          <Node pos="r" depth="2" NCoef="0" IVar="-1" Cut="0.0000000000000000e+00" cType="1" res="-1.8166603520512581e-02" rms="4.7164964675903320e-01" purity="3.3402830362319946e-01" nType="-99"/>
        </Node>
      </Node>
    </BinaryTree>
    <BinaryTree type="DecisionTree" boostWeight="1.0000000000000000e+00" itree="1">
      <Node pos="s" depth="0" NCoef="0" IVar="4" Cut="2.7284612655639648e+00" cType="1" res="-4.1329995729029179e-03" rms="4.9283483624458313e-01" purity="5.0369411706924438e-01" nType="0">
        <Node pos="l" depth="1" NCoef="0" IVar="5" Cut="2.7783877849578857e+00" cType="1" res="5.4069075733423233e-02" rms="4.8991972208023071e-01" purity="5.6560319662094116e-01" nType="0">
          <Node pos="l" depth="2" NCoef="0" IVar="-1" Cut="0.0000000000000000e+00" cType="1" res="-1.9667590036988258e-02" rms="4.6629592776298523e-01" purity="3.2595819234848022e-01" nType="-99"/>
          <Node pos="r" depth="2" NCoef="0" IVar="-1" Cut="0.0000000000000000e+00" cType="1" res="2.2192513570189476e-02" rms="4.7579112648963928e-01" purity="6.3309544324874878e-01" nType="-99"/>
        </Node>
        <Node pos="r" depth="1" NCoef="0" IVar="-1" Cut="0.0000000000000000e+00" cType="1" res="-2.7718588709831238e-02" rms="3.8725140690803528e-01" purity="1.8418718874454498e-01" nType="-99"/>
      </Node>
    </BinaryTree>
    <BinaryTree type="DecisionTree" boostWeight="1.0000000000000000e+00" itree="2">
      <Node pos="s" depth="0" NCoef="0" IVar="3" Cut="5.5354943847656250e+02" cType="1" res="9.9660791456699371e-03" rms="4.8670503497123718e-01" purity="5.2025020122528076e-01" nType="0">
        <Node pos="l" depth="1" NCoef="0" IVar="4" Cut="1.3645093441009521e+00" cType="1" res="-1.2816585600376129e-01" rms="4.7755631804466248e-01" purity="3.6738732457160950e-01" nType="0">
          <Node pos="l" depth="2" NCoef="0" IVar="-1" Cut="0.0000000000000000e+00" cType="1" res="-2.4283188395202160e-03" rms="4.9805191159248352e-01" purity="4.8735976219177246e-01" nType="-99"/>
          <Node pos="r" depth="2" NCoef="0" IVar="-1" Cut="0.0000000000000000e+00" cType="1" res="-2.3727476596832275e-02" rms="4.2576265335083008e-01" purity="2.4253746867179871e-01" nType="-99"/>
        </Node>
        <Node pos="r" depth="1" NCoef="0" IVar="4" Cut="2.1957242488861084e+00" cType="1" res="1.6915689408779144e-01" rms="4.4689753651618958e-01" purity="6.9641768932342529e-01" nType="0">
          <Node pos="l" depth="2" NCoef="0" IVar="-1" Cut="0.0000000000000000e+00" cType="1" res="9.3699179589748383e-02" rms="3.7638157606124878e-01" purity="8.2573008537292480e-01" nType="-99"/>
          <Node pos="r" depth="2" NCoef="0" IVar="-1" Cut="0.0000000000000000e+00" cType="1" res="-1.5151950530707836e-02" rms="4.7587314248085022e-01" purity="3.5405683517456055e-01" nType="-99"/>
        </Node>
      </Node>
    </BinaryTree>
    <BinaryTree type="DecisionTree" boostWeight="1.0000000000000000e+00" itree="3">
      <Node pos="s" depth="0" NCoef="0" IVar="3" Cut="8.3306890869140625e+02" cType="1" res="-2.2172095254063606e-02" rms="4.7774606943130493e-01" purity="4.9904012680053711e-01" nType="0">
        <Node pos="l" depth="1" NCoef="0" IVar="1" Cut="3.4371086120605469e+01" cType="1" res="-1.0549450665712357e-01" rms="4.7558280825614929e-01" purity="4.0082964301109314e-01" nType="0">
          <Node pos="l" depth="2" NCoef="0" IVar="-1" Cut="0.0000000000000000e+00" cType="1" res="-2.3536482825875282e-02" rms="4.3017679452896118e-01" purity="2.6344105601310730e-01" nType="-99"/>
          <Node pos="r" depth="2" NCoef="0" IVar="-1" Cut="0.0000000000000000e+00" cType="1" res="1.1434415355324745e-03" rms="4.8463454842567444e-01" purity="5.2149701118469238e-01" nType="-99"/>
        </Node>
        <Node pos="r" depth="1" NCoef="0" IVar="4" Cut="1.4640949964523315e+00" cType="1" res="2.1433946490287781e-01" rms="3.9805865287780762e-01" purity="7.7781152725219727e-01" nType="0">
          <Node pos="l" depth="2" NCoef="0" IVar="-1" Cut="0.0000000000000000e+00" cType="1" res="2.0050555467605591e-01" rms="2.5300407409667969e-01" purity="9.3018776178359985e-01" nType="-99"/>
          <Node pos="r" depth="2" NCoef="0" IVar="-1" Cut="0.0000000000000000e+00" cType="1" res="1.3616710901260376e-02" rms="4.7390466928482056e-01" purity="6.1220812797546387e-01" nType="-99"/>
        </Node>
      </Node>
    </BinaryTree>
    <BinaryTree type="DecisionTree" boostWeight="1.0000000000000000e+00" itree="4">
      <Node pos="s" depth="0" NCoef="0" IVar="4" Cut="2.3606252670288086e+00" cType="1" res="-1.4556681737303734e-02" rms="4.6905031800270081e-01" purity="5.1962906122207642e-01" nType="0">
        <Node pos="l" depth="1" NCoef="0" IVar="1" Cut="3.4894256591796875e+01" cType="1" res="5.3591482341289520e-02" rms="4.6355932950973511e-01" purity="6.0823363065719604e-01" nType="0">
          <Node pos="l" depth="2" NCoef="0" IVar="-1" Cut="0.0000000000000000e+00" cType="1" res="-1.0419119149446487e-02" rms="4.7744435071945190e-01" purity="4.5283827185630798e-01" nType="-99"/>
          <Node pos="r" depth="2" NCoef="0" IVar="-1" Cut="0.0000000000000000e+00" cType="1" res="3.1400766223669052e-02" rms="4.3356478214263916e-01" purity="7.0811629295349121e-01" nType="-99"/>
        </Node>
        <Node pos="r" depth="1" NCoef="0" IVar="1" Cut="3.4387496948242188e+01" cType="1" res="-2.4123749136924744e-01" rms="4.1256508231163025e-01" purity="2.2490417957305908e-01" nType="0">
          <Node pos="l" depth="2" NCoef="0" IVar="-1" Cut="0.0000000000000000e+00" cType="1" res="-2.7273515239357948e-02" rms="3.5755193233489990e-01" purity="1.5392312407493591e-01" nType="-99"/>
          <Node pos="r" depth="2" NCoef="0" IVar="-1" Cut="0.0000000000000000e+00" cType="1" res="-1.4525302685797215e-02" rms="4.7004640102386475e-01" purity="3.4275120496749878e-01" nType="-99"/>
        </Node>
      </Node>
    </BinaryTree>
    <BinaryTree type="DecisionTree" boostWeight="1.0000000000000000e+00" itree="5">
      <Node pos="s" depth="0" NCoef="0" IVar="1" Cut="4.4033985137939453e+01" cType="1" res="-4.3701622635126114e-02" rms="4.6587169170379639e-01" purity="4.9181786179542542e-01" nType="0">
        <Node pos="l" depth="1" NCoef="0" IVar="5" Cut="2.7782330513000488e+00" cType="1" res="-1.3978236913681030e-01" rms="4.5870304107666016e-01" purity="3.7663641571998596e-01" nType="0">
          <Node pos="l" depth="2" NCoef="0" IVar="-1" Cut="0.0000000000000000e+00" cType="1" res="-2.8369836509227753e-02" rms="3.7818413972854614e-01" purity="1.8191003799438477e-01" nType="-99"/>
          <Node pos="r" depth="2" NCoef="0" IVar="-1" Cut="0.0000000000000000e+00" cType="1" res="-9.5020262524485588e-03" rms="4.7083958983421326e-01" purity="4.5601475238800049e-01" nType="-99"/>
        </Node>
        <Node pos="r" depth="1" NCoef="0" IVar="3" Cut="5.5314367675781250e+02" cType="1" res="1.1636070162057877e-01" rms="4.3252646923065186e-01" purity="6.8370032310485840e-01" nType="0">
          <Node pos="l" depth="2" NCoef="0" IVar="-1" Cut="0.0000000000000000e+00" cType="1" res="-6.1815888620913029e-03" rms="4.9150326848030090e-01" purity="4.5869550108909607e-01" nType="-99"/>
          <Node pos="r" depth="2" NCoef="0" IVar="-1" Cut="0.0000000000000000e+00" cType="1" res="1.3290543854236603e-01" rms="2.9417750239372253e-01" purity="8.9651507139205933e-01" nType="-99"/>
        </Node>
      </Node>
    </BinaryTree>
    <BinaryTree type="DecisionTree" boostWeight="1.0000000000000000e+00" itree="6">
      <Node pos="s" depth="0" NCoef="0" IVar="5" Cut="2.7781100273132324e+00" cType="1" res="-4.9324285238981247e-02" rms="4.5665723085403442e-01" purity="4.9046912789344788e-01" nType="0">
        <Node pos="l" depth="1" NCoef="0" IVar="1" Cut="4.3737808227539062e+01" cType="1" res="-2.4052281677722931e-01" rms="4.1068550944328308e-01" purity="2.4782244861125946e-01" nType="0">
          <Node pos="l" depth="2" NCoef="0" IVar="-1" Cut="0.0000000000000000e+00" cType="1" res="-2.6864787563681602e-02" rms="3.6201217770576477e-01" purity="1.6795647144317627e-01" nType="-99"/>
          <Node pos="r" depth="2" NCoef="0" IVar="-1" Cut="0.0000000000000000e+00" cType="1" res="-1.0903964750468731e-02" rms="4.9549993872642517e-01" purity="4.8854056000709534e-01" nType="-99"/>
        </Node>
        <Node pos="r" depth="1" NCoef="0" IVar="3" Cut="7.5135095214843750e+02" cType="1" res="1.6691790893673897e-02" rms="4.5312556624412537e-01" purity="5.7424896955490112e-01" nType="0">
          <Node pos="l" depth="2" NCoef="0" IVar="-1" Cut="0.0000000000000000e+00" cType="1" res="-8.3246799185872078e-03" rms="4.7728449106216431e-01" purity="4.4735401868820190e-01" nType="-99"/>
          <Node pos="r" depth="2" NCoef="0" IVar="-1" Cut="0.0000000000000000e+00" cType="1" res="7.2730951011180878e-02" rms="3.3800971508026123e-01" purity="8.4453141689300537e-01" nType="-99"/>
        </Node>
      </Node>
    </BinaryTree>
    <BinaryTree type="DecisionTree" boostWeight="1.0000000000000000e+00" itree="7">
      <Node pos="s" depth="0" NCoef="0" IVar="5" Cut="2.7780113220214844e+00" cType="1" res="-4.1816875338554382e-02" rms="4.5104083418846130e-01" purity="5.0252902507781982e-01" nType="0">
        <Node pos="l" depth="1" NCoef="0" IVar="1" Cut="4.4041255950927734e+01" cType="1" res="-2.2842314839363098e-01" rms="4.1314655542373657e-01" purity="2.5240859389305115e-01" nType="0">
          <Node pos="l" depth="2" NCoef="0" IVar="-1" Cut="0.0000000000000000e+00" cType="1" res="-2.5487901642918587e-02" rms="3.7099245190620422e-01" purity="1.7832034826278687e-01" nType="-99"/>
          <Node pos="r" depth="2" NCoef="0" IVar="-1" Cut="0.0000000000000000e+00" cType="1" res="-1.3039303943514824e-02" rms="4.8752605915069580e-01" purity="4.5692086219787598e-01" nType="-99"/>
        </Node>
        <Node pos="r" depth="1" NCoef="0" IVar="3" Cut="5.5418536376953125e+02" cType="1" res="2.0114444196224213e-02" rms="4.4599771499633789e-01" purity="5.8553957939147949e-01" nType="0">
          <Node pos="l" depth="2" NCoef="0" IVar="-1" Cut="0.0000000000000000e+00" cType="1" res="-1.0294187813997269e-02" rms="4.8165494203567505e-01" purity="4.0052801370620728e-01" nType="-99"/>
          <Node pos="r" depth="2" NCoef="0" IVar="-1" Cut="0.0000000000000000e+00" cType="1" res="4.2524661868810654e-02" rms="3.6883294582366943e-01" purity="7.9147666692733765e-01" nType="-99"/>
        </Node>
      </Node>
    </BinaryTree>
    <BinaryTree type="DecisionTree" boostWeight="1.0000000000000000e+00" itree="8">
      <Node pos="s" depth="0" NCoef="0" IVar="4" Cut="1.3645093441009521e+00" cType="1" res="-4.2743459343910217e-02" rms="4.5247676968574524e-01" purity="5.0826740264892578e-01" nType="0">
        <Node pos="l" depth="1" NCoef="0" IVar="5" Cut="2.7780113220214844e+00" cType="1" res="5.2006036043167114e-02" rms="4.3830350041389465e-01" purity="6.4308631420135498e-01" nType="0">
          <Node pos="l" depth="2" NCoef="0" IVar="-1" Cut="0.0000000000000000e+00" cType="1" res="-1.7115686088800430e-02" rms="4.7429931163787842e-01" purity="3.7950649857521057e-01" nType="-99"/>
          <Node pos="r" depth="2" NCoef="0" IVar="-1" Cut="0.0000000000000000e+00" cType="1" res="2.1448735147714615e-02" rms="4.1802594065666199e-01" purity="7.0117634534835815e-01" nType="-99"/>
        </Node>
        <Node pos="r" depth="1" NCoef="0" IVar="3" Cut="9.8955114746093750e+02" cType="1" res="-1.4164175093173981e-01" rms="4.4582721590995789e-01" purity="3.6754515767097473e-01" nType="0">
          <Node pos="l" depth="2" NCoef="0" IVar="-1" Cut="0.0000000000000000e+00" cType="1" res="-2.0848782733082771e-02" rms="4.3356633186340332e-01" purity="2.8529930114746094e-01" nType="-99"/>
          <Node pos="r" depth="2" NCoef="0" IVar="-1" Cut="0.0000000000000000e+00" cType="1" res="2.1965393796563148e-02" rms="4.1755911707878113e-01" purity="7.0952731370925903e-01" nType="-99"/>
        </Node>
      </Node>
    </BinaryTree>
    <BinaryTree type="DecisionTree" boostWeight="1.0000000000000000e+00" itree="9">
      <Node pos="s" depth="0" NCoef="0" IVar="1" Cut="3.4371086120605469e+01" cType="1" res="-4.3820127844810486e-02" rms="4.4908553361892700e-01" purity="5.0666779279708862e-01" nType="0">
        <Node pos="l" depth="1" NCoef="0" IVar="4" Cut="1.6239223480224609e+00" cType="1" res="-1.6353935003280640e-01" rms="4.3827056884765625e-01" purity="3.3241656422615051e-01" nType="0">
          <Node pos="l" depth="2" NCoef="0" IVar="-1" Cut="0.0000000000000000e+00" cType="1" res="-9.6758063882589340e-03" rms="4.6345072984695435e-01" purity="4.5989701151847839e-01" nType="-99"/>
          <Node pos="r" depth="2" NCoef="0" IVar="-1" Cut="0.0000000000000000e+00" cType="1" res="-2.4091759696602821e-02" rms="3.9493867754936218e-01" purity="2.1430397033691406e-01" nType="-99"/>
        </Node>
        <Node pos="r" depth="1" NCoef="0" IVar="4" Cut="2.3621826171875000e+00" cType="1" res="4.9833558499813080e-02" rms="4.3497353792190552e-01" purity="6.4298063516616821e-01" nType="0">
          <Node pos="l" depth="2" NCoef="0" IVar="-1" Cut="0.0000000000000000e+00" cType="1" res="2.1725231781601906e-02" rms="4.1846007108688354e-01" purity="7.0871067047119141e-01" nType="-99"/>
          <Node pos="r" depth="2" NCoef="0" IVar="-1" Cut="0.0000000000000000e+00" cType="1" res="-1.6675664111971855e-02" rms="4.5447310805320740e-01" purity="3.4058415889739990e-01" nType="-99"/>
        </Node>
      </Node>
    </BinaryTree>
    <BinaryTree type="DecisionTree" boostWeight="1.0000000000000000e+00" itree="10">
      <Node pos="s" depth="0" NCoef="0" IVar="1" Cut="4.4015285491943359e+01" cType="1" res="-6.8378202617168427e-02" rms="4.4427067041397095e-01" purity="4.7688320279121399e-01" nType="0">
        <Node pos="l" depth="1" NCoef="0" IVar="5" Cut="2.7782330513000488e+00" cType="1" res="-1.4145717024803162e-01" rms="4.4013556838035583e-01" purity="3.5949912667274475e-01" nType="0">
          <Node pos="l" depth="2" NCoef="0" IVar="-1" Cut="0.0000000000000000e+00" cType="1" res="-2.4590406566858292e-02" rms="3.6060509085655212e-01" purity="1.6487774252891541e-01" nType="-99"/>
          <Node pos="r" depth="2" NCoef="0" IVar="-1" Cut="0.0000000000000000e+00" cType="1" res="-1.1775229126214981e-02" rms="4.5943146944046021e-01" purity="4.4051983952522278e-01" nType="-99"/>
        </Node>
        <Node pos="r" depth="1" NCoef="0" IVar="2" Cut="3.2920606136322021e+00" cType="1" res="5.0265949219465256e-02" rms="4.2493173480033875e-01" purity="6.6745686531066895e-01" nType="0">
          <Node pos="l" depth="2" NCoef="0" IVar="-1" Cut="0.0000000000000000e+00" cType="1" res="-9.4419652596116066e-03" rms="4.8415523767471313e-01" purity="4.4210612773895264e-01" nType="-99"/>
          <Node pos="r" depth="2" NCoef="0" IVar="-1" Cut="0.0000000000000000e+00" cType="1" res="3.8478516042232513e-02" rms="3.7028104066848755e-01" purity="7.9396021366119385e-01" nType="-99"/>
        </Node>
      </Node>
    </BinaryTree>
    <BinaryTree type="DecisionTree" boostWeight="1.0000000000000000e+00" itree="11">
      <Node pos="s" depth="0" NCoef="0" IVar="4" Cut="2.7286212444305420e+00" cType="1" res="-4.5717276632785797e-02" rms="4.4237554073333740e-01" purity="5.0306147336959839e-01" nType="0">
        <Node pos="l" depth="1" NCoef="0" IVar="5" Cut="2.5020339488983154e+00" cType="1" res="-4.0109426481649280e-04" rms="4.4581222534179688e-01" purity="5.7434380054473877e-01" nType="0">
          <Node pos="l" depth="2" NCoef="0" IVar="-1" Cut="0.0000000000000000e+00" cType="1" res="-2.2166661918163300e-02" rms="4.3403139710426331e-01" purity="2.7118071913719177e-01" nType="-99"/>
          <Node pos="r" depth="2" NCoef="0" IVar="-1" Cut="0.0000000000000000e+00" cType="1" res="5.7642366737127304e-03" rms="4.3894356489181519e-01" purity="6.1955815553665161e-01" nType="-99"/>
        </Node>
        <Node pos="r" depth="1" NCoef="0" IVar="-1" Cut="0.0000000000000000e+00" cType="1" res="-2.4419717490673065e-02" rms="3.5034701228141785e-01" purity="1.5767206251621246e-01" nType="-99"/>
      </Node>
    </BinaryTree>
    <BinaryTree type="DecisionTree" boostWeight="1.0000000000000000e+00" itree="12">
      <Node pos="s" depth="0" NCoef="0" IVar="1" Cut="3.3554103851318359e+01" cType="1" res="-3.9922714233398438e-02" rms="4.4107550382614136e-01" purity="5.0769323110580444e-01" nType="0">
        <Node pos="l" depth="1" NCoef="0" IVar="0" Cut="5.0726383209228516e+01" cType="1" res="-1.5746407210826874e-01" rms="4.3197625875473022e-01" purity="3.1866207718849182e-01" nType="0">
          <Node pos="l" depth="2" NCoef="0" IVar="-1" Cut="0.0000000000000000e+00" cType="1" res="-2.4050543084740639e-02" rms="3.8086900115013123e-01" purity="1.9668222963809967e-01" nType="-99"/>
          <Node pos="r" depth="2" NCoef="0" IVar="-1" Cut="0.0000000000000000e+00" cType="1" res="-1.0898954235017300e-02" rms="4.5579445362091064e-01" purity="4.1446498036384583e-01" nType="-99"/>
        </Node>
        <Node pos="r" depth="1" NCoef="0" IVar="3" Cut="5.5314367675781250e+02" cType="1" res="4.5532613992691040e-02" rms="4.2775690555572510e-01" purity="6.4512336254119873e-01" nType="0">
          <Node pos="l" depth="2" NCoef="0" IVar="-1" Cut="0.0000000000000000e+00" cType="1" res="-4.8897503875195980e-03" rms="4.8495331406593323e-01" purity="4.5728328824043274e-01" nType="-99"/>
          <Node pos="r" depth="2" NCoef="0" IVar="-1" Cut="0.0000000000000000e+00" cType="1" res="5.2420090883970261e-02" rms="3.3919823169708252e-01" purity="8.3864212036132812e-01" nType="-99"/>
        </Node>
      </Node>
    </BinaryTree>
    <BinaryTree type="DecisionTree" boostWeight="1.0000000000000000e+00" itree="13">
      <Node pos="s" depth="0" NCoef="0" IVar="1" Cut="3.4371086120605469e+01" cType="1" res="-4.4420488178730011e-02" rms="4.4014215469360352e-01" purity="5.0385636091232300e-01" nType="0">
        <Node pos="l" depth="1" NCoef="0" IVar="4" Cut="7.5053596496582031e-01" cType="1" res="-1.5069501101970673e-01" rms="4.3023970723152161e-01" purity="3.1640765070915222e-01" nType="0">
          <Node pos="l" depth="2" NCoef="0" IVar="-1" Cut="0.0000000000000000e+00" cType="1" res="-7.1632926119491458e-04" rms="4.5904508233070374e-01" purity="5.0466865301132202e-01" nType="-99"/>
          <Node pos="r" depth="2" NCoef="0" IVar="-1" Cut="0.0000000000000000e+00" cType="1" res="-2.0036078989505768e-02" rms="4.1218838095664978e-01" purity="2.6236349344253540e-01" nType="-99"/>
        </Node>
        <Node pos="r" depth="1" NCoef="0" IVar="2" Cut="2.5808966159820557e+00" cType="1" res="4.2869534343481064e-02" rms="4.2884510755538940e-01" purity="6.5781986713409424e-01" nType="0">
          <Node pos="l" depth="2" NCoef="0" IVar="-1" Cut="0.0000000000000000e+00" cType="1" res="-1.9489657133817673e-02" rms="4.7725588083267212e-01" purity="3.4098374843597412e-01" nType="-99"/>
          <Node pos="r" depth="2" NCoef="0" IVar="-1" Cut="0.0000000000000000e+00" cType="1" res="1.8207922577857971e-02" rms="4.1068500280380249e-01" purity="7.0719516277313232e-01" nType="-99"/>
        </Node>
      </Node>
    </BinaryTree>
    <BinaryTree type="DecisionTree" boostWeight="1.0000000000000000e+00" itree="14">
      <Node pos="s" depth="0" NCoef="0" IVar="4" Cut="1.3664062023162842e+00" cType="1" res="-5.8632548898458481e-02" rms="4.3659862875938416e-01" purity="4.8749276995658875e-01" nType="0">
        <Node pos="l" depth="1" NCoef="0" IVar="0" Cut="6.7660820007324219e+01" cType="1" res="3.1310539692640305e-02" rms="4.3278321623802185e-01" purity="6.3607746362686157e-01" nType="0">
          <Node pos="l" depth="2" NCoef="0" IVar="-1" Cut="0.0000000000000000e+00" cType="1" res="-1.1155154556035995e-02" rms="4.6493270993232727e-01" purity="4.6298199892044067e-01" nType="-99"/>
          <Node pos="r" depth="2" NCoef="0" IVar="-1" Cut="0.0000000000000000e+00" cType="1" res="2.0245213061571121e-02" rms="4.0634086728096008e-01" purity="7.1745961904525757e-01" nType="-99"/>
        </Node>
        <Node pos="r" depth="1" NCoef="0" IVar="3" Cut="1.1593682861328125e+03" cType="1" res="-1.4942681789398193e-01" rms="4.2137500643730164e-01" purity="3.3750191330909729e-01" nType="0">
          <Node pos="l" depth="2" NCoef="0" IVar="-1" Cut="0.0000000000000000e+00" cType="1" res="-1.9518949091434479e-02" rms="4.1117948293685913e-01" purity="2.7794143557548523e-01" nType="-99"/>
          <Node pos="r" depth="2" NCoef="0" IVar="-1" Cut="0.0000000000000000e+00" cType="1" res="8.9573990553617477e-03" rms="4.3062248826026917e-01" purity="6.8765914440155029e-01" nType="-99"/>
        </Node>
      </Node>
    </BinaryTree>
    <BinaryTree type="DecisionTree" boostWeight="1.0000000000000000e+00" itree="15">
      <Node pos="s" depth="0" NCoef="0" IVar="4" Cut="2.2524347305297852e+00" cType="1" res="-6.4931504428386688e-02" rms="4.3381664156913757e-01" purity="4.7774723172187805e-01" nType="0">
        <Node pos="l" depth="1" NCoef="0" IVar="3" Cut="5.4667126464843750e+02" cType="1" res="-5.7184672914445400e-03" rms="4.3936109542846680e-01" purity="5.8443903923034668e-01" nType="0">
          <Node pos="l" depth="2" NCoef="0" IVar="-1" Cut="0.0000000000000000e+00" cType="1" res="-8.9268619194626808e-03" rms="4.7901985049247742e-01" purity="4.0768238902091980e-01" nType="-99"/>
          <Node pos="r" depth="2" NCoef="0" IVar="-1" Cut="0.0000000000000000e+00" cType="1" res="2.3014079779386520e-02" rms="3.7499263882637024e-01" purity="7.8657931089401245e-01" nType="-99"/>
        </Node>
        <Node pos="r" depth="1" NCoef="0" IVar="3" Cut="9.0222015380859375e+02" cType="1" res="-2.0968292653560638e-01" rms="3.8319417834281921e-01" purity="2.1692980825901031e-01" nType="0">
          <Node pos="l" depth="2" NCoef="0" IVar="-1" Cut="0.0000000000000000e+00" cType="1" res="-2.2473795339465141e-02" rms="3.5327500104904175e-01" purity="1.6084444522857666e-01" nType="-99"/>
          <Node pos="r" depth="2" NCoef="0" IVar="-1" Cut="0.0000000000000000e+00" cType="1" res="-1.5033982694149017e-02" rms="4.5307818055152893e-01" purity="3.9128795266151428e-01" nType="-99"/>
        </Node>
      </Node>
    </BinaryTree>
    <BinaryTree type="DecisionTree" boostWeight="1.0000000000000000e+00" itree="16">
      <Node pos="s" depth="0" NCoef="0" IVar="4" Cut="8.1987988948822021e-01" cType="1" res="-4.1800606995820999e-02" rms="4.3742579221725464e-01" purity="5.0783401727676392e-01" nType="0">
        <Node pos="l" depth="1" NCoef="0" IVar="0" Cut="7.2477714538574219e+01" cType="1" res="8.0669246613979340e-02" rms="4.1307148337364197e-01" purity="7.0371532440185547e-01" nType="0">
          <Node pos="l" depth="2" NCoef="0" IVar="-1" Cut="0.0000000000000000e+00" cType="1" res="-4.7216131351888180e-03" rms="4.5796740055084229e-01" purity="5.1420652866363525e-01" nType="-99"/>
          <Node pos="r" depth="2" NCoef="0" IVar="-1" Cut="0.0000000000000000e+00" cType="1" res="4.8097796738147736e-02" rms="3.7218394875526428e-01" purity="8.0783289670944214e-01" nType="-99"/>
        </Node>
        <Node pos="r" depth="1" NCoef="0" IVar="4" Cut="2.6932122707366943e+00" cType="1" res="-9.6110768616199493e-02" rms="4.3695059418678284e-01" purity="4.2096900939941406e-01" nType="0">
          <Node pos="l" depth="2" NCoef="0" IVar="-1" Cut="0.0000000000000000e+00" cType="1" res="-8.3063282072544098e-03" rms="4.4821885228157043e-01" purity="4.9891564249992371e-01" nType="-99"/>
          <Node pos="r" depth="2" NCoef="0" IVar="-1" Cut="0.0000000000000000e+00" cType="1" res="-2.1392088383436203e-02" rms="3.7490954995155334e-01" purity="1.8322324752807617e-01" nType="-99"/>
        </Node>
      </Node>
    </BinaryTree>
    <BinaryTree type="DecisionTree" boostWeight="1.0000000000000000e+00" itree="17">
      <Node pos="s" depth="0" NCoef="0" IVar="5" Cut="2.7782797813415527e+00" cType="1" res="-4.2361654341220856e-02" rms="4.2987427115440369e-01" purity="5.0397700071334839e-01" nType="0">
        <Node pos="l" depth="1" NCoef="0" IVar="0" Cut="8.3404029846191406e+01" cType="1" res="-1.7508272826671600e-01" rms="4.0749129652976990e-01" purity="2.6451453566551208e-01" nType="0">
          <Node pos="l" depth="2" NCoef="0" IVar="-1" Cut="0.0000000000000000e+00" cType="1" res="-2.1471004933118820e-02" rms="3.8413015007972717e-01" purity="2.0507019758224487e-01" nType="-99"/>
          <Node pos="r" depth="2" NCoef="0" IVar="-1" Cut="0.0000000000000000e+00" cType="1" res="-1.0094064287841320e-02" rms="4.4888204336166382e-01" purity="4.2125239968299866e-01" nType="-99"/>
        </Node>
        <Node pos="r" depth="1" NCoef="0" IVar="3" Cut="5.5314367675781250e+02" cType="1" res="1.9363207684364170e-04" rms="4.2818519473075867e-01" purity="5.8075755834579468e-01" nType="0">
          <Node pos="l" depth="2" NCoef="0" IVar="-1" Cut="0.0000000000000000e+00" cType="1" res="-8.6422860622406006e-03" rms="4.6862840652465820e-01" purity="3.9828833937644958e-01" nType="-99"/>
          <Node pos="r" depth="2" NCoef="0" IVar="-1" Cut="0.0000000000000000e+00" cType="1" res="2.3823795840144157e-02" rms="3.6525419354438782e-01" purity="7.7683824300765991e-01" nType="-99"/>
        </Node>
      </Node>
    </BinaryTree>
    <BinaryTree type="DecisionTree" boostWeight="1.0000000000000000e+00" itree="18">
      <Node pos="s" depth="0" NCoef="0" IVar="0" Cut="6.0120803833007812e+01" cType="1" res="-5.2508793771266937e-02" rms="4.3251562118530273e-01" purity="4.9710661172866821e-01" nType="0">
        <Node pos="l" depth="1" NCoef="0" IVar="1" Cut="3.6964946746826172e+01" cType="1" res="-1.7915306985378265e-01" rms="4.1190227866172791e-01" purity="2.7463024854660034e-01" nType="0">
          <Node pos="l" depth="2" NCoef="0" IVar="-1" Cut="0.0000000000000000e+00" cType="1" res="-2.2518618032336235e-02" rms="3.9116692543029785e-01" purity="2.1057352423667908e-01" nType="-99"/>
          <Node pos="r" depth="2" NCoef="0" IVar="-1" Cut="0.0000000000000000e+00" cType="1" res="6.9835330359637737e-03" rms="4.4096204638481140e-01" purity="5.8997762203216553e-01" nType="-99"/>
        </Node>
        <Node pos="r" depth="1" NCoef="0" IVar="4" Cut="1.0927864313125610e+00" cType="1" res="1.4684155583381653e-02" rms="4.2811262607574463e-01" purity="6.1514461040496826e-01" nType="0">
          <Node pos="l" depth="2" NCoef="0" IVar="-1" Cut="0.0000000000000000e+00" cType="1" res="4.0251392871141434e-02" rms="3.7551307678222656e-01" purity="7.9385429620742798e-01" nType="-99"/>
          <Node pos="r" depth="2" NCoef="0" IVar="-1" Cut="0.0000000000000000e+00" cType="1" res="-1.0497631505131721e-02" rms="4.4749251008033752e-01" purity="4.6934199333190918e-01" nType="-99"/>
        </Node>
      </Node>
    </BinaryTree>
    <BinaryTree type="DecisionTree" boostWeight="1.0000000000000000e+00" itree="19">
      <Node pos="s" depth="0" NCoef="0" IVar="4" Cut="2.0463366508483887e+00" cType="1" res="-5.7151306420564651e-02" rms="4.2471987009048462e-01" purity="4.8241120576858521e-01" nType="0">
        <Node pos="l" depth="1" NCoef="0" IVar="5" Cut="2.7780113220214844e+00" cType="1" res="-6.2020127661526203e-03" rms="4.3423888087272644e-01" purity="5.9577083587646484e-01" nType="0">
          <Node pos="l" depth="2" NCoef="0" IVar="-1" Cut="0.0000000000000000e+00" cType="1" res="-1.6461674124002457e-02" rms="4.3964654207229614e-01" purity="3.3068850636482239e-01" nType="-99"/>
          <Node pos="r" depth="2" NCoef="0" IVar="-1" Cut="0.0000000000000000e+00" cType="1" res="5.4634711705148220e-03" rms="4.2671790719032288e-01" purity="6.5927433967590332e-01" nType="-99"/>
        </Node>
        <Node pos="r" depth="1" NCoef="0" IVar="3" Cut="8.9995996093750000e+02" cType="1" res="-1.6797511279582977e-01" rms="3.8035959005355835e-01" purity="2.3583380877971649e-01" nType="0">
          <Node pos="l" depth="2" NCoef="0" IVar="-1" Cut="0.0000000000000000e+00" cType="1" res="-2.0494364202022552e-02" rms="3.5139167308807373e-01" purity="1.6267503798007965e-01" nType="-99"/>
          <Node pos="r" depth="2" NCoef="0" IVar="-1" Cut="0.0000000000000000e+00" cType="1" res="-6.4487429335713387e-04" rms="4.4382128119468689e-01" purity="5.3195995092391968e-01" nType="-99"/>
        </Node>
      </Node>
    </BinaryTree>
    <BinaryTree type="DecisionTree" boostWeight="1.0000000000000000e+00" itree="20">
      <Node pos="s" depth="0" NCoef="0" IVar="3" Cut="8.5635882568359375e+02" cType="1" res="-5.7495091110467911e-02" rms="4.3026044964790344e-01" purity="4.8858359456062317e-01" nType="0">
        <Node pos="l" depth="1" NCoef="0" IVar="4" Cut="1.6227177381515503e+00" cType="1" res="-9.1621175408363342e-02" rms="4.4414424896240234e-01" purity="3.9606285095214844e-01" nType="0">
          <Node pos="l" depth="2" NCoef="0" IVar="-1" Cut="0.0000000000000000e+00" cType="1" res="-6.4498600549995899e-03" rms="4.6092647314071655e-01" purity="5.0245761871337891e-01" nType="-99"/>
          <Node pos="r" depth="2" NCoef="0" IVar="-1" Cut="0.0000000000000000e+00" cType="1" res="-1.7240425571799278e-02" rms="4.0870723128318787e-01" purity="2.4182538688182831e-01" nType="-99"/>
        </Node>
        <Node pos="r" depth="1" NCoef="0" IVar="3" Cut="1.6792237548828125e+03" cType="1" res="4.4003151357173920e-02" rms="3.6776524782180786e-01" purity="7.6376014947891235e-01" nType="0">
          <Node pos="l" depth="2" NCoef="0" IVar="-1" Cut="0.0000000000000000e+00" cType="1" res="-6.2450993573293090e-04" rms="3.9366978406906128e-01" purity="7.0189267396926880e-01" nType="-99"/>
          <Node pos="r" depth="2" NCoef="0" IVar="-1" Cut="0.0000000000000000e+00" cType="1" res="1.6547483205795288e-01" rms="2.2220364212989807e-01" purity="9.5083242654800415e-01" nType="-99"/>
        </Node>
      </Node>
    </BinaryTree>
    <BinaryTree type="DecisionTree" boostWeight="1.0000000000000000e+00" itree="21">
      <Node pos="s" depth="0" NCoef="0" IVar="4" Cut="2.7284116744995117e+00" cType="1" res="-5.3715735673904419e-02" rms="4.2039096355438232e-01" purity="4.8327857255935669e-01" nType="0">
        <Node pos="l" depth="1" NCoef="0" IVar="5" Cut="2.5023303031921387e+00" cType="1" res="-1.2606634758412838e-02" rms="4.2979350686073303e-01" purity="5.6608885526657104e-01" nType="0">
          <Node pos="l" depth="2" NCoef="0" IVar="-1" Cut="0.0000000000000000e+00" cType="1" res="-1.8179506063461304e-02" rms="4.0889981389045715e-01" purity="2.5938475131988525e-01" nType="-99"/>
          <Node pos="r" depth="2" NCoef="0" IVar="-1" Cut="0.0000000000000000e+00" cType="1" res="2.1064777392894030e-03" rms="4.2802903056144714e-01" purity="6.1345249414443970e-01" nType="-99"/>
        </Node>
        <Node pos="r" depth="1" NCoef="0" IVar="-1" Cut="0.0000000000000000e+00" cType="1" res="-2.2086527198553085e-02" rms="3.2729041576385498e-01" purity="1.3851253688335419e-01" nType="-99"/>
      </Node>
    </BinaryTree>
    <BinaryTree type="DecisionTree" boostWeight="1.0000000000000000e+00" itree="22">
      <Node pos="s" depth="0" NCoef="0" IVar="4" Cut="1.4756904840469360e+00" cType="1" res="-5.3339090198278427e-02" rms="4.2151206731796265e-01" purity="4.8896956443786621e-01" nType="0">
        <Node pos="l" depth="1" NCoef="0" IVar="5" Cut="2.7783877849578857e+00" cType="1" res="4.6617253683507442e-03" rms="4.1305637359619141e-01" purity="6.2264657020568848e-01" nType="0">
          <Node pos="l" depth="2" NCoef="0" IVar="-1" Cut="0.0000000000000000e+00" cType="1" res="-1.7058480530977249e-02" rms="4.1038021445274353e-01" purity="3.0971461534500122e-01" nType="-99"/>
          <Node pos="r" depth="2" NCoef="0" IVar="-1" Cut="0.0000000000000000e+00" cType="1" res="1.0702826082706451e-02" rms="4.0415012836456299e-01" purity="7.0469701290130615e-01" nType="-99"/>
        </Node>
        <Node pos="r" depth="1" NCoef="0" IVar="3" Cut="1.2360577392578125e+03" cType="1" res="-1.2219505757093430e-01" rms="4.2108809947967529e-01" purity="3.3027422428131104e-01" nType="0">
          <Node pos="l" depth="2" NCoef="0" IVar="-1" Cut="0.0000000000000000e+00" cType="1" res="-1.6308471560478210e-02" rms="4.1623121500015259e-01" purity="2.7857881784439087e-01" nType="-99"/>
          <Node pos="r" depth="2" NCoef="0" IVar="-1" Cut="0.0000000000000000e+00" cType="1" res="1.2313344515860081e-02" rms="4.1786351799964905e-01" purity="7.1582299470901489e-01" nType="-99"/>
        </Node>
      </Node>
    </BinaryTree>
    <BinaryTree type="DecisionTree" boostWeight="1.0000000000000000e+00" itree="23">
      <Node pos="s" depth="0" NCoef="0" IVar="4" Cut="2.7284116744995117e+00" cType="1" res="-4.4710207730531693e-02" rms="4.1976359486579895e-01" purity="4.9151632189750671e-01" nType="0">
        <Node pos="l" depth="1" NCoef="0" IVar="0" Cut="7.2315574645996094e+01" cType="1" res="-1.4058494940400124e-02" rms="4.2853796482086182e-01" purity="5.6336474418640137e-01" nType="0">
          <Node pos="l" depth="2" NCoef="0" IVar="-1" Cut="0.0000000000000000e+00" cType="1" res="-1.1433522216975689e-02" rms="4.4296625256538391e-01" purity="4.0497252345085144e-01" nType="-99"/>
          <Node pos="r" depth="2" NCoef="0" IVar="-1" Cut="0.0000000000000000e+00" cType="1" res="9.1579658910632133e-03" rms="4.0922468900680542e-01" purity="6.8046510219573975e-01" nType="-99"/>
        </Node>
        <Node pos="r" depth="1" NCoef="0" IVar="-1" Cut="0.0000000000000000e+00" cType="1" res="-1.9204711541533470e-02" rms="3.4323120117187500e-01" purity="1.6121481359004974e-01" nType="-99"/>
      </Node>
    </BinaryTree>
    <BinaryTree type="DecisionTree" boostWeight="1.0000000000000000e+00" itree="24">
      <Node pos="s" depth="0" NCoef="0" IVar="1" Cut="3.4891319274902344e+01" cType="1" res="-3.2329279929399490e-02" rms="4.2318943142890930e-01" purity="5.1210093498229980e-01" nType="0">
        <Node pos="l" depth="1" NCoef="0" IVar="1" Cut="2.5684820175170898e+01" cType="1" res="-1.0476556420326233e-01" rms="4.2106950283050537e-01" purity="3.3034735918045044e-01" nType="0">
          <Node pos="l" depth="2" NCoef="0" IVar="-1" Cut="0.0000000000000000e+00" cType="1" res="-1.8288500607013702e-02" rms="3.9598414301872253e-01" purity="2.4688510596752167e-01" nType="-99"/>
          <Node pos="r" depth="2" NCoef="0" IVar="-1" Cut="0.0000000000000000e+00" cType="1" res="-6.4528849907219410e-03" rms="4.3400758504867554e-01" purity="4.0328443050384521e-01" nType="-99"/>
        </Node>
        <Node pos="r" depth="1" NCoef="0" IVar="2" Cut="3.3527421951293945e+00" cType="1" res="2.7656666934490204e-02" rms="4.1548520326614380e-01" purity="6.6261470317840576e-01" nType="0">
          <Node pos="l" depth="2" NCoef="0" IVar="-1" Cut="0.0000000000000000e+00" cType="1" res="-6.3265594653785229e-03" rms="4.7856953740119934e-01" purity="4.6859228610992432e-01" nType="-99"/>
          <Node pos="r" depth="2" NCoef="0" IVar="-1" Cut="0.0000000000000000e+00" cType="1" res="1.6385015100240707e-02" rms="3.8248223066329956e-01" purity="7.4259781837463379e-01" nType="-99"/>
        </Node>
      </Node>
    </BinaryTree>
    <BinaryTree type="DecisionTree" boostWeight="1.0000000000000000e+00" itree="25">
      <Node pos="s" depth="0" NCoef="0" IVar="3" Cut="1.1596397705078125e+03" cType="1" res="-3.9598893374204636e-02" rms="4.2406809329986572e-01" purity="5.0348442792892456e-01" nType="0">
        <Node pos="l" depth="1" NCoef="0" IVar="3" Cut="3.3693365478515625e+02" cType="1" res="-6.2083676457405090e-02" rms="4.3796911835670471e-01" purity="4.4269344210624695e-01" nType="0">
          <Node pos="l" depth="2" NCoef="0" IVar="-1" Cut="0.0000000000000000e+00" cType="1" res="-1.8606645986437798e-02" rms="4.1963598132133484e-01" purity="2.5236743688583374e-01" nType="-99"/>
          <Node pos="r" depth="2" NCoef="0" IVar="-1" Cut="0.0000000000000000e+00" cType="1" res="-2.1706919651478529e-03" rms="4.3662813305854797e-01" purity="5.2471548318862915e-01" nType="-99"/>
        </Node>
        <Node pos="r" depth="1" NCoef="0" IVar="2" Cut="6.7872805595397949e+00" cType="1" res="8.8849328458309174e-02" rms="3.0329927802085876e-01" purity="8.5076355934143066e-01" nType="0">
          <Node pos="l" depth="2" NCoef="0" IVar="-1" Cut="0.0000000000000000e+00" cType="1" res="9.7098916769027710e-02" rms="2.3665741086006165e-01" purity="9.2883801460266113e-01" nType="-99"/>
          <Node pos="r" depth="2" NCoef="0" IVar="-1" Cut="0.0000000000000000e+00" cType="1" res="1.1821643449366093e-02" rms="3.7739905714988708e-01" purity="7.3405015468597412e-01" nType="-99"/>
        </Node>
      </Node>
    </BinaryTree>
    <BinaryTree type="DecisionTree" boostWeight="1.0000000000000000e+00" itree="26">
      <Node pos="s" depth="0" NCoef="0" IVar="5" Cut="2.5020339488983154e+00" cType="1" res="-3.1056826934218407e-02" rms="4.1700011491775513e-01" purity="5.0328636169433594e-01" nType="0">
        <Node pos="l" depth="1" NCoef="0" IVar="-1" Cut="0.0000000000000000e+00" cType="1" res="-2.0219700410962105e-02" rms="3.7815761566162109e-01" purity="1.9564737379550934e-01" nType="-99"/>
        <Node pos="r" depth="1" NCoef="0" IVar="1" Cut="3.3563987731933594e+01" cType="1" res="1.5385141596198082e-03" rms="4.1702941060066223e-01" purity="5.6601357460021973e-01" nType="0">
          <Node pos="l" depth="2" NCoef="0" IVar="-1" Cut="0.0000000000000000e+00" cType="1" res="-1.0037836618721485e-02" rms="4.3072423338890076e-01" purity="3.6798754334449768e-01" nType="-99"/>
          <Node pos="r" depth="2" NCoef="0" IVar="-1" Cut="0.0000000000000000e+00" cType="1" res="1.3749174773693085e-02" rms="3.9790165424346924e-01" purity="7.0204716920852661e-01" nType="-99"/>
        </Node>
      </Node>
    </BinaryTree>
    <BinaryTree type="DecisionTree" boostWeight="1.0000000000000000e+00" itree="27">
      <Node pos="s" depth="0" NCoef="0" IVar="4" Cut="2.4586298465728760e+00" cType="1" res="-5.6019451469182968e-02" rms="4.1600632667541504e-01" purity="4.7713747620582581e-01" nType="0">
        <Node pos="l" depth="1" NCoef="0" IVar="0" Cut="7.2304801940917969e+01" cType="1" res="-2.2110261023044586e-02" rms="4.2684006690979004e-01" purity="5.6433326005935669e-01" nType="0">
          <Node pos="l" depth="2" NCoef="0" IVar="-1" Cut="0.0000000000000000e+00" cType="1" res="-1.2191806919872761e-02" rms="4.3987727165222168e-01" purity="4.0130272507667542e-01" nType="-99"/>
          <Node pos="r" depth="2" NCoef="0" IVar="-1" Cut="0.0000000000000000e+00" cType="1" res="5.8618686161935329e-03" rms="4.1077366471290588e-01" purity="6.7679309844970703e-01" nType="-99"/>
        </Node>
        <Node pos="r" depth="1" NCoef="0" IVar="2" Cut="5.1303610801696777e+00" cType="1" res="-1.7074149847030640e-01" rms="3.5371908545494080e-01" purity="1.8213535845279694e-01" nType="0">
          <Node pos="l" depth="2" NCoef="0" IVar="-1" Cut="0.0000000000000000e+00" cType="1" res="-1.9282041117548943e-02" rms="3.4088873863220215e-01" purity="1.4537492394447327e-01" nType="-99"/>
          <Node pos="r" depth="2" NCoef="0" IVar="-1" Cut="0.0000000000000000e+00" cType="1" res="-1.6416424885392189e-02" rms="3.7086302042007446e-01" purity="2.3836617171764374e-01" nType="-99"/>
        </Node>
      </Node>
    </BinaryTree>
    <BinaryTree type="DecisionTree" boostWeight="1.0000000000000000e+00" itree="28">
      <Node pos="s" depth="0" NCoef="0" IVar="4" Cut="2.9507536888122559e+00" cType="1" res="-1.9548121839761734e-02" rms="4.1956520080566406e-01" purity="5.2009487152099609e-01" nType="0">
        <Node pos="l" depth="1" NCoef="0" IVar="1" Cut="4.4015285491943359e+01" cType="1" res="9.6232164651155472e-03" rms="4.2752465605735779e-01" purity="5.8927375078201294e-01" nType="0">
          <Node pos="l" depth="2" NCoef="0" IVar="-1" Cut="0.0000000000000000e+00" cType="1" res="-5.0336555577814579e-03" rms="4.4802543520927429e-01" purity="4.6663790941238403e-01" nType="-99"/>
          <Node pos="r" depth="2" NCoef="0" IVar="-1" Cut="0.0000000000000000e+00" cType="1" res="2.0439013838768005e-02" rms="3.9032986760139465e-01" purity="7.5485157966613770e-01" nType="-99"/>
        </Node>
        <Node pos="r" depth="1" NCoef="0" IVar="-1" Cut="0.0000000000000000e+00" cType="1" res="-1.9290776923298836e-02" rms="3.2949179410934448e-01" purity="1.3975372910499573e-01" nType="-99"/>
      </Node>
    </BinaryTree>
    <BinaryTree type="DecisionTree" boostWeight="1.0000000000000000e+00" itree="29">
      <Node pos="s" depth="0" NCoef="0" IVar="1" Cut="3.0710947036743164e+01" cType="1" res="-4.2010139673948288e-02" rms="4.1805374622344971e-01" purity="4.9667114019393921e-01" nType="0">
        <Node pos="l" depth="1" NCoef="0" IVar="0" Cut="9.2142524719238281e+01" cType="1" res="-1.2396201491355896e-01" rms="4.0423420071601868e-01" purity="2.8252723813056946e-01" nType="0">
          <Node pos="l" depth="2" NCoef="0" IVar="-1" Cut="0.0000000000000000e+00" cType="1" res="-1.6677338629961014e-02" rms="3.8922402262687683e-01" purity="2.3262897133827209e-01" nType="-99"/>
          <Node pos="r" depth="2" NCoef="0" IVar="-1" Cut="0.0000000000000000e+00" cType="1" res="-2.4480475112795830e-03" rms="4.4561406970024109e-01" purity="4.9002224206924438e-01" nType="-99"/>
        </Node>
        <Node pos="r" depth="1" NCoef="0" IVar="3" Cut="5.4696875000000000e+02" cType="1" res="5.1246732473373413e-03" rms="4.1859325766563416e-01" purity="6.1983644962310791e-01" nType="0">
          <Node pos="l" depth="2" NCoef="0" IVar="-1" Cut="0.0000000000000000e+00" cType="1" res="-5.0515648908913136e-03" rms="4.7587263584136963e-01" purity="4.3741586804389954e-01" nType="-99"/>
          <Node pos="r" depth="2" NCoef="0" IVar="-1" Cut="0.0000000000000000e+00" cType="1" res="1.6692932695150375e-02" rms="3.4985563158988953e-01" purity="7.9575395584106445e-01" nType="-99"/>
        </Node>
      </Node>
    </BinaryTree>
    <BinaryTree type="DecisionTree" boostWeight="1.0000000000000000e+00" itree="30">
      <Node pos="s" depth="0" NCoef="0" IVar="1" Cut="3.1507966995239258e+01" cType="1" res="-2.7057895436882973e-02" rms="4.1312059760093689e-01" purity="5.0528186559677124e-01" nType="0">
        <Node pos="l" depth="1" NCoef="0" IVar="1" Cut="2.3837856292724609e+01" cType="1" res="-9.9774308502674103e-02" rms="4.0846306085586548e-01" purity="3.0192276835441589e-01" nType="0">
          <Node pos="l" depth="2" NCoef="0" IVar="-1" Cut="0.0000000000000000e+00" cType="1" res="-1.8140368163585663e-02" rms="3.8349103927612305e-01" purity="2.2089472413063049e-01" nType="-99"/>
          <Node pos="r" depth="2" NCoef="0" IVar="-1" Cut="0.0000000000000000e+00" cType="1" res="-7.1642706170678139e-03" rms="4.1835242509841919e-01" purity="3.5625895857810974e-01" nType="-99"/>
        </Node>
        <Node pos="r" depth="1" NCoef="0" IVar="2" Cut="3.3965270519256592e+00" cType="1" res="1.7858488485217094e-02" rms="4.0957129001617432e-01" purity="6.3089531660079956e-01" nType="0">
          <Node pos="l" depth="2" NCoef="0" IVar="-1" Cut="0.0000000000000000e+00" cType="1" res="-1.0770892724394798e-02" rms="4.6815398335456848e-01" purity="4.2255568504333496e-01" nType="-99"/>
          <Node pos="r" depth="2" NCoef="0" IVar="-1" Cut="0.0000000000000000e+00" cType="1" res="1.6895573586225510e-02" rms="3.7171289324760437e-01" purity="7.2477799654006958e-01" nType="-99"/>
        </Node>
      </Node>
    </BinaryTree>
    <BinaryTree type="DecisionTree" boostWeight="1.0000000000000000e+00" itree="31">
      <Node pos="s" depth="0" NCoef="0" IVar="5" Cut="2.3651189804077148e+00" cType="1" res="-3.5255670547485352e-02" rms="4.1793230175971985e-01" purity="5.0573754310607910e-01" nType="0">
        <Node pos="l" depth="1" NCoef="0" IVar="-1" Cut="0.0000000000000000e+00" cType="1" res="-1.9256126135587692e-02" rms="3.9575681090354919e-01" purity="2.1089529991149902e-01" nType="-99"/>
        <Node pos="r" depth="1" NCoef="0" IVar="4" Cut="1.3642616271972656e+00" cType="1" res="-1.5940327197313309e-02" rms="4.1749089956283569e-01" purity="5.4816889762878418e-01" nType="0">
          <Node pos="l" depth="2" NCoef="0" IVar="-1" Cut="0.0000000000000000e+00" cType="1" res="9.3687260523438454e-03" rms="4.0243327617645264e-01" purity="6.9259876012802124e-01" nType="-99"/>
          <Node pos="r" depth="2" NCoef="0" IVar="-1" Cut="0.0000000000000000e+00" cType="1" res="-1.0381972417235374e-02" rms="4.2521166801452637e-01" purity="3.9000266790390015e-01" nType="-99"/>
        </Node>
      </Node>
    </BinaryTree>
    <BinaryTree type="DecisionTree" boostWeight="1.0000000000000000e+00" itree="32">
      <Node pos="s" depth="0" NCoef="0" IVar="4" Cut="2.7284116744995117e+00" cType="1" res="-2.1445717662572861e-02" rms="4.1448411345481873e-01" purity="5.1797568798065186e-01" nType="0">
        <Node pos="l" depth="1" NCoef="0" IVar="5" Cut="2.7781100273132324e+00" cType="1" res="3.1843518372625113e-03" rms="4.1664785146713257e-01" purity="5.8279365301132202e-01" nType="0">
          <Node pos="l" depth="2" NCoef="0" IVar="-1" Cut="0.0000000000000000e+00" cType="1" res="-1.0952833108603954e-02" rms="4.2800682783126831e-01" purity="3.2807606458663940e-01" nType="-99"/>
          <Node pos="r" depth="2" NCoef="0" IVar="-1" Cut="0.0000000000000000e+00" cType="1" res="5.8092740364372730e-03" rms="4.1010403633117676e-01" purity="6.5188837051391602e-01" nType="-99"/>
        </Node>
        <Node pos="r" depth="1" NCoef="0" IVar="-1" Cut="0.0000000000000000e+00" cType="1" res="-1.6456127166748047e-02" rms="3.7965074181556702e-01" purity="1.9029353559017181e-01" nType="-99"/>
      </Node>
    </BinaryTree>
    <BinaryTree type="DecisionTree" boostWeight="1.0000000000000000e+00" itree="33">
      <Node pos="s" depth="0" NCoef="0" IVar="4" Cut="2.5339751243591309e+00" cType="1" res="-3.0072769150137901e-02" rms="4.1345873475074768e-01" purity="5.0523793697357178e-01" nType="0">
        <Node pos="l" depth="1" NCoef="0" IVar="2" Cut="3.0404188632965088e+00" cType="1" res="-3.7322845309972763e-03" rms="4.1913709044456482e-01" purity="5.8295679092407227e-01" nType="0">
          <Node pos="l" depth="2" NCoef="0" IVar="-1" Cut="0.0000000000000000e+00" cType="1" res="-1.6125708818435669e-02" rms="4.7668778896331787e-01" purity="3.9329776167869568e-01" nType="-99"/>
          <Node pos="r" depth="2" NCoef="0" IVar="-1" Cut="0.0000000000000000e+00" cType="1" res="3.7144124507904053e-03" rms="4.0403604507446289e-01" purity="6.1637783050537109e-01" nType="-99"/>
        </Node>
        <Node pos="r" depth="1" NCoef="0" IVar="-1" Cut="0.0000000000000000e+00" cType="1" res="-1.5330928377807140e-02" rms="3.7313240766525269e-01" purity="2.0196911692619324e-01" nType="-99"/>
      </Node>
    </BinaryTree>
    <BinaryTree type="DecisionTree" boostWeight="1.0000000000000000e+00" itree="34">
      <Node pos="s" depth="0" NCoef="0" IVar="0" Cut="6.4187934875488281e+01" cType="1" res="-3.9311997592449188e-02" rms="4.2097374796867371e-01" purity="4.9670332670211792e-01" nType="0">
        <Node pos="l" depth="1" NCoef="0" IVar="0" Cut="4.4664920806884766e+01" cType="1" res="-1.0737109184265137e-01" rms="4.1691100597381592e-01" purity="3.1081834435462952e-01" nType="0">
          <Node pos="l" depth="2" NCoef="0" IVar="-1" Cut="0.0000000000000000e+00" cType="1" res="-1.8738286569714546e-02" rms="3.6942288279533386e-01" purity="1.8429128825664520e-01" nType="-99"/>
          <Node pos="r" depth="2" NCoef="0" IVar="-1" Cut="0.0000000000000000e+00" cType="1" res="-6.5753972157835960e-03" rms="4.4929996132850647e-01" purity="4.3240034580230713e-01" nType="-99"/>
        </Node>
        <Node pos="r" depth="1" NCoef="0" IVar="2" Cut="2.5544183254241943e+00" cType="1" res="1.9101499347016215e-03" rms="4.1806206107139587e-01" purity="6.0929048061370850e-01" nType="0">
          <Node pos="l" depth="2" NCoef="0" IVar="-1" Cut="0.0000000000000000e+00" cType="1" res="-1.6033496707677841e-02" rms="4.9669367074966431e-01" purity="3.6733096837997437e-01" nType="-99"/>
          <Node pos="r" depth="2" NCoef="0" IVar="-1" Cut="0.0000000000000000e+00" cType="1" res="3.9571244269609451e-03" rms="4.0401110053062439e-01" purity="6.3945353031158447e-01" nType="-99"/>
        </Node>
      </Node>
    </BinaryTree>
    <BinaryTree type="DecisionTree" boostWeight="1.0000000000000000e+00" itree="35">
      <Node pos="s" depth="0" NCoef="0" IVar="3" Cut="8.5625598144531250e+02" cType="1" res="-3.2224349677562714e-02" rms="4.1603621840476990e-01" purity="4.9711361527442932e-01" nType="0">
        <Node pos="l" depth="1" NCoef="0" IVar="3" Cut="3.3660232543945312e+02" cType="1" res="-5.7352248579263687e-02" rms="4.3352523446083069e-01" purity="4.0160965919494629e-01" nType="0">
          <Node pos="l" depth="2" NCoef="0" IVar="-1" Cut="0.0000000000000000e+00" cType="1" res="-1.6608206555247307e-02" rms="4.1780421137809753e-01" purity="2.4750286340713501e-01" nType="-99"/>
          <Node pos="r" depth="2" NCoef="0" IVar="-1" Cut="0.0000000000000000e+00" cType="1" res="-2.0678986329585314e-03" rms="4.3381193280220032e-01" purity="4.7433680295944214e-01" nType="-99"/>
        </Node>
        <Node pos="r" depth="1" NCoef="0" IVar="0" Cut="6.4187934875488281e+01" cType="1" res="4.3723367154598236e-02" rms="3.4713426232337952e-01" purity="7.8576916456222534e-01" nType="0">
          <Node pos="l" depth="2" NCoef="0" IVar="-1" Cut="0.0000000000000000e+00" cType="1" res="-5.6430562399327755e-03" rms="4.3604448437690735e-01" purity="5.5521976947784424e-01" nType="-99"/>
          <Node pos="r" depth="2" NCoef="0" IVar="-1" Cut="0.0000000000000000e+00" cType="1" res="4.2237307876348495e-02" rms="3.0108067393302917e-01" purity="8.7448632717132568e-01" nType="-99"/>
        </Node>
      </Node>
    </BinaryTree>
    <BinaryTree type="DecisionTree" boostWeight="1.0000000000000000e+00" itree="36">
      <Node pos="s" depth="0" NCoef="0" IVar="5" Cut="2.5023303031921387e+00" cType="1" res="-3.4236863255500793e-02" rms="4.1978830099105835e-01" purity="4.9812659621238708e-01" nType="0">
        <Node pos="l" depth="1" NCoef="0" IVar="-1" Cut="0.0000000000000000e+00" cType="1" res="-1.8026880919933319e-02" rms="3.6790773272514343e-01" purity="1.8759405612945557e-01" nType="-99"/>
        <Node pos="r" depth="1" NCoef="0" IVar="2" Cut="6.3367800712585449e+00" cType="1" res="-7.1154893375933170e-03" rms="4.2582130432128906e-01" purity="5.6750100851058960e-01" nType="0">
          <Node pos="l" depth="2" NCoef="0" IVar="-1" Cut="0.0000000000000000e+00" cType="1" res="-3.5249409265816212e-03" rms="4.3276390433311462e-01" purity="5.3662514686584473e-01" nType="-99"/>
          <Node pos="r" depth="2" NCoef="0" IVar="-1" Cut="0.0000000000000000e+00" cType="1" res="4.0703501552343369e-02" rms="3.4437078237533569e-01" purity="8.2171869277954102e-01" nType="-99"/>
        </Node>
      </Node>
    </BinaryTree>
    <BinaryTree type="DecisionTree" boostWeight="1.0000000000000000e+00" itree="37">
      <Node pos="s" depth="0" NCoef="0" IVar="1" Cut="3.3429405212402344e+01" cType="1" res="-3.7139385938644409e-02" rms="4.0595540404319763e-01" purity="4.8715889453887939e-01" nType="0">
        <Node pos="l" depth="1" NCoef="0" IVar="0" Cut="8.9540161132812500e+01" cType="1" res="-9.7759939730167389e-02" rms="3.9856475591659546e-01" purity="2.9289674758911133e-01" nType="0">
          <Node pos="l" depth="2" NCoef="0" IVar="-1" Cut="0.0000000000000000e+00" cType="1" res="-1.4685925096273422e-02" rms="3.8507691025733948e-01" purity="2.3442898690700531e-01" nType="-99"/>
          <Node pos="r" depth="2" NCoef="0" IVar="-1" Cut="0.0000000000000000e+00" cType="1" res="-4.8741078353486955e-04" rms="4.2819905281066895e-01" purity="4.9238619208335876e-01" nType="-99"/>
        </Node>
        <Node pos="r" depth="1" NCoef="0" IVar="3" Cut="5.4190447998046875e+02" cType="1" res="8.8463490828871727e-03" rms="4.0547242760658264e-01" purity="6.3452297449111938e-01" nType="0">
          <Node pos="l" depth="2" NCoef="0" IVar="-1" Cut="0.0000000000000000e+00" cType="1" res="-7.3787770234048367e-03" rms="4.6992084383964539e-01" purity="4.1467070579528809e-01" nType="-99"/>
          <Node pos="r" depth="2" NCoef="0" IVar="-1" Cut="0.0000000000000000e+00" cType="1" res="4.3161578476428986e-02" rms="3.0693012475967407e-01" purity="8.7153166532516479e-01" nType="-99"/>
        </Node>
      </Node>
    </BinaryTree>
    <BinaryTree type="DecisionTree" boostWeight="1.0000000000000000e+00" itree="38">
      <Node pos="s" depth="0" NCoef="0" IVar="4" Cut="2.7284612655639648e+00" cType="1" res="-2.6288434863090515e-02" rms="4.1389203071594238e-01" purity="5.0729167461395264e-01" nType="0">
        <Node pos="l" depth="1" NCoef="0" IVar="5" Cut="2.7780113220214844e+00" cType="1" res="-7.3342863470315933e-03" rms="4.2068016529083252e-01" purity="5.7288151979446411e-01" nType="0">
          <Node pos="l" depth="2" NCoef="0" IVar="-1" Cut="0.0000000000000000e+00" cType="1" res="-1.0732037015259266e-02" rms="4.3050146102905273e-01" purity="3.2471051812171936e-01" nType="-99"/>
          <Node pos="r" depth="2" NCoef="0" IVar="-1" Cut="0.0000000000000000e+00" cType="1" res="2.5266630109399557e-03" rms="4.1586658358573914e-01" purity="6.3642317056655884e-01" nType="-99"/>
        </Node>
        <Node pos="r" depth="1" NCoef="0" IVar="-1" Cut="0.0000000000000000e+00" cType="1" res="-1.4346160925924778e-02" rms="3.6479473114013672e-01" purity="1.8531234562397003e-01" nType="-99"/>
      </Node>
    </BinaryTree>
    <BinaryTree type="DecisionTree" boostWeight="1.0000000000000000e+00" itree="39">
      <Node pos="s" depth="0" NCoef="0" IVar="2" Cut="2.5886533260345459e+00" cType="1" res="-4.1546929627656937e-02" rms="4.1631472110748291e-01" purity="4.8984453082084656e-01" nType="0">
        <Node pos="l" depth="1" NCoef="0" IVar="-1" Cut="0.0000000000000000e+00" cType="1" res="-1.7627224326133728e-02" rms="4.5846095681190491e-01" purity="3.0503386259078979e-01" nType="-99"/>
        <Node pos="r" depth="1" NCoef="0" IVar="1" Cut="6.0266921997070312e+01" cType="1" res="-3.0701085925102234e-02" rms="4.1047003865242004e-01" purity="5.0719809532165527e-01" nType="0">
          <Node pos="l" depth="2" NCoef="0" IVar="-1" Cut="0.0000000000000000e+00" cType="1" res="-7.7660260722041130e-03" rms="4.2143031954765320e-01" purity="4.4226437807083130e-01" nType="-99"/>
          <Node pos="r" depth="2" NCoef="0" IVar="-1" Cut="0.0000000000000000e+00" cType="1" res="3.6297317594289780e-02" rms="3.2806402444839478e-01" purity="8.4607011079788208e-01" nType="-99"/>
        </Node>
      </Node>
    </BinaryTree>
    <BinaryTree type="DecisionTree" boostWeight="1.0000000000000000e+00" itree="40">
      <Node pos="s" depth="0" NCoef="0" IVar="1" Cut="4.4020977020263672e+01" cType="1" res="-2.0458152517676353e-02" rms="4.0572729706764221e-01" purity="5.0495904684066772e-01" nType="0">
        <Node pos="l" depth="1" NCoef="0" IVar="1" Cut="2.3439559936523438e+01" cType="1" res="-5.8231145143508911e-02" rms="4.1900402307510376e-01" purity="3.8295692205429077e-01" nType="0">
          <Node pos="l" depth="2" NCoef="0" IVar="-1" Cut="0.0000000000000000e+00" cType="1" res="-1.7302967607975006e-02" rms="3.8044467568397522e-01" purity="2.2049108147621155e-01" nType="-99"/>
          <Node pos="r" depth="2" NCoef="0" IVar="-1" Cut="0.0000000000000000e+00" cType="1" res="-4.4511458836495876e-03" rms="4.2566275596618652e-01" purity="4.3160435557365417e-01" nType="-99"/>
        </Node>
        <Node pos="r" depth="1" NCoef="0" IVar="4" Cut="1.0215184688568115e+00" cType="1" res="4.5154236257076263e-02" rms="3.7257397174835205e-01" purity="7.1687895059585571e-01" nType="0">
          <Node pos="l" depth="2" NCoef="0" IVar="-1" Cut="0.0000000000000000e+00" cType="1" res="3.6571141332387924e-02" rms="3.2203131914138794e-01" purity="8.4009695053100586e-01" nType="-99"/>
          <Node pos="r" depth="2" NCoef="0" IVar="-1" Cut="0.0000000000000000e+00" cType="1" res="9.7827974241226912e-04" rms="4.0799042582511902e-01" purity="6.0772180557250977e-01" nType="-99"/>
        </Node>
      </Node>
    </BinaryTree>
    <BinaryTree type="DecisionTree" boostWeight="1.0000000000000000e+00" itree="41">
      <Node pos="s" depth="0" NCoef="0" IVar="4" Cut="1.4754326343536377e+00" cType="1" res="-2.6557704433798790e-02" rms="4.0663647651672363e-01" purity="4.9794277548789978e-01" nType="0">
        <Node pos="l" depth="1" NCoef="0" IVar="5" Cut="2.7781100273132324e+00" cType="1" res="2.1444307640194893e-02" rms="3.9972087740898132e-01" purity="6.4973860979080200e-01" nType="0">
          <Node pos="l" depth="2" NCoef="0" IVar="-1" Cut="0.0000000000000000e+00" cType="1" res="-9.2117525637149811e-03" rms="4.5408025383949280e-01" purity="3.8003149628639221e-01" nType="-99"/>
          <Node pos="r" depth="2" NCoef="0" IVar="-1" Cut="0.0000000000000000e+00" cType="1" res="1.0903390124440193e-02" rms="3.8229429721832275e-01" purity="7.1499484777450562e-01" nType="-99"/>
        </Node>
        <Node pos="r" depth="1" NCoef="0" IVar="0" Cut="1.1011466217041016e+02" cType="1" res="-7.9393096268177032e-02" rms="4.0763145685195923e-01" purity="3.3086240291595459e-01" nType="0">
          <Node pos="l" depth="2" NCoef="0" IVar="-1" Cut="0.0000000000000000e+00" cType="1" res="-1.2353561818599701e-02" rms="3.9637288451194763e-01" purity="2.8773525357246399e-01" nType="-99"/>
          <Node pos="r" depth="2" NCoef="0" IVar="-1" Cut="0.0000000000000000e+00" cType="1" res="-5.8591511333361268e-04" rms="4.5012328028678894e-01" purity="5.3769439458847046e-01" nType="-99"/>
        </Node>
      </Node>
    </BinaryTree>
    <BinaryTree type="DecisionTree" boostWeight="1.0000000000000000e+00" itree="42">
      <Node pos="s" depth="0" NCoef="0" IVar="4" Cut="1.3642616271972656e+00" cType="1" res="-4.3513320386409760e-02" rms="4.1000354290008545e-01" purity="4.8515945672988892e-01" nType="0">
        <Node pos="l" depth="1" NCoef="0" IVar="2" Cut="2.9458692073822021e+00" cType="1" res="7.6098362915217876e-03" rms="4.0297439694404602e-01" purity="6.4817291498184204e-01" nType="0">
          <Node pos="l" depth="2" NCoef="0" IVar="-1" Cut="0.0000000000000000e+00" cType="1" res="-1.9001038745045662e-02" rms="4.8173457384109497e-01" purity="4.0377208590507507e-01" nType="-99"/>
          <Node pos="r" depth="2" NCoef="0" IVar="-1" Cut="0.0000000000000000e+00" cType="1" res="9.6061620861291885e-03" rms="3.7773305177688599e-01" purity="6.9594919681549072e-01" nType="-99"/>
        </Node>
        <Node pos="r" depth="1" NCoef="0" IVar="3" Cut="1.1597979736328125e+03" cType="1" res="-9.2388398945331573e-02" rms="4.1070517897605896e-01" purity="3.2931435108184814e-01" nType="0">
          <Node pos="l" depth="2" NCoef="0" IVar="-1" Cut="0.0000000000000000e+00" cType="1" res="-1.3736521825194359e-02" rms="4.0869835019111633e-01" purity="2.6701658964157104e-01" nType="-99"/>
          <Node pos="r" depth="2" NCoef="0" IVar="-1" Cut="0.0000000000000000e+00" cType="1" res="7.3197921738028526e-03" rms="4.0426713228225708e-01" purity="7.2933501005172729e-01" nType="-99"/>
        </Node>
      </Node>
    </BinaryTree>
    <BinaryTree type="DecisionTree" boostWeight="1.0000000000000000e+00" itree="43">
      <Node pos="s" depth="0" NCoef="0" IVar="3" Cut="5.0094146728515625e+02" cType="1" res="-3.9303932338953018e-02" rms="4.1163107752799988e-01" purity="4.8903486132621765e-01" nType="0">
        <Node pos="l" depth="1" NCoef="0" IVar="3" Cut="3.4579489135742188e+02" cType="1" res="-7.1572311222553253e-02" rms="4.3039703369140625e-01" purity="3.2048904895782471e-01" nType="0">
          <Node pos="l" depth="2" NCoef="0" IVar="-1" Cut="0.0000000000000000e+00" cType="1" res="-1.4623259194195271e-02" rms="4.1395837068557739e-01" purity="2.5213366746902466e-01" nType="-99"/>
          <Node pos="r" depth="2" NCoef="0" IVar="-1" Cut="0.0000000000000000e+00" cType="1" res="-1.7727498197928071e-03" rms="4.4000288844108582e-01" purity="3.9466112852096558e-01" nType="-99"/>
        </Node>
        <Node pos="r" depth="1" NCoef="0" IVar="4" Cut="5.6326478719711304e-01" cType="1" res="-7.4595334008336067e-03" rms="3.8962113857269287e-01" purity="6.5536612272262573e-01" nType="0">
          <Node pos="l" depth="2" NCoef="0" IVar="-1" Cut="0.0000000000000000e+00" cType="1" res="3.5260032862424850e-02" rms="3.0935707688331604e-01" purity="8.6697626113891602e-01" nType="-99"/>
          <Node pos="r" depth="2" NCoef="0" IVar="-1" Cut="0.0000000000000000e+00" cType="1" res="-5.4976884275674820e-03" rms="4.0716508030891418e-01" purity="5.9620243310928345e-01" nType="-99"/>
        </Node>
      </Node>
    </BinaryTree>
    <BinaryTree type="DecisionTree" boostWeight="1.0000000000000000e+00" itree="44">
      <Node pos="s" depth="0" NCoef="0" IVar="5" Cut="2.3644404411315918e+00" cType="1" res="-2.9308395460247993e-02" rms="4.1043081879615784e-01" purity="4.9836206436157227e-01" nType="0">
        <Node pos="l" depth="1" NCoef="0" IVar="-1" Cut="0.0000000000000000e+00" cType="1" res="-1.5641948208212852e-02" rms="3.8838928937911987e-01" purity="2.0156970620155334e-01" nType="-99"/>
        <Node pos="r" depth="1" NCoef="0" IVar="5" Cut="2.8897721767425537e+00" cType="1" res="-1.5266054309904575e-02" rms="4.1160008311271667e-01" purity="5.4101544618606567e-01" nType="0">
          <Node pos="l" depth="2" NCoef="0" IVar="-1" Cut="0.0000000000000000e+00" cType="1" res="-1.2986822053790092e-02" rms="4.2343372106552124e-01" purity="3.3455514907836914e-01" nType="-99"/>
          <Node pos="r" depth="2" NCoef="0" IVar="-1" Cut="0.0000000000000000e+00" cType="1" res="1.0016325395554304e-03" rms="4.0603268146514893e-01" purity="5.9193778038024902e-01" nType="-99"/>
        </Node>
      </Node>
    </BinaryTree>
    <BinaryTree type="DecisionTree" boostWeight="1.0000000000000000e+00" itree="45">
      <Node pos="s" depth="0" NCoef="0" IVar="2" Cut="2.6973907947540283e+00" cType="1" res="-3.1597420573234558e-02" rms="4.1556522250175476e-01" purity="4.9781623482704163e-01" nType="0">
        <Node pos="l" depth="1" NCoef="0" IVar="-1" Cut="0.0000000000000000e+00" cType="1" res="-1.7075732350349426e-02" rms="4.8521721363067627e-01" purity="3.3243462443351746e-01" nType="-99"/>
        <Node pos="r" depth="1" NCoef="0" IVar="0" Cut="7.2315574645996094e+01" cType="1" res="-1.9887611269950867e-02" rms="4.0597718954086304e-01" purity="5.1467156410217285e-01" nType="0">
          <Node pos="l" depth="2" NCoef="0" IVar="-1" Cut="0.0000000000000000e+00" cType="1" res="-8.7733576074242592e-03" rms="4.1653633117675781e-01" purity="3.5175168514251709e-01" nType="-99"/>
          <Node pos="r" depth="2" NCoef="0" IVar="-1" Cut="0.0000000000000000e+00" cType="1" res="5.1466063596308231e-03" rms="3.9112156629562378e-01" purity="6.7216849327087402e-01" nType="-99"/>
        </Node>
      </Node>
    </BinaryTree>
    <BinaryTree type="DecisionTree" boostWeight="1.0000000000000000e+00" itree="46">
      <Node pos="s" depth="0" NCoef="0" IVar="0" Cut="6.4165962219238281e+01" cType="1" res="-3.0691824853420258e-02" rms="4.1053473949432373e-01" purity="4.9168974161148071e-01" nType="0">
        <Node pos="l" depth="1" NCoef="0" IVar="2" Cut="6.3980517387390137e+00" cType="1" res="-8.0080308020114899e-02" rms="4.1524529457092285e-01" purity="3.0822467803955078e-01" nType="0">
          <Node pos="l" depth="2" NCoef="0" IVar="-1" Cut="0.0000000000000000e+00" cType="1" res="-7.9460926353931427e-03" rms="4.0337952971458435e-01" purity="2.8914952278137207e-01" nType="-99"/>
          <Node pos="r" depth="2" NCoef="0" IVar="-1" Cut="0.0000000000000000e+00" cType="1" res="-2.2795425727963448e-02" rms="4.5210182666778564e-01" purity="3.8804075121879578e-01" nType="-99"/>
        </Node>
        <Node pos="r" depth="1" NCoef="0" IVar="4" Cut="5.4652136564254761e-01" cType="1" res="-1.5516689745709300e-03" rms="4.0491399168968201e-01" purity="5.9993767738342285e-01" nType="0">
          <Node pos="l" depth="2" NCoef="0" IVar="-1" Cut="0.0000000000000000e+00" cType="1" res="2.7207233011722565e-02" rms="3.5960468649864197e-01" purity="7.9799091815948486e-01" nType="-99"/>
          <Node pos="r" depth="2" NCoef="0" IVar="-1" Cut="0.0000000000000000e+00" cType="1" res="-4.5343968085944653e-03" rms="4.1463771462440491e-01" purity="5.3993481397628784e-01" nType="-99"/>
        </Node>
      </Node>
    </BinaryTree>
    <BinaryTree type="DecisionTree" boostWeight="1.0000000000000000e+00" itree="47">
      <Node pos="s" depth="0" NCoef="0" IVar="5" Cut="2.5020339488983154e+00" cType="1" res="-2.5298198685050011e-02" rms="4.1076412796974182e-01" purity="4.9302455782890320e-01" nType="0">
        <Node pos="l" depth="1" NCoef="0" IVar="-1" Cut="0.0000000000000000e+00" cType="1" res="-1.3329638168215752e-02" rms="3.7627172470092773e-01" purity="2.0438802242279053e-01" nType="-99"/>
        <Node pos="r" depth="1" NCoef="0" IVar="4" Cut="2.7284612655639648e+00" cType="1" res="-9.8236380144953728e-03" rms="4.1543206572532654e-01" purity="5.4957199096679688e-01" nType="0">
          <Node pos="l" depth="2" NCoef="0" IVar="-1" Cut="0.0000000000000000e+00" cType="1" res="1.1210178490728140e-03" rms="4.1776978969573975e-01" purity="6.1004656553268433e-01" nType="-99"/>
          <Node pos="r" depth="2" NCoef="0" IVar="-1" Cut="0.0000000000000000e+00" cType="1" res="-1.2215227819979191e-02" rms="3.9056333899497986e-01" purity="2.0745362341403961e-01" nType="-99"/>
        </Node>
      </Node>
    </BinaryTree>
    <BinaryTree type="DecisionTree" boostWeight="1.0000000000000000e+00" itree="48">
      <Node pos="s" depth="0" NCoef="0" IVar="1" Cut="3.3438755035400391e+01" cType="1" res="-2.3578908294439316e-02" rms="4.0860062837600708e-01" purity="5.0252628326416016e-01" nType="0">
        <Node pos="l" depth="1" NCoef="0" IVar="1" Cut="2.3216907501220703e+01" cType="1" res="-7.0418648421764374e-02" rms="4.0852338075637817e-01" purity="3.0570426583290100e-01" nType="0">
          <Node pos="l" depth="2" NCoef="0" IVar="-1" Cut="0.0000000000000000e+00" cType="1" res="-1.5950988978147507e-02" rms="3.6181434988975525e-01" purity="2.1133883297443390e-01" nType="-99"/>
          <Node pos="r" depth="2" NCoef="0" IVar="-1" Cut="0.0000000000000000e+00" cType="1" res="-5.7911714538931847e-03" rms="4.2516186833381653e-01" purity="3.4925502538681030e-01" nType="-99"/>
        </Node>
        <Node pos="r" depth="1" NCoef="0" IVar="2" Cut="4.1834492683410645e+00" cType="1" res="1.0321290232241154e-02" rms="4.0529376268386841e-01" purity="6.4497596025466919e-01" nType="0">
          <Node pos="l" depth="2" NCoef="0" IVar="-1" Cut="0.0000000000000000e+00" cType="1" res="-2.9823530931025743e-03" rms="4.5175841450691223e-01" purity="5.1139497756958008e-01" nType="-99"/>
          <Node pos="r" depth="2" NCoef="0" IVar="-1" Cut="0.0000000000000000e+00" cType="1" res="1.5664445236325264e-02" rms="3.4675511717796326e-01" purity="7.8637427091598511e-01" nType="-99"/>
        </Node>
      </Node>
    </BinaryTree>
    <BinaryTree type="DecisionTree" boostWeight="1.0000000000000000e+00" itree="49">
      <Node pos="s" depth="0" NCoef="0" IVar="4" Cut="2.7284612655639648e+00" cType="1" res="-4.1282817721366882e-02" rms="4.1013875603675842e-01" purity="4.7037675976753235e-01" nType="0">
        <Node pos="l" depth="1" NCoef="0" IVar="2" Cut="3.4133021831512451e+00" cType="1" res="-2.4425519630312920e-02" rms="4.2455926537513733e-01" purity="5.4564386606216431e-01" nType="0">
          <Node pos="l" depth="2" NCoef="0" IVar="-1" Cut="0.0000000000000000e+00" cType="1" res="-1.2039728462696075e-02" rms="4.6742978692054749e-01" purity="4.0365484356880188e-01" nType="-99"/>
          <Node pos="r" depth="2" NCoef="0" IVar="-1" Cut="0.0000000000000000e+00" cType="1" res="-9.0709247160702944e-04" rms="4.0938901901245117e-01" purity="5.8598768711090088e-01" nType="-99"/>
        </Node>
        <Node pos="r" depth="1" NCoef="0" IVar="-1" Cut="0.0000000000000000e+00" cType="1" res="-1.4669893309473991e-02" rms="3.3219814300537109e-01" purity="1.4864654839038849e-01" nType="-99"/>
      </Node>
    </BinaryTree>
    <BinaryTree type="DecisionTree" boostWeight="1.0000000000000000e+00" itree="50">
      <Node pos="s" depth="0" NCoef="0" IVar="2" Cut="3.3741638660430908e+00" cType="1" res="-8.0515891313552856e-03" rms="4.1237455606460571e-01" purity="5.1836526393890381e-01" nType="0">
        <Node pos="l" depth="1" NCoef="0" IVar="3" Cut="3.2935232543945312e+02" cType="1" res="-6.3496865332126617e-02" rms="4.6171361207962036e-01" purity="4.0009781718254089e-01" nType="0">
          <Node pos="l" depth="2" NCoef="0" IVar="-1" Cut="0.0000000000000000e+00" cType="1" res="-1.2980381026864052e-02" rms="4.5348423719406128e-01" purity="3.0541083216667175e-01" nType="-99"/>
          <Node pos="r" depth="2" NCoef="0" IVar="-1" Cut="0.0000000000000000e+00" cType="1" res="-9.1087096370756626e-04" rms="4.6495527029037476e-01" purity="5.1466882228851318e-01" nType="-99"/>
        </Node>
        <Node pos="r" depth="1" NCoef="0" IVar="1" Cut="5.3603282928466797e+01" cType="1" res="6.0289166867733002e-03" rms="3.9764514565467834e-01" purity="5.4839968681335449e-01" nType="0">
          <Node pos="l" depth="2" NCoef="0" IVar="-1" Cut="0.0000000000000000e+00" cType="1" res="-2.0720474421977997e-03" rms="4.1790750622749329e-01" purity="4.6271711587905884e-01" nType="-99"/>
          <Node pos="r" depth="2" NCoef="0" IVar="-1" Cut="0.0000000000000000e+00" cType="1" res="6.0218084603548050e-02" rms="2.8749167919158936e-01" purity="9.0230035781860352e-01" nType="-99"/>
        </Node>
      </Node>
    </BinaryTree>
    <BinaryTree type="DecisionTree" boostWeight="1.0000000000000000e+00" itree="51">
      <Node pos="s" depth="0" NCoef="0" IVar="4" Cut="1.1265470981597900e+00" cType="1" res="-2.7904076501727104e-02" rms="3.9923262596130371e-01" purity="4.8471119999885559e-01" nType="0">
        <Node pos="l" depth="1" NCoef="0" IVar="1" Cut="4.6845279693603516e+01" cType="1" res="2.4902205914258957e-02" rms="4.0258300304412842e-01" purity="6.8034309148788452e-01" nType="0">
          <Node pos="l" depth="2" NCoef="0" IVar="-1" Cut="0.0000000000000000e+00" cType="1" res="1.1952207423746586e-02" rms="4.1351997852325439e-01" purity="6.2447667121887207e-01" nType="-99"/>
          <Node pos="r" depth="2" NCoef="0" IVar="-1" Cut="0.0000000000000000e+00" cType="1" res="-3.6095310933887959e-03" rms="3.8637632131576538e-01" purity="7.4428665637969971e-01" nType="-99"/>
        </Node>
        <Node pos="r" depth="1" NCoef="0" IVar="4" Cut="2.9499421119689941e+00" cType="1" res="-6.2853813171386719e-02" rms="3.9311787486076355e-01" purity="3.5523259639739990e-01" nType="0">
          <Node pos="l" depth="2" NCoef="0" IVar="-1" Cut="0.0000000000000000e+00" cType="1" res="-6.4682713709771633e-03" rms="4.1394326090812683e-01" purity="4.3464836478233337e-01" nType="-99"/>
          <Node pos="r" depth="2" NCoef="0" IVar="-1" Cut="0.0000000000000000e+00" cType="1" res="-1.5745468437671661e-02" rms="3.1895884871482849e-01" purity="1.2624433636665344e-01" nType="-99"/>
        </Node>
      </Node>
    </BinaryTree>
    <BinaryTree type="DecisionTree" boostWeight="1.0000000000000000e+00" itree="52">
      <Node pos="s" depth="0" NCoef="0" IVar="4" Cut="2.6374776363372803e+00" cType="1" res="-7.6381550170481205e-03" rms="4.1261258721351624e-01" purity="5.1904076337814331e-01" nType="0">
        <Node pos="l" depth="1" NCoef="0" IVar="5" Cut="2.5023303031921387e+00" cType="1" res="8.4147611632943153e-03" rms="4.1745537519454956e-01" purity="5.8791244029998779e-01" nType="0">
          <Node pos="l" depth="2" NCoef="0" IVar="-1" Cut="0.0000000000000000e+00" cType="1" res="-1.1166091077029705e-02" rms="4.2656800150871277e-01" purity="2.7128416299819946e-01" nType="-99"/>
          <Node pos="r" depth="2" NCoef="0" IVar="-1" Cut="0.0000000000000000e+00" cType="1" res="5.1939478144049644e-03" rms="4.1382998228073120e-01" purity="6.4102476835250854e-01" nType="-99"/>
        </Node>
        <Node pos="r" depth="1" NCoef="0" IVar="-1" Cut="0.0000000000000000e+00" cType="1" res="-1.0970672592520714e-02" rms="3.8048905134201050e-01" purity="1.9863688945770264e-01" nType="-99"/>
      </Node>
    </BinaryTree>
    <BinaryTree type="DecisionTree" boostWeight="1.0000000000000000e+00" itree="53">
      <Node pos="s" depth="0" NCoef="0" IVar="5" Cut="2.7780113220214844e+00" cType="1" res="-2.5998074561357498e-02" rms="4.1205132007598877e-01" purity="4.9519872665405273e-01" nType="0">
        <Node pos="l" depth="1" NCoef="0" IVar="4" Cut="1.0257586240768433e+00" cType="1" res="-8.3866022527217865e-02" rms="4.2055591940879822e-01" purity="2.6752400398254395e-01" nType="0">
          <Node pos="l" depth="2" NCoef="0" IVar="-1" Cut="0.0000000000000000e+00" cType="1" res="-2.0736930891871452e-02" rms="4.5393660664558411e-01" purity="3.0093955993652344e-01" nType="-99"/>
          <Node pos="r" depth="2" NCoef="0" IVar="-1" Cut="0.0000000000000000e+00" cType="1" res="-6.1766779981553555e-03" rms="3.9628243446350098e-01" purity="2.5024455785751343e-01" nType="-99"/>
        </Node>
        <Node pos="r" depth="1" NCoef="0" IVar="3" Cut="5.5314367675781250e+02" cType="1" res="-7.8404359519481659e-03" rms="4.0765669941902161e-01" purity="5.6663781404495239e-01" nType="0">
          <Node pos="l" depth="2" NCoef="0" IVar="-1" Cut="0.0000000000000000e+00" cType="1" res="-5.9748739004135132e-03" rms="4.5248186588287354e-01" purity="3.8182657957077026e-01" nType="-99"/>
          <Node pos="r" depth="2" NCoef="0" IVar="-1" Cut="0.0000000000000000e+00" cType="1" res="1.2695477344095707e-02" rms="3.4287971258163452e-01" purity="7.8339439630508423e-01" nType="-99"/>
        </Node>
      </Node>
    </BinaryTree>
    <BinaryTree type="DecisionTree" boostWeight="1.0000000000000000e+00" itree="54">
      <Node pos="s" depth="0" NCoef="0" IVar="2" Cut="5.7514667510986328e+00" cType="1" res="-2.3643452674150467e-02" rms="4.1416600346565247e-01" purity="5.0366967916488647e-01" nType="0">
        <Node pos="l" depth="1" NCoef="0" IVar="4" Cut="2.3873741626739502e+00" cType="1" res="-3.8231544196605682e-02" rms="4.2235058546066284e-01" purity="4.5827803015708923e-01" nType="0">
          <Node pos="l" depth="2" NCoef="0" IVar="-1" Cut="0.0000000000000000e+00" cType="1" res="-3.1025900971144438e-03" rms="4.3398159742355347e-01" purity="5.3840357065200806e-01" nType="-99"/>
          <Node pos="r" depth="2" NCoef="0" IVar="-1" Cut="0.0000000000000000e+00" cType="1" res="-1.4424744062125683e-02" rms="3.6756330728530884e-01" purity="1.6701149940490723e-01" nType="-99"/>
        </Node>
        <Node pos="r" depth="1" NCoef="0" IVar="4" Cut="1.9805345535278320e+00" cType="1" res="3.8506496697664261e-02" rms="3.7093907594680786e-01" purity="6.9705247879028320e-01" nType="0">
          <Node pos="l" depth="2" NCoef="0" IVar="-1" Cut="0.0000000000000000e+00" cType="1" res="2.1784647833555937e-03" rms="3.4898081421852112e-01" purity="7.5365471839904785e-01" nType="-99"/>
          <Node pos="r" depth="2" NCoef="0" IVar="-1" Cut="0.0000000000000000e+00" cType="1" res="2.1499371156096458e-02" rms="4.0447202324867249e-01" purity="5.8172523975372314e-01" nType="-99"/>
        </Node>
      </Node>
    </BinaryTree>
    <BinaryTree type="DecisionTree" boostWeight="1.0000000000000000e+00" itree="55">
      <Node pos="s" depth="0" NCoef="0" IVar="0" Cut="6.4155189514160156e+01" cType="1" res="-8.7840817868709564e-03" rms="4.1172674298286438e-01" purity="5.1793825626373291e-01" nType="0">
        <Node pos="l" depth="1" NCoef="0" IVar="0" Cut="5.1139888763427734e+01" cType="1" res="-5.6681852787733078e-02" rms="4.2943045496940613e-01" purity="3.3208188414573669e-01" nType="0">
          <Node pos="l" depth="2" NCoef="0" IVar="-1" Cut="0.0000000000000000e+00" cType="1" res="-1.2848146259784698e-02" rms="4.1044697165489197e-01" purity="2.5046327710151672e-01" nType="-99"/>
          <Node pos="r" depth="2" NCoef="0" IVar="-1" Cut="0.0000000000000000e+00" cType="1" res="3.8792046252638102e-03" rms="4.5430618524551392e-01" purity="4.9289673566818237e-01" nType="-99"/>
        </Node>
        <Node pos="r" depth="1" NCoef="0" IVar="4" Cut="2.1854612827301025e+00" cType="1" res="1.7978500574827194e-02" rms="3.9899903535842896e-01" purity="6.2178438901901245e-01" nType="0">
          <Node pos="l" depth="2" NCoef="0" IVar="-1" Cut="0.0000000000000000e+00" cType="1" res="8.8517973199486732e-03" rms="3.9195331931114197e-01" purity="6.9971114397048950e-01" nType="-99"/>
          <Node pos="r" depth="2" NCoef="0" IVar="-1" Cut="0.0000000000000000e+00" cType="1" res="-7.1482881903648376e-03" rms="4.1734626889228821e-01" purity="3.2619255781173706e-01" nType="-99"/>
        </Node>
      </Node>
    </BinaryTree>
    <BinaryTree type="DecisionTree" boostWeight="1.0000000000000000e+00" itree="56">
      <Node pos="s" depth="0" NCoef="0" IVar="4" Cut="8.4499496221542358e-01" cType="1" res="-3.2640550285577774e-02" rms="4.1168045997619629e-01" purity="4.8879411816596985e-01" nType="0">
        <Node pos="l" depth="1" NCoef="0" IVar="0" Cut="7.2337547302246094e+01" cType="1" res="1.8173271790146828e-02" rms="4.0021407604217529e-01" purity="6.6913598775863647e-01" nType="0">
          <Node pos="l" depth="2" NCoef="0" IVar="-1" Cut="0.0000000000000000e+00" cType="1" res="-8.0095008015632629e-03" rms="4.4896775484085083e-01" purity="4.6613731980323792e-01" nType="-99"/>
          <Node pos="r" depth="2" NCoef="0" IVar="-1" Cut="0.0000000000000000e+00" cType="1" res="1.9506655633449554e-02" rms="3.6241081357002258e-01" purity="7.8742480278015137e-01" nType="-99"/>
        </Node>
        <Node pos="r" depth="1" NCoef="0" IVar="5" Cut="2.5026996135711670e+00" cType="1" res="-5.6528493762016296e-02" rms="4.1481655836105347e-01" purity="4.0401414036750793e-01" nType="0">
          <Node pos="l" depth="2" NCoef="0" IVar="-1" Cut="0.0000000000000000e+00" cType="1" res="-1.3153629377484322e-02" rms="3.6609029769897461e-01" purity="1.8067596852779388e-01" nType="-99"/>
          <Node pos="r" depth="2" NCoef="0" IVar="-1" Cut="0.0000000000000000e+00" cType="1" res="-7.3623494245111942e-03" rms="4.2413377761840820e-01" purity="4.5318683981895447e-01" nType="-99"/>
        </Node>
      </Node>
    </BinaryTree>
    <BinaryTree type="DecisionTree" boostWeight="1.0000000000000000e+00" itree="57">
      <Node pos="s" depth="0" NCoef="0" IVar="4" Cut="2.3606252670288086e+00" cType="1" res="-1.9784186035394669e-02" rms="4.1027620434761047e-01" purity="4.9926206469535828e-01" nType="0">
        <Node pos="l" depth="1" NCoef="0" IVar="3" Cut="8.5654260253906250e+02" cType="1" res="3.2126417499966919e-04" rms="4.1655597090721130e-01" purity="5.8822745084762573e-01" nType="0">
          <Node pos="l" depth="2" NCoef="0" IVar="-1" Cut="0.0000000000000000e+00" cType="1" res="-2.2617352660745382e-03" rms="4.5447853207588196e-01" purity="4.8575544357299805e-01" nType="-99"/>
          <Node pos="r" depth="2" NCoef="0" IVar="-1" Cut="0.0000000000000000e+00" cType="1" res="2.4551020935177803e-02" rms="2.8416398167610168e-01" purity="8.6911040544509888e-01" nType="-99"/>
        </Node>
        <Node pos="r" depth="1" NCoef="0" IVar="2" Cut="5.2255878448486328e+00" cType="1" res="-8.4904514253139496e-02" rms="3.8204577565193176e-01" purity="2.1110855042934418e-01" nType="0">
          <Node pos="l" depth="2" NCoef="0" IVar="-1" Cut="0.0000000000000000e+00" cType="1" res="-1.5359860844910145e-02" rms="3.7872046232223511e-01" purity="1.6159567236900330e-01" nType="-99"/>
          <Node pos="r" depth="2" NCoef="0" IVar="-1" Cut="0.0000000000000000e+00" cType="1" res="-4.0817842818796635e-03" rms="3.8085171580314636e-01" purity="2.9696089029312134e-01" nType="-99"/>
        </Node>
      </Node>
    </BinaryTree>
    <BinaryTree type="DecisionTree" boostWeight="1.0000000000000000e+00" itree="58">
      <Node pos="s" depth="0" NCoef="0" IVar="2" Cut="2.6024870872497559e+00" cType="1" res="-1.3678720220923424e-02" rms="4.1616320610046387e-01" purity="5.1686209440231323e-01" nType="0">
        <Node pos="l" depth="1" NCoef="0" IVar="-1" Cut="0.0000000000000000e+00" cType="1" res="-1.5980385243892670e-02" rms="4.7310256958007812e-01" purity="3.1034010648727417e-01" nType="-99"/>
        <Node pos="r" depth="1" NCoef="0" IVar="5" Cut="2.3651189804077148e+00" cType="1" res="-2.5680505204945803e-03" rms="4.0883028507232666e-01" purity="5.3543430566787720e-01" nType="0">
          <Node pos="l" depth="2" NCoef="0" IVar="-1" Cut="0.0000000000000000e+00" cType="1" res="-1.1764962226152420e-02" rms="4.0130195021629333e-01" purity="2.1761785447597504e-01" nType="-99"/>
          <Node pos="r" depth="2" NCoef="0" IVar="-1" Cut="0.0000000000000000e+00" cType="1" res="1.7137320246547461e-03" rms="4.0857324004173279e-01" purity="5.7801866531372070e-01" nType="-99"/>
        </Node>
      </Node>
    </BinaryTree>
    <BinaryTree type="DecisionTree" boostWeight="1.0000000000000000e+00" itree="59">
      <Node pos="s" depth="0" NCoef="0" IVar="5" Cut="2.7780113220214844e+00" cType="1" res="-9.4663389027118683e-03" rms="4.0415480732917786e-01" purity="5.0724846124649048e-01" nType="0">
        <Node pos="l" depth="1" NCoef="0" IVar="2" Cut="4.7141280174255371e+00" cType="1" res="-6.0031685978174210e-02" rms="4.0944382548332214e-01" purity="2.6977473497390747e-01" nType="0">
          <Node pos="l" depth="2" NCoef="0" IVar="-1" Cut="0.0000000000000000e+00" cType="1" res="-2.1023158915340900e-03" rms="4.0285733342170715e-01" purity="2.8975743055343628e-01" nType="-99"/>
          <Node pos="r" depth="2" NCoef="0" IVar="-1" Cut="0.0000000000000000e+00" cType="1" res="-1.3857303187251091e-02" rms="4.1095775365829468e-01" purity="2.5212711095809937e-01" nType="-99"/>
        </Node>
        <Node pos="r" depth="1" NCoef="0" IVar="1" Cut="3.4371086120605469e+01" cType="1" res="6.6245547495782375e-03" rms="4.0112242102622986e-01" purity="5.8281731605529785e-01" nType="0">
          <Node pos="l" depth="2" NCoef="0" IVar="-1" Cut="0.0000000000000000e+00" cType="1" res="-5.8637177571654320e-03" rms="4.2935058474540710e-01" purity="3.7957474589347839e-01" nType="-99"/>
          <Node pos="r" depth="2" NCoef="0" IVar="-1" Cut="0.0000000000000000e+00" cType="1" res="1.1527435854077339e-02" rms="3.7619486451148987e-01" purity="7.2638243436813354e-01" nType="-99"/>
        </Node>
      </Node>
    </BinaryTree>
    <BinaryTree type="DecisionTree" boostWeight="1.0000000000000000e+00" itree="60">
      <Node pos="s" depth="0" NCoef="0" IVar="1" Cut="4.9752983093261719e+01" cType="1" res="-1.4981839805841446e-02" rms="4.0431836247444153e-01" purity="4.9943956732749939e-01" nType="0">
        <Node pos="l" depth="1" NCoef="0" IVar="0" Cut="8.9540161132812500e+01" cType="1" res="-3.3553086221218109e-02" rms="4.1475096344947815e-01" purity="4.0270039439201355e-01" nType="0">
          <Node pos="l" depth="2" NCoef="0" IVar="-1" Cut="0.0000000000000000e+00" cType="1" res="-7.9854959622025490e-03" rms="4.1304475069046021e-01" purity="3.3441904187202454e-01" nType="-99"/>
          <Node pos="r" depth="2" NCoef="0" IVar="-1" Cut="0.0000000000000000e+00" cType="1" res="5.4190498776733875e-03" rms="4.1326510906219482e-01" purity="5.9420090913772583e-01" nType="-99"/>
        </Node>
        <Node pos="r" depth="1" NCoef="0" IVar="0" Cut="1.6049093627929688e+02" cType="1" res="2.5558514520525932e-02" rms="3.7739026546478271e-01" purity="7.1061772108078003e-01" nType="0">
          <Node pos="l" depth="2" NCoef="0" IVar="-1" Cut="0.0000000000000000e+00" cType="1" res="1.4837174676358700e-02" rms="3.6208918690681458e-01" purity="7.3085331916809082e-01" nType="-99"/>
          <Node pos="r" depth="2" NCoef="0" IVar="-1" Cut="0.0000000000000000e+00" cType="1" res="-1.1763092130422592e-02" rms="4.0909177064895630e-01" purity="6.5257060527801514e-01" nType="-99"/>
        </Node>
      </Node>
    </BinaryTree>
    <BinaryTree type="DecisionTree" boostWeight="1.0000000000000000e+00" itree="61">
      <Node pos="s" depth="0" NCoef="0" IVar="1" Cut="3.4374561309814453e+01" cType="1" res="-5.1216245628893375e-03" rms="4.0219250321388245e-01" purity="5.1258575916290283e-01" nType="0">
        <Node pos="l" depth="1" NCoef="0" IVar="0" Cut="8.9540161132812500e+01" cType="1" res="-4.2725101113319397e-02" rms="4.1114974021911621e-01" purity="3.2473343610763550e-01" nType="0">
          <Node pos="l" depth="2" NCoef="0" IVar="-1" Cut="0.0000000000000000e+00" cType="1" res="-8.4701869636774063e-03" rms="4.0133008360862732e-01" purity="2.6204162836074829e-01" nType="-99"/>
          <Node pos="r" depth="2" NCoef="0" IVar="-1" Cut="0.0000000000000000e+00" cType="1" res="3.9712130092084408e-03" rms="4.3736770749092102e-01" purity="5.4376453161239624e-01" nType="-99"/>
        </Node>
        <Node pos="r" depth="1" NCoef="0" IVar="0" Cut="1.8545120239257812e+02" cType="1" res="2.5493236258625984e-02" rms="3.9209565520286560e-01" purity="6.6552573442459106e-01" nType="0">
          <Node pos="l" depth="2" NCoef="0" IVar="-1" Cut="0.0000000000000000e+00" cType="1" res="9.8325600847601891e-03" rms="3.8860759139060974e-01" purity="6.7479223012924194e-01" nType="-99"/>
          <Node pos="r" depth="2" NCoef="0" IVar="-1" Cut="0.0000000000000000e+00" cType="1" res="-1.3755445368587971e-02" rms="4.0162178874015808e-01" purity="6.0410934686660767e-01" nType="-99"/>
        </Node>
      </Node>
    </BinaryTree>
    <BinaryTree type="DecisionTree" boostWeight="1.0000000000000000e+00" itree="62">
      <Node pos="s" depth="0" NCoef="0" IVar="2" Cut="3.5756506919860840e+00" cType="1" res="-1.5096556395292282e-02" rms="4.0585416555404663e-01" purity="5.0224018096923828e-01" nType="0">
        <Node pos="l" depth="1" NCoef="0" IVar="3" Cut="3.2946054077148438e+02" cType="1" res="-6.3402108848094940e-02" rms="4.6111258864402771e-01" purity="4.1666123270988464e-01" nType="0">
          <Node pos="l" depth="2" NCoef="0" IVar="-1" Cut="0.0000000000000000e+00" cType="1" res="-1.2952757999300957e-02" rms="4.5502591133117676e-01" purity="3.0898123979568481e-01" nType="-99"/>
          <Node pos="r" depth="2" NCoef="0" IVar="-1" Cut="0.0000000000000000e+00" cType="1" res="-2.3148851469159126e-03" rms="4.6264576911926270e-01" purity="5.3439164161682129e-01" nType="-99"/>
        </Node>
        <Node pos="r" depth="1" NCoef="0" IVar="0" Cut="6.1043483734130859e+01" cType="1" res="1.0703480802476406e-03" rms="3.8424172997474670e-01" purity="5.3088176250457764e-01" nType="0">
          <Node pos="l" depth="2" NCoef="0" IVar="-1" Cut="0.0000000000000000e+00" cType="1" res="-7.7144396491348743e-03" rms="4.1298764944076538e-01" purity="3.0844852328300476e-01" nType="-99"/>
          <Node pos="r" depth="2" NCoef="0" IVar="-1" Cut="0.0000000000000000e+00" cType="1" res="1.3474216684699059e-02" rms="3.5181376338005066e-01" purity="7.1806842088699341e-01" nType="-99"/>
        </Node>
      </Node>
    </BinaryTree>
    <BinaryTree type="DecisionTree" boostWeight="1.0000000000000000e+00" itree="63">
      <Node pos="s" depth="0" NCoef="0" IVar="2" Cut="3.5434205532073975e+00" cType="1" res="-2.0976452156901360e-02" rms="4.1261556744575500e-01" purity="4.9806046485900879e-01" nType="0">
        <Node pos="l" depth="1" NCoef="0" IVar="1" Cut="6.8032073974609375e+01" cType="1" res="-6.6558621823787689e-02" rms="4.6462738513946533e-01" purity="4.1380786895751953e-01" nType="0">
          <Node pos="l" depth="2" NCoef="0" IVar="-1" Cut="0.0000000000000000e+00" cType="1" res="-5.6597650982439518e-03" rms="4.5382601022720337e-01" purity="3.9845734834671021e-01" nType="-99"/>
          <Node pos="r" depth="2" NCoef="0" IVar="-1" Cut="0.0000000000000000e+00" cType="1" res="-1.3908809982240200e-02" rms="4.7705471515655518e-01" purity="4.3516182899475098e-01" nType="-99"/>
        </Node>
        <Node pos="r" depth="1" NCoef="0" IVar="2" Cut="4.3644833564758301e+00" cType="1" res="-6.7742043174803257e-03" rms="3.9393696188926697e-01" purity="5.2431142330169678e-01" nType="0">
          <Node pos="l" depth="2" NCoef="0" IVar="-1" Cut="0.0000000000000000e+00" cType="1" res="9.3822777271270752e-03" rms="3.9666742086410522e-01" purity="5.3295856714248657e-01" nType="-99"/>
          <Node pos="r" depth="2" NCoef="0" IVar="-1" Cut="0.0000000000000000e+00" cType="1" res="-5.3405174985527992e-03" rms="3.9102309942245483e-01" purity="5.2127742767333984e-01" nType="-99"/>
        </Node>
      </Node>
    </BinaryTree>
    <BinaryTree type="DecisionTree" boostWeight="1.0000000000000000e+00" itree="64">
      <Node pos="s" depth="0" NCoef="0" IVar="2" Cut="3.4480221271514893e+00" cType="1" res="-2.7139533311128616e-02" rms="4.0949958562850952e-01" purity="4.8712337017059326e-01" nType="0">
        <Node pos="l" depth="1" NCoef="0" IVar="1" Cut="7.7498893737792969e+01" cType="1" res="-9.8230704665184021e-02" rms="4.7280171513557434e-01" purity="3.7852275371551514e-01" nType="0">
          <Node pos="l" depth="2" NCoef="0" IVar="-1" Cut="0.0000000000000000e+00" cType="1" res="-9.3024615198373795e-03" rms="4.6376186609268188e-01" purity="3.8027793169021606e-01" nType="-99"/>
          <Node pos="r" depth="2" NCoef="0" IVar="-1" Cut="0.0000000000000000e+00" cType="1" res="-1.9487341865897179e-02" rms="4.8605859279632568e-01" purity="3.7505656480789185e-01" nType="-99"/>
        </Node>
        <Node pos="r" depth="1" NCoef="0" IVar="1" Cut="4.2403491973876953e+01" cType="1" res="-5.1474804058670998e-03" rms="3.8518196344375610e-01" purity="5.2071893215179443e-01" nType="0">
          <Node pos="l" depth="2" NCoef="0" IVar="-1" Cut="0.0000000000000000e+00" cType="1" res="-4.3584024533629417e-03" rms="4.0803584456443787e-01" purity="3.7973174452781677e-01" nType="-99"/>
          <Node pos="r" depth="2" NCoef="0" IVar="-1" Cut="0.0000000000000000e+00" cType="1" res="2.2960752248764038e-02" rms="3.2140281796455383e-01" purity="8.4065496921539307e-01" nType="-99"/>
        </Node>
      </Node>
    </BinaryTree>
    <BinaryTree type="DecisionTree" boostWeight="1.0000000000000000e+00" itree="65">
      <Node pos="s" depth="0" NCoef="0" IVar="5" Cut="2.3640453815460205e+00" cType="1" res="-1.2587926350533962e-02" rms="4.0294831991195679e-01" purity="5.0306147336959839e-01" nType="0">
        <Node pos="l" depth="1" NCoef="0" IVar="-1" Cut="0.0000000000000000e+00" cType="1" res="-1.2517401948571205e-02" rms="3.6658611893653870e-01" purity="1.8122671544551849e-01" nType="-99"/>
        <Node pos="r" depth="1" NCoef="0" IVar="3" Cut="1.1593682861328125e+03" cType="1" res="-9.5779396360740066e-04" rms="4.0693718194961548e-01" purity="5.5200314521789551e-01" nType="0">
          <Node pos="l" depth="2" NCoef="0" IVar="-1" Cut="0.0000000000000000e+00" cType="1" res="-2.3044294212013483e-03" rms="4.2799192667007446e-01" purity="4.8652780055999756e-01" nType="-99"/>
          <Node pos="r" depth="2" NCoef="0" IVar="-1" Cut="0.0000000000000000e+00" cType="1" res="4.9651537090539932e-02" rms="2.5457501411437988e-01" purity="9.0612590312957764e-01" nType="-99"/>
        </Node>
      </Node>
    </BinaryTree>
    <BinaryTree type="DecisionTree" boostWeight="1.0000000000000000e+00" itree="66">
      <Node pos="s" depth="0" NCoef="0" IVar="5" Cut="2.5020339488983154e+00" cType="1" res="-2.3486500605940819e-02" rms="3.9609572291374207e-01" purity="4.8570281267166138e-01" nType="0">
        <Node pos="l" depth="1" NCoef="0" IVar="-1" Cut="0.0000000000000000e+00" cType="1" res="-1.2789607979357243e-02" rms="3.6026325821876526e-01" purity="1.8088413774967194e-01" nType="-99"/>
        <Node pos="r" depth="1" NCoef="0" IVar="2" Cut="3.1882979869842529e+00" cType="1" res="-1.0148063302040100e-02" rms="4.0161970257759094e-01" purity="5.4718500375747681e-01" nType="0">
          <Node pos="l" depth="2" NCoef="0" IVar="-1" Cut="0.0000000000000000e+00" cType="1" res="-1.1741885915398598e-02" rms="4.7550562024116516e-01" purity="3.9439210295677185e-01" nType="-99"/>
          <Node pos="r" depth="2" NCoef="0" IVar="-1" Cut="0.0000000000000000e+00" cType="1" res="1.4293105341494083e-03" rms="3.8209047913551331e-01" purity="5.7932442426681519e-01" nType="-99"/>
        </Node>
      </Node>
    </BinaryTree>
    <BinaryTree type="DecisionTree" boostWeight="1.0000000000000000e+00" itree="67">
      <Node pos="s" depth="0" NCoef="0" IVar="4" Cut="1.7055569887161255e+00" cType="1" res="-1.1551754549145699e-02" rms="4.1154500842094421e-01" purity="5.0617432594299316e-01" nType="0">
        <Node pos="l" depth="1" NCoef="0" IVar="4" Cut="1.2175968885421753e+00" cType="1" res="1.6928853467106819e-02" rms="4.0944868326187134e-01" purity="6.4259952306747437e-01" nType="0">
          <Node pos="l" depth="2" NCoef="0" IVar="-1" Cut="0.0000000000000000e+00" cType="1" res="7.8677700366824865e-04" rms="4.0547880530357361e-01" purity="6.4656668901443481e-01" nType="-99"/>
          <Node pos="r" depth="2" NCoef="0" IVar="-1" Cut="0.0000000000000000e+00" cType="1" res="1.4800637960433960e-02" rms="4.1981756687164307e-01" purity="6.2841838598251343e-01" nType="-99"/>
        </Node>
        <Node pos="r" depth="1" NCoef="0" IVar="0" Cut="1.0921015930175781e+02" cType="1" res="-5.2686255425214767e-02" rms="4.1108566522598267e-01" purity="3.0913564562797546e-01" nType="0">
          <Node pos="l" depth="2" NCoef="0" IVar="-1" Cut="0.0000000000000000e+00" cType="1" res="-4.4659101404249668e-03" rms="3.9645826816558838e-01" purity="2.9720634222030640e-01" nType="-99"/>
          <Node pos="r" depth="2" NCoef="0" IVar="-1" Cut="0.0000000000000000e+00" cType="1" res="-1.7451452091336250e-02" rms="4.4806012511253357e-01" purity="3.4943211078643799e-01" nType="-99"/>
        </Node>
      </Node>
    </BinaryTree>
    <BinaryTree type="DecisionTree" boostWeight="1.0000000000000000e+00" itree="68">
