<?xml version="1.0"?>
<MethodSetup Method="BDT::BDTG">
  <GeneralInfo>
    <Info name="TMVA Release" value="4.2.0 [262656]"/>
    <Info name="ROOT Release" value="6.02/05 [393733]"/>
    <Info name="Creator" value="yhaddad"/>
    <Info name="Date" value="Thu Oct  1 18:14:39 2015"/>
    <Info name="Host" value="Linux vocms029.cern.ch 2.6.32-504.12.2.el6.x86_64 #1 SMP Thu Mar 12 07:33:00 CET 2015 x86_64 x86_64 x86_64 GNU/Linux"/>
    <Info name="Dir" value="/home/hep/yhaddad/work/CMSSW_7_4_12/src/flashgg/Taggers/test/MVATraining"/>
    <Info name="Training events" value="9772"/>
    <Info name="TrainingTime" value="1.12303271e+01"/>
    <Info name="AnalysisType" value="Classification"/>
  </GeneralInfo>
  <Options>
    <Option name="V" modified="Yes">False</Option>
    <Option name="VerbosityLevel" modified="No">Default</Option>
    <Option name="VarTransform" modified="No">None</Option>
    <Option name="H" modified="Yes">False</Option>
    <Option name="CreateMVAPdfs" modified="No">False</Option>
    <Option name="IgnoreNegWeightsInTraining" modified="No">False</Option>
    <Option name="NTrees" modified="Yes">1000</Option>
    <Option name="MaxDepth" modified="Yes">2</Option>
    <Option name="MinNodeSize" modified="No">5%</Option>
    <Option name="nCuts" modified="Yes">20</Option>
    <Option name="BoostType" modified="Yes">Grad</Option>
    <Option name="AdaBoostR2Loss" modified="No">quadratic</Option>
    <Option name="UseBaggedBoost" modified="No">True</Option>
    <Option name="Shrinkage" modified="Yes">3.000000e-01</Option>
    <Option name="AdaBoostBeta" modified="No">5.000000e-01</Option>
    <Option name="UseRandomisedTrees" modified="No">False</Option>
    <Option name="UseNvars" modified="No">3</Option>
    <Option name="UsePoissonNvars" modified="No">True</Option>
    <Option name="BaggedSampleFraction" modified="No">6.000000e-01</Option>
    <Option name="UseYesNoLeaf" modified="No">True</Option>
    <Option name="NegWeightTreatment" modified="No">ignorenegweightsintraining</Option>
    <Option name="Css" modified="No">1.000000e+00</Option>
    <Option name="Cts_sb" modified="No">1.000000e+00</Option>
    <Option name="Ctb_ss" modified="No">1.000000e+00</Option>
    <Option name="Cbb" modified="No">1.000000e+00</Option>
    <Option name="NodePurityLimit" modified="No">5.000000e-01</Option>
    <Option name="SeparationType" modified="Yes">giniindex</Option>
    <Option name="DoBoostMonitor" modified="No">False</Option>
    <Option name="UseFisherCuts" modified="No">False</Option>
    <Option name="MinLinCorrForFisher" modified="No">8.000000e-01</Option>
    <Option name="UseExclusiveVars" modified="No">False</Option>
    <Option name="DoPreselection" modified="No">False</Option>
    <Option name="SigToBkgFraction" modified="No">1.000000e+00</Option>
    <Option name="PruneMethod" modified="No">nopruning</Option>
    <Option name="PruneStrength" modified="No">0.000000e+00</Option>
    <Option name="PruningValFraction" modified="No">5.000000e-01</Option>
    <Option name="nEventsMin" modified="No">0</Option>
    <Option name="UseBaggedGrad" modified="Yes">True</Option>
    <Option name="GradBaggingFraction" modified="Yes">6.000000e-01</Option>
    <Option name="UseNTrainEvents" modified="No">0</Option>
    <Option name="NNodesMax" modified="Yes">5</Option>
  </Options>
  <Variables NVar="8">
    <Variable VarIndex="0" Expression="dijet_LeadJPt" Label="dijet_LeadJPt" Title="dijet_LeadJPt" Unit="" Internal="dijet_LeadJPt" Type="F" Min="1.53591528e+01" Max="6.75826111e+02"/>
    <Variable VarIndex="1" Expression="dijet_SubJPt" Label="dijet_SubJPt" Title="dijet_SubJPt" Unit="" Internal="dijet_SubJPt" Type="F" Min="1.50050087e+01" Max="1.98877823e+02"/>
    <Variable VarIndex="2" Expression="dijet_abs_dEta" Label="dijet_abs_dEta" Title="dijet_abs_dEta" Unit="" Internal="dijet_abs_dEta" Type="F" Min="6.52909279e-04" Max="9.25626564e+00"/>
    <Variable VarIndex="3" Expression="dijet_Mjj" Label="dijet_Mjj" Title="dijet_Mjj" Unit="" Internal="dijet_Mjj" Type="F" Min="1.15596361e+01" Max="4.58966553e+03"/>
    <Variable VarIndex="4" Expression="dijet_Zep" Label="dijet_Zep" Title="dijet_Zep" Unit="" Internal="dijet_Zep" Type="F" Min="2.57755746e-04" Max="9.45322418e+00"/>
    <Variable VarIndex="5" Expression="dijet_dPhi_trunc" Label="dijet_dPhi_trunc" Title="dijet_dPhi_trunc" Unit="" Internal="dijet_dPhi_trunc" Type="F" Min="1.46102079e-03" Max="2.91599989e+00"/>
    <Variable VarIndex="6" Expression="leadPho_PToM" Label="leadPho_PToM" Title="leadPho_PToM" Unit="" Internal="leadPho_PToM" Type="F" Min="7.01932833e-02" Max="5.08049660e+01"/>
    <Variable VarIndex="7" Expression="sublPho_PToM" Label="sublPho_PToM" Title="sublPho_PToM" Unit="" Internal="sublPho_PToM" Type="F" Min="2.64082514e-02" Max="4.43911591e+01"/>
  </Variables>
  <Spectators NSpec="0"/>
  <Classes NClass="2">
    <Class Name="Signal" Index="0"/>
    <Class Name="Background" Index="1"/>
  </Classes>
  <Transformations NTransformations="0"/>
  <MVAPdfs/>
  <Weights NTrees="1000" AnalysisType="1">
    <BinaryTree type="DecisionTree" boostWeight="1.0000000000000000e+00" itree="0">
      <Node pos="s" depth="0" NCoef="0" IVar="0" Cut="4.6891437530517578e+01" cType="1" res="3.0699025373905897e-03" rms="4.9999058246612549e-01" purity="5.0306993722915649e-01" nType="0">
        <Node pos="l" depth="1" NCoef="0" IVar="0" Cut="3.6406352996826172e+01" cType="1" res="-2.7036601305007935e-01" rms="4.2059743404388428e-01" purity="2.2963397204875946e-01" nType="0">
          <Node pos="l" depth="2" NCoef="0" IVar="-1" Cut="0.0000000000000000e+00" cType="1" res="-2.2834332287311554e-01" rms="3.6356279253959656e-01" purity="1.5674777328968048e-01" nType="-99"/>
          <Node pos="r" depth="2" NCoef="0" IVar="-1" Cut="0.0000000000000000e+00" cType="1" res="-5.2762616425752640e-02" rms="4.9216210842132568e-01" purity="4.1181579232215881e-01" nType="-99"/>
        </Node>
        <Node pos="r" depth="1" NCoef="0" IVar="0" Cut="7.6867088317871094e+01" cType="1" res="2.8938913345336914e-01" rms="4.0774247050285339e-01" purity="7.8938913345336914e-01" nType="0">
          <Node pos="l" depth="2" NCoef="0" IVar="-1" Cut="0.0000000000000000e+00" cType="1" res="1.1916680634021759e-01" rms="4.4718682765960693e-01" purity="7.2366034984588623e-01" nType="-99"/>
          <Node pos="r" depth="2" NCoef="0" IVar="-1" Cut="0.0000000000000000e+00" cType="1" res="1.8304753303527832e-01" rms="3.4698185324668884e-01" purity="8.6000496149063110e-01" nType="-99"/>
        </Node>
      </Node>
    </BinaryTree>
    <BinaryTree type="DecisionTree" boostWeight="1.0000000000000000e+00" itree="1">
      <Node pos="s" depth="0" NCoef="0" IVar="0" Cut="4.6809959411621094e+01" cType="1" res="4.6161436475813389e-03" rms="4.5519098639488220e-01" purity="4.9455964565277100e-01" nType="0">
        <Node pos="l" depth="1" NCoef="0" IVar="0" Cut="3.1825729370117188e+01" cType="1" res="-1.7779032886028290e-01" rms="4.1296291351318359e-01" purity="2.3472584784030914e-01" nType="0">
          <Node pos="l" depth="2" NCoef="0" IVar="-1" Cut="0.0000000000000000e+00" cType="1" res="-1.8968421220779419e-01" rms="3.2637923955917358e-01" purity="1.2121695280075073e-01" nType="-99"/>
          <Node pos="r" depth="2" NCoef="0" IVar="-1" Cut="0.0000000000000000e+00" cType="1" res="-3.7510100752115250e-02" rms="4.8041129112243652e-01" purity="3.8419204950332642e-01" nType="-99"/>
        </Node>
        <Node pos="r" depth="1" NCoef="0" IVar="1" Cut="4.1458133697509766e+01" cType="1" res="2.0177163183689117e-01" rms="4.1471779346466064e-01" purity="7.7540302276611328e-01" nType="0">
          <Node pos="l" depth="2" NCoef="0" IVar="-1" Cut="0.0000000000000000e+00" cType="1" res="7.5788892805576324e-02" rms="4.5241004228591919e-01" purity="7.0864689350128174e-01" nType="-99"/>
          <Node pos="r" depth="2" NCoef="0" IVar="-1" Cut="0.0000000000000000e+00" cType="1" res="1.4508901536464691e-01" rms="3.4954699873924255e-01" purity="8.5554897785186768e-01" nType="-99"/>
        </Node>
      </Node>
    </BinaryTree>
    <BinaryTree type="DecisionTree" boostWeight="1.0000000000000000e+00" itree="2">
      <Node pos="s" depth="0" NCoef="0" IVar="0" Cut="4.4311679840087891e+01" cType="1" res="9.4338878989219666e-03" rms="4.3318477272987366e-01" purity="4.9512001872062683e-01" nType="0">
        <Node pos="l" depth="1" NCoef="0" IVar="5" Cut="1.6670994758605957e+00" cType="1" res="-1.3180461525917053e-01" rms="4.0011087059974670e-01" purity="2.1997065842151642e-01" nType="0">
          <Node pos="l" depth="2" NCoef="0" IVar="-1" Cut="0.0000000000000000e+00" cType="1" res="-1.8534035980701447e-01" rms="2.9333943128585815e-01" purity="1.0005059838294983e-01" nType="-99"/>
          <Node pos="r" depth="2" NCoef="0" IVar="-1" Cut="0.0000000000000000e+00" cType="1" res="-5.7043917477130890e-02" rms="4.3161094188690186e-01" purity="2.7535039186477661e-01" nType="-99"/>
        </Node>
        <Node pos="r" depth="1" NCoef="0" IVar="3" Cut="2.4040890502929688e+02" cType="1" res="1.4453844726085663e-01" rms="4.2032995820045471e-01" purity="7.5831979513168335e-01" nType="0">
          <Node pos="l" depth="2" NCoef="0" IVar="-1" Cut="0.0000000000000000e+00" cType="1" res="6.1536304652690887e-02" rms="4.4125348329544067e-01" purity="7.1944540739059448e-01" nType="-99"/>
          <Node pos="r" depth="2" NCoef="0" IVar="-1" Cut="0.0000000000000000e+00" cType="1" res="1.4152310788631439e-01" rms="3.1664031744003296e-01" purity="8.8444840908050537e-01" nType="-99"/>
        </Node>
      </Node>
    </BinaryTree>
    <BinaryTree type="DecisionTree" boostWeight="1.0000000000000000e+00" itree="3">
      <Node pos="s" depth="0" NCoef="0" IVar="0" Cut="5.7727081298828125e+01" cType="1" res="1.4598774723708630e-02" rms="4.1658145189285278e-01" purity="4.9728745222091675e-01" nType="0">
        <Node pos="l" depth="1" NCoef="0" IVar="0" Cut="2.5424972534179688e+01" cType="1" res="-6.5550312399864197e-02" rms="4.1819471120834351e-01" purity="3.1263735890388489e-01" nType="0">
          <Node pos="l" depth="2" NCoef="0" IVar="-1" Cut="0.0000000000000000e+00" cType="1" res="-1.9422031939029694e-01" rms="2.1061480045318604e-01" purity="4.5934852212667465e-02" nType="-99"/>
          <Node pos="r" depth="2" NCoef="0" IVar="-1" Cut="0.0000000000000000e+00" cType="1" res="-1.6096601262688637e-02" rms="4.5196700096130371e-01" purity="3.8878154754638672e-01" nType="-99"/>
        </Node>
        <Node pos="r" depth="1" NCoef="0" IVar="1" Cut="3.5211544036865234e+01" cType="1" res="1.5794229507446289e-01" rms="3.7295487523078918e-01" purity="8.2752686738967896e-01" nType="0">
          <Node pos="l" depth="2" NCoef="0" IVar="-1" Cut="0.0000000000000000e+00" cType="1" res="5.5903729051351547e-02" rms="4.3139460682868958e-01" purity="7.4629551172256470e-01" nType="-99"/>
          <Node pos="r" depth="2" NCoef="0" IVar="-1" Cut="0.0000000000000000e+00" cType="1" res="1.1097233742475510e-01" rms="3.3435317873954773e-01" purity="8.6950367689132690e-01" nType="-99"/>
        </Node>
      </Node>
    </BinaryTree>
    <BinaryTree type="DecisionTree" boostWeight="1.0000000000000000e+00" itree="4">
      <Node pos="s" depth="0" NCoef="0" IVar="0" Cut="7.8473396301269531e+01" cType="1" res="1.7292367294430733e-02" rms="4.1223013401031494e-01" purity="5.0713348388671875e-01" nType="0">
        <Node pos="l" depth="1" NCoef="0" IVar="0" Cut="3.9528156280517578e+01" cType="1" res="-1.9170682877302170e-02" rms="4.2344027757644653e-01" purity="4.0444830060005188e-01" nType="0">
          <Node pos="l" depth="2" NCoef="0" IVar="-1" Cut="0.0000000000000000e+00" cType="1" res="-6.8057015538215637e-02" rms="3.7605166435241699e-01" purity="1.8673388659954071e-01" nType="-99"/>
          <Node pos="r" depth="2" NCoef="0" IVar="-1" Cut="0.0000000000000000e+00" cType="1" res="2.8785811737179756e-02" rms="4.6147891879081726e-01" purity="6.4666986465454102e-01" nType="-99"/>
        </Node>
        <Node pos="r" depth="1" NCoef="0" IVar="4" Cut="8.9577132463455200e-01" cType="1" res="1.4363993704319000e-01" rms="3.4190949797630310e-01" purity="8.6294627189636230e-01" nType="0">
          <Node pos="l" depth="2" NCoef="0" IVar="-1" Cut="0.0000000000000000e+00" cType="1" res="4.5577604323625565e-02" rms="3.9994108676910400e-01" purity="7.9147571325302124e-01" nType="-99"/>
          <Node pos="r" depth="2" NCoef="0" IVar="-1" Cut="0.0000000000000000e+00" cType="1" res="1.0857037454843521e-01" rms="3.0997452139854431e-01" purity="8.9229047298431396e-01" nType="-99"/>
        </Node>
      </Node>
    </BinaryTree>
    <BinaryTree type="DecisionTree" boostWeight="1.0000000000000000e+00" itree="5">
      <Node pos="s" depth="0" NCoef="0" IVar="0" Cut="5.5832569122314453e+01" cType="1" res="1.3902008533477783e-02" rms="4.0867578983306885e-01" purity="5.0490653514862061e-01" nType="0">
        <Node pos="l" depth="1" NCoef="0" IVar="5" Cut="1.2507992982864380e+00" cType="1" res="-3.3838022500276566e-02" rms="4.1953012347221375e-01" purity="3.0763447284698486e-01" nType="0">
          <Node pos="l" depth="2" NCoef="0" IVar="-1" Cut="0.0000000000000000e+00" cType="1" res="-1.2127019464969635e-01" rms="3.2193014025688171e-01" purity="1.2662324309349060e-01" nType="-99"/>
          <Node pos="r" depth="2" NCoef="0" IVar="-1" Cut="0.0000000000000000e+00" cType="1" res="-7.7818096615374088e-03" rms="4.3844395875930786e-01" purity="3.5481789708137512e-01" nType="-99"/>
        </Node>
        <Node pos="r" depth="1" NCoef="0" IVar="3" Cut="1.9240634155273438e+02" cType="1" res="8.9761473238468170e-02" rms="3.7862265110015869e-01" purity="8.1837403774261475e-01" nType="0">
          <Node pos="l" depth="2" NCoef="0" IVar="-1" Cut="0.0000000000000000e+00" cType="1" res="3.8150854408740997e-02" rms="4.1098314523696899e-01" purity="7.7476292848587036e-01" nType="-99"/>
          <Node pos="r" depth="2" NCoef="0" IVar="-1" Cut="0.0000000000000000e+00" cType="1" res="9.4062134623527527e-02" rms="3.1398826837539673e-01" purity="8.8794952630996704e-01" nType="-99"/>
        </Node>
      </Node>
    </BinaryTree>
    <BinaryTree type="DecisionTree" boostWeight="1.0000000000000000e+00" itree="6">
      <Node pos="s" depth="0" NCoef="0" IVar="3" Cut="2.3196371459960938e+02" cType="1" res="9.0297004207968712e-03" rms="4.0566712617874146e-01" purity="5.0381428003311157e-01" nType="0">
        <Node pos="l" depth="1" NCoef="0" IVar="1" Cut="2.1287328720092773e+01" cType="1" res="-1.7835794016718864e-02" rms="4.1174277663230896e-01" purity="4.6052172780036926e-01" nType="0">
          <Node pos="l" depth="2" NCoef="0" IVar="-1" Cut="0.0000000000000000e+00" cType="1" res="-1.2297131121158600e-01" rms="2.9342883825302124e-01" purity="1.6115297377109528e-01" nType="-99"/>
          <Node pos="r" depth="2" NCoef="0" IVar="-1" Cut="0.0000000000000000e+00" cType="1" res="1.5596959274262190e-03" rms="4.2792388796806335e-01" purity="5.1816487312316895e-01" nType="-99"/>
        </Node>
        <Node pos="r" depth="1" NCoef="0" IVar="6" Cut="5.2974891662597656e-01" cType="1" res="9.8574295639991760e-02" rms="3.7092974781990051e-01" purity="6.4811134338378906e-01" nType="0">
          <Node pos="l" depth="2" NCoef="0" IVar="-1" Cut="0.0000000000000000e+00" cType="1" res="1.0777703672647476e-01" rms="3.6190938949584961e-01" purity="7.6021391153335571e-01" nType="-99"/>
          <Node pos="r" depth="2" NCoef="0" IVar="-1" Cut="0.0000000000000000e+00" cType="1" res="-1.7884984612464905e-02" rms="3.6661374568939209e-01" purity="3.6835110187530518e-01" nType="-99"/>
        </Node>
      </Node>
    </BinaryTree>
    <BinaryTree type="DecisionTree" boostWeight="1.0000000000000000e+00" itree="7">
      <Node pos="s" depth="0" NCoef="0" IVar="0" Cut="3.6937904357910156e+01" cType="1" res="1.0379093699157238e-02" rms="3.9857178926467896e-01" purity="5.0055080652236938e-01" nType="0">
        <Node pos="l" depth="1" NCoef="0" IVar="7" Cut="4.0080633759498596e-01" cType="1" res="-4.9625266343355179e-02" rms="3.5555174946784973e-01" purity="1.6076248884201050e-01" nType="0">
          <Node pos="l" depth="2" NCoef="0" IVar="-1" Cut="0.0000000000000000e+00" cType="1" res="-8.5457198321819305e-02" rms="3.2198461890220642e-01" purity="1.2651956081390381e-01" nType="-99"/>
          <Node pos="r" depth="2" NCoef="0" IVar="-1" Cut="0.0000000000000000e+00" cType="1" res="8.9976765215396881e-02" rms="4.4992610812187195e-01" purity="3.1476241350173950e-01" nType="-99"/>
        </Node>
        <Node pos="r" depth="1" NCoef="0" IVar="2" Cut="4.5074486732482910e+00" cType="1" res="4.7244414687156677e-02" rms="4.1859313845634460e-01" purity="7.0930904150009155e-01" nType="0">
          <Node pos="l" depth="2" NCoef="0" IVar="-1" Cut="0.0000000000000000e+00" cType="1" res="2.3485941812396049e-02" rms="4.2763549089431763e-01" purity="6.8929153680801392e-01" nType="-99"/>
          <Node pos="r" depth="2" NCoef="0" IVar="-1" Cut="0.0000000000000000e+00" cType="1" res="1.0282982885837555e-01" rms="3.2232639193534851e-01" purity="8.6834484338760376e-01" nType="-99"/>
        </Node>
      </Node>
    </BinaryTree>
    <BinaryTree type="DecisionTree" boostWeight="1.0000000000000000e+00" itree="8">
      <Node pos="s" depth="0" NCoef="0" IVar="1" Cut="5.0028400421142578e+01" cType="1" res="-3.1240156386047602e-03" rms="4.0113177895545959e-01" purity="4.9564805626869202e-01" nType="0">
        <Node pos="l" depth="1" NCoef="0" IVar="5" Cut="2.4996998310089111e+00" cType="1" res="-1.8493989482522011e-02" rms="4.1303128004074097e-01" purity="4.3152529001235962e-01" nType="0">
          <Node pos="l" depth="2" NCoef="0" IVar="-1" Cut="0.0000000000000000e+00" cType="1" res="-5.5575549602508545e-02" rms="3.7465733289718628e-01" purity="2.5788268446922302e-01" nType="-99"/>
          <Node pos="r" depth="2" NCoef="0" IVar="-1" Cut="0.0000000000000000e+00" cType="1" res="3.7248698063194752e-03" rms="4.3172726035118103e-01" purity="5.3099995851516724e-01" nType="-99"/>
        </Node>
        <Node pos="r" depth="1" NCoef="0" IVar="1" Cut="6.4219680786132812e+01" cType="1" res="9.2632241547107697e-02" rms="2.9984614253044128e-01" purity="8.9513844251632690e-01" nType="0">
          <Node pos="l" depth="2" NCoef="0" IVar="-1" Cut="0.0000000000000000e+00" cType="1" res="6.1545316129922867e-02" rms="3.3200255036354065e-01" purity="8.6820441484451294e-01" nType="-99"/>
          <Node pos="r" depth="2" NCoef="0" IVar="-1" Cut="0.0000000000000000e+00" cType="1" res="9.2729225754737854e-02" rms="2.5339779257774353e-01" purity="9.2857110500335693e-01" nType="-99"/>
        </Node>
      </Node>
    </BinaryTree>
    <BinaryTree type="DecisionTree" boostWeight="1.0000000000000000e+00" itree="9">
      <Node pos="s" depth="0" NCoef="0" IVar="5" Cut="1.9444869756698608e+00" cType="1" res="1.2178527191281319e-02" rms="3.9982798695564270e-01" purity="5.0453579425811768e-01" nType="0">
        <Node pos="l" depth="1" NCoef="0" IVar="6" Cut="6.4622706174850464e-01" cType="1" res="-4.5152172446250916e-02" rms="3.6264872550964355e-01" purity="2.4714188277721405e-01" nType="0">
          <Node pos="l" depth="2" NCoef="0" IVar="-1" Cut="0.0000000000000000e+00" cType="1" res="-1.4324155636131763e-02" rms="3.8364514708518982e-01" purity="2.9737070202827454e-01" nType="-99"/>
          <Node pos="r" depth="2" NCoef="0" IVar="-1" Cut="0.0000000000000000e+00" cType="1" res="-1.4618818461894989e-01" rms="2.8912308812141418e-01" purity="1.2066840380430222e-01" nType="-99"/>
        </Node>
        <Node pos="r" depth="1" NCoef="0" IVar="0" Cut="5.9738208770751953e+01" cType="1" res="3.0285308137536049e-02" rms="4.0920624136924744e-01" purity="5.8582866191864014e-01" nType="0">
          <Node pos="l" depth="2" NCoef="0" IVar="-1" Cut="0.0000000000000000e+00" cType="1" res="7.1345362812280655e-03" rms="4.4023239612579346e-01" purity="3.9692088961601257e-01" nType="-99"/>
          <Node pos="r" depth="2" NCoef="0" IVar="-1" Cut="0.0000000000000000e+00" cType="1" res="4.4605243951082230e-02" rms="3.6166062951087952e-01" purity="8.3876657485961914e-01" nType="-99"/>
        </Node>
      </Node>
    </BinaryTree>
    <BinaryTree type="DecisionTree" boostWeight="1.0000000000000000e+00" itree="10">
      <Node pos="s" depth="0" NCoef="0" IVar="3" Cut="1.8147984313964844e+02" cType="1" res="9.4173345714807510e-03" rms="3.9492240548133850e-01" purity="5.0377565622329712e-01" nType="0">
        <Node pos="l" depth="1" NCoef="0" IVar="0" Cut="8.8402336120605469e+01" cType="1" res="-1.5065453015267849e-02" rms="4.0862250328063965e-01" purity="4.3865373730659485e-01" nType="0">
          <Node pos="l" depth="2" NCoef="0" IVar="-1" Cut="0.0000000000000000e+00" cType="1" res="-2.1327372640371323e-02" rms="4.1384220123291016e-01" purity="3.7325614690780640e-01" nType="-99"/>
          <Node pos="r" depth="2" NCoef="0" IVar="-1" Cut="0.0000000000000000e+00" cType="1" res="3.9263647049665451e-02" rms="3.6838838458061218e-01" purity="8.3697187900543213e-01" nType="-99"/>
        </Node>
        <Node pos="r" depth="1" NCoef="0" IVar="4" Cut="1.5753041505813599e+00" cType="1" res="5.6515589356422424e-02" rms="3.6251172423362732e-01" purity="6.2905257940292358e-01" nType="0">
          <Node pos="l" depth="2" NCoef="0" IVar="-1" Cut="0.0000000000000000e+00" cType="1" res="9.2242486774921417e-02" rms="3.3607718348503113e-01" purity="7.4351119995117188e-01" nType="-99"/>
          <Node pos="r" depth="2" NCoef="0" IVar="-1" Cut="0.0000000000000000e+00" cType="1" res="8.9818453416228294e-03" rms="3.7622928619384766e-01" purity="5.3639197349548340e-01" nType="-99"/>
        </Node>
      </Node>
    </BinaryTree>
    <BinaryTree type="DecisionTree" boostWeight="1.0000000000000000e+00" itree="11">
      <Node pos="s" depth="0" NCoef="0" IVar="1" Cut="4.0112102508544922e+01" cType="1" res="-7.2426879778504372e-03" rms="3.9071226119995117e-01" purity="4.8464956879615784e-01" nType="0">
        <Node pos="l" depth="1" NCoef="0" IVar="3" Cut="5.1048251342773438e+02" cType="1" res="-2.2704644128680229e-02" rms="4.0006485581398010e-01" purity="3.7294667959213257e-01" nType="0">
          <Node pos="l" depth="2" NCoef="0" IVar="-1" Cut="0.0000000000000000e+00" cType="1" res="-2.7153749018907547e-02" rms="4.0078693628311157e-01" purity="3.5740906000137329e-01" nType="-99"/>
          <Node pos="r" depth="2" NCoef="0" IVar="-1" Cut="0.0000000000000000e+00" cType="1" res="5.4902080446481705e-02" rms="3.8258066773414612e-01" purity="5.1956987380981445e-01" nType="-99"/>
        </Node>
        <Node pos="r" depth="1" NCoef="0" IVar="1" Cut="4.7313884735107422e+01" cType="1" res="4.0191546082496643e-02" rms="3.5634773969650269e-01" purity="8.2733196020126343e-01" nType="0">
          <Node pos="l" depth="2" NCoef="0" IVar="-1" Cut="0.0000000000000000e+00" cType="1" res="9.5047820359468460e-03" rms="4.1944813728332520e-01" purity="7.2813540697097778e-01" nType="-99"/>
          <Node pos="r" depth="2" NCoef="0" IVar="-1" Cut="0.0000000000000000e+00" cType="1" res="5.0047345459461212e-02" rms="3.1557354331016541e-01" purity="8.8158941268920898e-01" nType="-99"/>
        </Node>
      </Node>
    </BinaryTree>
    <BinaryTree type="DecisionTree" boostWeight="1.0000000000000000e+00" itree="12">
      <Node pos="s" depth="0" NCoef="0" IVar="0" Cut="1.0145695495605469e+02" cType="1" res="1.6269283369183540e-03" rms="3.9413833618164062e-01" purity="4.8646464943885803e-01" nType="0">
        <Node pos="l" depth="1" NCoef="0" IVar="0" Cut="2.3679759979248047e+01" cType="1" res="-6.2276306562125683e-03" rms="4.0293067693710327e-01" purity="4.3312799930572510e-01" nType="0">
          <Node pos="l" depth="2" NCoef="0" IVar="-1" Cut="0.0000000000000000e+00" cType="1" res="-1.0000640898942947e-01" rms="2.3185120522975922e-01" purity="5.8070126920938492e-02" nType="-99"/>
          <Node pos="r" depth="2" NCoef="0" IVar="-1" Cut="0.0000000000000000e+00" cType="1" res="5.0658336840569973e-04" rms="4.1977453231811523e-01" purity="4.8238641023635864e-01" nType="-99"/>
        </Node>
        <Node pos="r" depth="1" NCoef="0" IVar="-1" Cut="0.0000000000000000e+00" cType="1" res="5.4706376045942307e-02" rms="3.1407260894775391e-01" purity="8.8788831233978271e-01" nType="-99"/>
      </Node>
    </BinaryTree>
    <BinaryTree type="DecisionTree" boostWeight="1.0000000000000000e+00" itree="13">
      <Node pos="s" depth="0" NCoef="0" IVar="3" Cut="8.8652484130859375e+02" cType="1" res="2.8447543736547232e-03" rms="3.9305913448333740e-01" purity="4.9550607800483704e-01" nType="0">
        <Node pos="l" depth="1" NCoef="0" IVar="1" Cut="3.1765840530395508e+01" cType="1" res="-2.2641685791313648e-03" rms="3.9734056591987610e-01" purity="4.8024952411651611e-01" nType="0">
          <Node pos="l" depth="2" NCoef="0" IVar="-1" Cut="0.0000000000000000e+00" cType="1" res="-1.4319649897515774e-02" rms="3.8808113336563110e-01" purity="3.1574210524559021e-01" nType="-99"/>
          <Node pos="r" depth="2" NCoef="0" IVar="-1" Cut="0.0000000000000000e+00" cType="1" res="1.2346476316452026e-02" rms="4.0917232632637024e-01" purity="7.0887279510498047e-01" nType="-99"/>
        </Node>
        <Node pos="r" depth="1" NCoef="0" IVar="-1" Cut="0.0000000000000000e+00" cType="1" res="8.1796489655971527e-02" rms="3.0903998017311096e-01" purity="7.3148381710052490e-01" nType="-99"/>
      </Node>
    </BinaryTree>
    <BinaryTree type="DecisionTree" boostWeight="1.0000000000000000e+00" itree="14">
      <Node pos="s" depth="0" NCoef="0" IVar="4" Cut="8.8665014505386353e-01" cType="1" res="1.1186132207512856e-02" rms="3.9525619149208069e-01" purity="5.0345188379287720e-01" nType="0">
        <Node pos="l" depth="1" NCoef="0" IVar="3" Cut="1.9472706604003906e+02" cType="1" res="-3.2974317669868469e-02" rms="3.9007592201232910e-01" purity="5.0229603052139282e-01" nType="0">
          <Node pos="l" depth="2" NCoef="0" IVar="-1" Cut="0.0000000000000000e+00" cType="1" res="-6.3131287693977356e-02" rms="4.0199217200279236e-01" purity="3.8891950249671936e-01" nType="-99"/>
          <Node pos="r" depth="2" NCoef="0" IVar="-1" Cut="0.0000000000000000e+00" cType="1" res="4.4575113803148270e-02" rms="3.5208436846733093e-01" purity="7.2568613290786743e-01" nType="-99"/>
        </Node>
        <Node pos="r" depth="1" NCoef="0" IVar="5" Cut="1.8061366081237793e+00" cType="1" res="2.4457056075334549e-02" rms="3.9583817124366760e-01" purity="5.0379925966262817e-01" nType="0">
          <Node pos="l" depth="2" NCoef="0" IVar="-1" Cut="0.0000000000000000e+00" cType="1" res="-2.5751873850822449e-02" rms="3.5158243775367737e-01" purity="2.3079068958759308e-01" nType="-99"/>
          <Node pos="r" depth="2" NCoef="0" IVar="-1" Cut="0.0000000000000000e+00" cType="1" res="3.1160738319158554e-02" rms="4.0711435675621033e-01" purity="5.8547693490982056e-01" nType="-99"/>
        </Node>
      </Node>
    </BinaryTree>
    <BinaryTree type="DecisionTree" boostWeight="1.0000000000000000e+00" itree="15">
      <Node pos="s" depth="0" NCoef="0" IVar="2" Cut="4.3376278877258301e-01" cType="1" res="-2.1767988801002502e-03" rms="3.9401996135711670e-01" purity="4.9688136577606201e-01" nType="0">
        <Node pos="l" depth="1" NCoef="0" IVar="2" Cut="2.0595248043537140e-01" cType="1" res="4.5097000896930695e-02" rms="3.9709153771400452e-01" purity="5.5661100149154663e-01" nType="0">
          <Node pos="l" depth="2" NCoef="0" IVar="-1" Cut="0.0000000000000000e+00" cType="1" res="-2.2083792835474014e-02" rms="3.7525650858879089e-01" purity="4.8191347718238831e-01" nType="-99"/>
          <Node pos="r" depth="2" NCoef="0" IVar="-1" Cut="0.0000000000000000e+00" cType="1" res="8.5244253277778625e-02" rms="4.0495082736015320e-01" purity="6.1674433946609497e-01" nType="-99"/>
        </Node>
        <Node pos="r" depth="1" NCoef="0" IVar="2" Cut="2.0840458869934082e+00" cType="1" res="-8.5367942228913307e-03" rms="3.9317134022712708e-01" purity="4.8884564638137817e-01" nType="0">
          <Node pos="l" depth="2" NCoef="0" IVar="-1" Cut="0.0000000000000000e+00" cType="1" res="-2.8796447440981865e-02" rms="3.9730188250541687e-01" purity="4.8684477806091309e-01" nType="-99"/>
          <Node pos="r" depth="2" NCoef="0" IVar="-1" Cut="0.0000000000000000e+00" cType="1" res="1.0905012488365173e-02" rms="3.8858649134635925e-01" purity="4.9047783017158508e-01" nType="-99"/>
        </Node>
      </Node>
    </BinaryTree>
    <BinaryTree type="DecisionTree" boostWeight="1.0000000000000000e+00" itree="16">
      <Node pos="s" depth="0" NCoef="0" IVar="4" Cut="8.6603552103042603e-01" cType="1" res="4.5227813534438610e-03" rms="3.9773702621459961e-01" purity="5.0459092855453491e-01" nType="0">
        <Node pos="l" depth="1" NCoef="0" IVar="3" Cut="1.6038586425781250e+02" cType="1" res="-2.4635540321469307e-02" rms="4.0042901039123535e-01" purity="5.1257586479187012e-01" nType="0">
          <Node pos="l" depth="2" NCoef="0" IVar="-1" Cut="0.0000000000000000e+00" cType="1" res="-5.9970580041408539e-02" rms="4.1695982217788696e-01" purity="3.5856404900550842e-01" nType="-99"/>
          <Node pos="r" depth="2" NCoef="0" IVar="-1" Cut="0.0000000000000000e+00" cType="1" res="2.8584400191903114e-02" rms="3.7136816978454590e-01" purity="7.0284080505371094e-01" nType="-99"/>
        </Node>
        <Node pos="r" depth="1" NCoef="0" IVar="2" Cut="2.1593410968780518e+00" cType="1" res="1.3518571853637695e-02" rms="3.9647021889686584e-01" purity="5.0212746858596802e-01" nType="0">
          <Node pos="l" depth="2" NCoef="0" IVar="-1" Cut="0.0000000000000000e+00" cType="1" res="2.5676490738987923e-02" rms="3.9838567376136780e-01" purity="5.3294587135314941e-01" nType="-99"/>
          <Node pos="r" depth="2" NCoef="0" IVar="-1" Cut="0.0000000000000000e+00" cType="1" res="-5.9901573695242405e-03" rms="3.9327639341354370e-01" purity="4.6596175432205200e-01" nType="-99"/>
        </Node>
      </Node>
    </BinaryTree>
    <BinaryTree type="DecisionTree" boostWeight="1.0000000000000000e+00" itree="17">
      <Node pos="s" depth="0" NCoef="0" IVar="1" Cut="4.1284378051757812e+01" cType="1" res="-6.8239783868193626e-03" rms="3.9089155197143555e-01" purity="4.8975092172622681e-01" nType="0">
        <Node pos="l" depth="1" NCoef="0" IVar="1" Cut="1.8766370773315430e+01" cType="1" res="-1.6719546169042587e-02" rms="4.0260037779808044e-01" purity="3.8101473450660706e-01" nType="0">
          <Node pos="l" depth="2" NCoef="0" IVar="-1" Cut="0.0000000000000000e+00" cType="1" res="-6.9405846297740936e-02" rms="2.9435533285140991e-01" purity="2.0287221670150757e-01" nType="-99"/>
          <Node pos="r" depth="2" NCoef="0" IVar="-1" Cut="0.0000000000000000e+00" cType="1" res="-9.7038745880126953e-03" rms="4.1456121206283569e-01" purity="4.0464788675308228e-01" nType="-99"/>
        </Node>
        <Node pos="r" depth="1" NCoef="0" IVar="2" Cut="2.4854149818420410e+00" cType="1" res="2.5333449244499207e-02" rms="3.4821200370788574e-01" purity="8.4310877323150635e-01" nType="0">
          <Node pos="l" depth="2" NCoef="0" IVar="-1" Cut="0.0000000000000000e+00" cType="1" res="9.8932618275284767e-03" rms="3.7741219997406006e-01" purity="8.1062656641006470e-01" nType="-99"/>
          <Node pos="r" depth="2" NCoef="0" IVar="-1" Cut="0.0000000000000000e+00" cType="1" res="6.2878422439098358e-02" rms="2.7235788106918335e-01" purity="9.1322737932205200e-01" nType="-99"/>
        </Node>
      </Node>
    </BinaryTree>
    <BinaryTree type="DecisionTree" boostWeight="1.0000000000000000e+00" itree="18">
      <Node pos="s" depth="0" NCoef="0" IVar="5" Cut="1.9444869756698608e+00" cType="1" res="3.1101014465093613e-03" rms="3.9076149463653564e-01" purity="4.9762716889381409e-01" nType="0">
        <Node pos="l" depth="1" NCoef="0" IVar="2" Cut="1.2291511297225952e+00" cType="1" res="-2.2981986403465271e-02" rms="3.5535749793052673e-01" purity="2.3726129531860352e-01" nType="0">
          <Node pos="l" depth="2" NCoef="0" IVar="-1" Cut="0.0000000000000000e+00" cType="1" res="2.1829752251505852e-02" rms="3.8787543773651123e-01" purity="2.9205566644668579e-01" nType="-99"/>
          <Node pos="r" depth="2" NCoef="0" IVar="-1" Cut="0.0000000000000000e+00" cType="1" res="-4.6918984502553940e-02" rms="3.4110578894615173e-01" purity="2.1691310405731201e-01" nType="-99"/>
        </Node>
        <Node pos="r" depth="1" NCoef="0" IVar="5" Cut="2.3147687911987305e+00" cType="1" res="1.1533453129231930e-02" rms="4.0116283297538757e-01" purity="5.8168143033981323e-01" nType="0">
          <Node pos="l" depth="2" NCoef="0" IVar="-1" Cut="0.0000000000000000e+00" cType="1" res="3.8754954934120178e-02" rms="3.8199594616889954e-01" purity="4.7814303636550903e-01" nType="-99"/>
          <Node pos="r" depth="2" NCoef="0" IVar="-1" Cut="0.0000000000000000e+00" cType="1" res="6.7919692955911160e-03" rms="4.0281498432159424e-01" purity="5.9169977903366089e-01" nType="-99"/>
        </Node>
      </Node>
    </BinaryTree>
    <BinaryTree type="DecisionTree" boostWeight="1.0000000000000000e+00" itree="19">
      <Node pos="s" depth="0" NCoef="0" IVar="3" Cut="8.4484014892578125e+02" cType="1" res="6.2176855280995369e-03" rms="3.9668515324592590e-01" purity="5.0856250524520874e-01" nType="0">
        <Node pos="l" depth="1" NCoef="0" IVar="2" Cut="1.0938636064529419e+00" cType="1" res="2.1676998585462570e-03" rms="4.0179160237312317e-01" purity="4.8921713232994080e-01" nType="0">
          <Node pos="l" depth="2" NCoef="0" IVar="-1" Cut="0.0000000000000000e+00" cType="1" res="2.1458808332681656e-02" rms="4.0868595242500305e-01" purity="5.3567939996719360e-01" nType="-99"/>
          <Node pos="r" depth="2" NCoef="0" IVar="-1" Cut="0.0000000000000000e+00" cType="1" res="-8.0452319234609604e-03" rms="3.9801523089408875e-01" purity="4.6727231144905090e-01" nType="-99"/>
        </Node>
        <Node pos="r" depth="1" NCoef="0" IVar="-1" Cut="0.0000000000000000e+00" cType="1" res="6.6464975476264954e-02" rms="3.1333529949188232e-01" purity="7.7366554737091064e-01" nType="-99"/>
      </Node>
    </BinaryTree>
    <BinaryTree type="DecisionTree" boostWeight="1.0000000000000000e+00" itree="20">
      <Node pos="s" depth="0" NCoef="0" IVar="2" Cut="2.1262772083282471e+00" cType="1" res="4.2822104878723621e-03" rms="4.0341302752494812e-01" purity="5.0217819213867188e-01" nType="0">
        <Node pos="l" depth="1" NCoef="0" IVar="4" Cut="1.8009994029998779e+00" cType="1" res="-1.3612371869385242e-02" rms="4.0865248441696167e-01" purity="4.9938824772834778e-01" nType="0">
          <Node pos="l" depth="2" NCoef="0" IVar="-1" Cut="0.0000000000000000e+00" cType="1" res="-3.7543430924415588e-02" rms="4.1654750704765320e-01" purity="4.8102438449859619e-01" nType="-99"/>
          <Node pos="r" depth="2" NCoef="0" IVar="-1" Cut="0.0000000000000000e+00" cType="1" res="1.0011379607021809e-02" rms="4.0020191669464111e-01" purity="5.1467669010162354e-01" nType="-99"/>
        </Node>
        <Node pos="r" depth="1" NCoef="0" IVar="4" Cut="3.7311639785766602e+00" cType="1" res="2.4047467857599258e-02" rms="3.9660832285881042e-01" purity="5.0525975227355957e-01" nType="0">
          <Node pos="l" depth="2" NCoef="0" IVar="-1" Cut="0.0000000000000000e+00" cType="1" res="3.1494371592998505e-02" rms="3.9691025018692017e-01" purity="5.3944134712219238e-01" nType="-99"/>
          <Node pos="r" depth="2" NCoef="0" IVar="-1" Cut="0.0000000000000000e+00" cType="1" res="-1.9726948812603951e-02" rms="3.9215856790542603e-01" purity="3.4728875756263733e-01" nType="-99"/>
        </Node>
      </Node>
    </BinaryTree>
    <BinaryTree type="DecisionTree" boostWeight="1.0000000000000000e+00" itree="21">
      <Node pos="s" depth="0" NCoef="0" IVar="4" Cut="2.2512946128845215e+00" cType="1" res="1.5010376228019595e-03" rms="3.9641365408897400e-01" purity="4.9677851796150208e-01" nType="0">
        <Node pos="l" depth="1" NCoef="0" IVar="0" Cut="7.9966079711914062e+01" cType="1" res="1.4694697223603725e-02" rms="4.0011835098266602e-01" purity="5.4707854986190796e-01" nType="0">
          <Node pos="l" depth="2" NCoef="0" IVar="-1" Cut="0.0000000000000000e+00" cType="1" res="2.1882314234972000e-02" rms="4.0952578186988831e-01" purity="4.5804134011268616e-01" nType="-99"/>
          <Node pos="r" depth="2" NCoef="0" IVar="-1" Cut="0.0000000000000000e+00" cType="1" res="-2.0693415775895119e-02" rms="3.6738416552543640e-01" purity="8.2202661037445068e-01" nType="-99"/>
        </Node>
        <Node pos="r" depth="1" NCoef="0" IVar="0" Cut="8.3741081237792969e+01" cType="1" res="-1.4523120597004890e-02" rms="3.9126923680305481e-01" purity="4.3568739295005798e-01" nType="0">
          <Node pos="l" depth="2" NCoef="0" IVar="-1" Cut="0.0000000000000000e+00" cType="1" res="-2.3559221997857094e-02" rms="4.0454944968223572e-01" purity="3.4961462020874023e-01" nType="-99"/>
          <Node pos="r" depth="2" NCoef="0" IVar="-1" Cut="0.0000000000000000e+00" cType="1" res="4.8292677849531174e-02" rms="3.0298683047294617e-01" purity="8.9762711524963379e-01" nType="-99"/>
        </Node>
      </Node>
    </BinaryTree>
    <BinaryTree type="DecisionTree" boostWeight="1.0000000000000000e+00" itree="22">
      <Node pos="s" depth="0" NCoef="0" IVar="0" Cut="3.2051750183105469e+01" cType="1" res="3.5996553488075733e-03" rms="3.8796257972717285e-01" purity="5.0285518169403076e-01" nType="0">
        <Node pos="l" depth="1" NCoef="0" IVar="4" Cut="4.0456380844116211e+00" cType="1" res="-2.0047096535563469e-02" rms="3.1747880578041077e-01" purity="1.2540961802005768e-01" nType="0">
          <Node pos="l" depth="2" NCoef="0" IVar="-1" Cut="0.0000000000000000e+00" cType="1" res="-4.5677155256271362e-02" rms="3.0314782261848450e-01" purity="1.1562141031026840e-01" nType="-99"/>
          <Node pos="r" depth="2" NCoef="0" IVar="-1" Cut="0.0000000000000000e+00" cType="1" res="3.3340938389301300e-02" rms="3.5767155885696411e-01" purity="1.5791356563568115e-01" nType="-99"/>
        </Node>
        <Node pos="r" depth="1" NCoef="0" IVar="0" Cut="1.2696636962890625e+02" cType="1" res="1.3267459347844124e-02" rms="4.1294240951538086e-01" purity="6.5717107057571411e-01" nType="0">
          <Node pos="l" depth="2" NCoef="0" IVar="-1" Cut="0.0000000000000000e+00" cType="1" res="1.3626072555780411e-02" rms="4.1647017002105713e-01" purity="6.4066165685653687e-01" nType="-99"/>
          <Node pos="r" depth="2" NCoef="0" IVar="-1" Cut="0.0000000000000000e+00" cType="1" res="-3.4383963793516159e-02" rms="3.7281450629234314e-01" purity="8.2238912582397461e-01" nType="-99"/>
        </Node>
      </Node>
    </BinaryTree>
    <BinaryTree type="DecisionTree" boostWeight="1.0000000000000000e+00" itree="23">
      <Node pos="s" depth="0" NCoef="0" IVar="0" Cut="4.6809959411621094e+01" cType="1" res="9.9243847653269768e-03" rms="3.9873865246772766e-01" purity="5.0524091720581055e-01" nType="0">
        <Node pos="l" depth="1" NCoef="0" IVar="1" Cut="3.2839870452880859e+01" cType="1" res="2.2568322718143463e-02" rms="4.0125212073326111e-01" purity="2.5670960545539856e-01" nType="0">
          <Node pos="l" depth="2" NCoef="0" IVar="-1" Cut="0.0000000000000000e+00" cType="1" res="1.1991193518042564e-02" rms="3.8623449206352234e-01" purity="2.1671383082866669e-01" nType="-99"/>
          <Node pos="r" depth="2" NCoef="0" IVar="-1" Cut="0.0000000000000000e+00" cType="1" res="5.8765422552824020e-02" rms="4.7624120116233826e-01" purity="4.9794191122055054e-01" nType="-99"/>
        </Node>
        <Node pos="r" depth="1" NCoef="0" IVar="4" Cut="7.9133474826812744e-01" cType="1" res="-3.9135972037911415e-03" rms="3.9550650119781494e-01" purity="7.7724260091781616e-01" nType="0">
          <Node pos="l" depth="2" NCoef="0" IVar="-1" Cut="0.0000000000000000e+00" cType="1" res="-3.0410297214984894e-02" rms="4.2514145374298096e-01" purity="7.2278594970703125e-01" nType="-99"/>
          <Node pos="r" depth="2" NCoef="0" IVar="-1" Cut="0.0000000000000000e+00" cType="1" res="5.4852548055350780e-03" rms="3.8521203398704529e-01" purity="7.9421484470367432e-01" nType="-99"/>
        </Node>
      </Node>
    </BinaryTree>
    <BinaryTree type="DecisionTree" boostWeight="1.0000000000000000e+00" itree="24">
      <Node pos="s" depth="0" NCoef="0" IVar="1" Cut="6.1505523681640625e+01" cType="1" res="-7.5056022033095360e-03" rms="3.8624712824821472e-01" purity="4.9547016620635986e-01" nType="0">
        <Node pos="l" depth="1" NCoef="0" IVar="4" Cut="4.0516538619995117e+00" cType="1" res="-1.1167410761117935e-02" rms="3.9454820752143860e-01" purity="4.6274966001510620e-01" nType="0">
          <Node pos="l" depth="2" NCoef="0" IVar="-1" Cut="0.0000000000000000e+00" cType="1" res="-1.5232497826218605e-02" rms="3.9338573813438416e-01" purity="4.8109564185142517e-01" nType="-99"/>
          <Node pos="r" depth="2" NCoef="0" IVar="-1" Cut="0.0000000000000000e+00" cType="1" res="1.4463928528130054e-02" rms="3.9844256639480591e-01" purity="3.8317978382110596e-01" nType="-99"/>
        </Node>
        <Node pos="r" depth="1" NCoef="0" IVar="-1" Cut="0.0000000000000000e+00" cType="1" res="5.4889116436243057e-02" rms="2.4486784636974335e-01" purity="9.3291163444519043e-01" nType="-99"/>
      </Node>
    </BinaryTree>
    <BinaryTree type="DecisionTree" boostWeight="1.0000000000000000e+00" itree="25">
      <Node pos="s" depth="0" NCoef="0" IVar="1" Cut="4.1274211883544922e+01" cType="1" res="-3.5270038060843945e-03" rms="3.8895455002784729e-01" purity="5.0549972057342529e-01" nType="0">
        <Node pos="l" depth="1" NCoef="0" IVar="3" Cut="1.8227177429199219e+02" cType="1" res="-1.0964557528495789e-02" rms="4.0176847577095032e-01" purity="4.0173146128654480e-01" nType="0">
          <Node pos="l" depth="2" NCoef="0" IVar="-1" Cut="0.0000000000000000e+00" cType="1" res="-2.1837728098034859e-02" rms="3.9939001202583313e-01" purity="3.5190713405609131e-01" nType="-99"/>
          <Node pos="r" depth="2" NCoef="0" IVar="-1" Cut="0.0000000000000000e+00" cType="1" res="1.8010264262557030e-02" rms="4.0535572171211243e-01" purity="5.1545310020446777e-01" nType="-99"/>
        </Node>
        <Node pos="r" depth="1" NCoef="0" IVar="4" Cut="2.3605990409851074e+00" cType="1" res="2.0751198753714561e-02" rms="3.4269684553146362e-01" purity="8.4422767162322998e-01" nType="0">
          <Node pos="l" depth="2" NCoef="0" IVar="-1" Cut="0.0000000000000000e+00" cType="1" res="3.3780969679355621e-02" rms="3.3126527070999146e-01" purity="8.5775780677795410e-01" nType="-99"/>
          <Node pos="r" depth="2" NCoef="0" IVar="-1" Cut="0.0000000000000000e+00" cType="1" res="-8.6016990244388580e-03" rms="3.6424300074577332e-01" purity="8.1523871421813965e-01" nType="-99"/>
        </Node>
      </Node>
    </BinaryTree>
    <BinaryTree type="DecisionTree" boostWeight="1.0000000000000000e+00" itree="26">
      <Node pos="s" depth="0" NCoef="0" IVar="0" Cut="7.8382263183593750e+01" cType="1" res="-1.7218188149854541e-03" rms="3.8920006155967712e-01" purity="4.9719095230102539e-01" nType="0">
        <Node pos="l" depth="1" NCoef="0" IVar="4" Cut="4.5098412036895752e-01" cType="1" res="-1.1111374944448471e-02" rms="4.0613049268722534e-01" purity="3.9008483290672302e-01" nType="0">
          <Node pos="l" depth="2" NCoef="0" IVar="-1" Cut="0.0000000000000000e+00" cType="1" res="2.6957146823406219e-02" rms="4.2503133416175842e-01" purity="4.2515537142753601e-01" nType="-99"/>
          <Node pos="r" depth="2" NCoef="0" IVar="-1" Cut="0.0000000000000000e+00" cType="1" res="-1.4528953470289707e-02" rms="4.0339377522468567e-01" purity="3.8570663332939148e-01" nType="-99"/>
        </Node>
        <Node pos="r" depth="1" NCoef="0" IVar="4" Cut="9.0017777681350708e-01" cType="1" res="3.1163893640041351e-02" rms="3.2082083821296692e-01" purity="8.7231624126434326e-01" nType="0">
          <Node pos="l" depth="2" NCoef="0" IVar="-1" Cut="0.0000000000000000e+00" cType="1" res="-8.4199421107769012e-03" rms="3.6747080087661743e-01" purity="8.0475044250488281e-01" nType="-99"/>
          <Node pos="r" depth="2" NCoef="0" IVar="-1" Cut="0.0000000000000000e+00" cType="1" res="4.8515107482671738e-02" rms="2.9914319515228271e-01" purity="8.9874839782714844e-01" nType="-99"/>
        </Node>
      </Node>
    </BinaryTree>
    <BinaryTree type="DecisionTree" boostWeight="1.0000000000000000e+00" itree="27">
      <Node pos="s" depth="0" NCoef="0" IVar="5" Cut="2.4996371269226074e+00" cType="1" res="3.5735785495489836e-03" rms="3.9350193738937378e-01" purity="5.0675457715988159e-01" nType="0">
        <Node pos="l" depth="1" NCoef="0" IVar="5" Cut="2.2612206935882568e+00" cType="1" res="-2.1559150889515877e-02" rms="3.7384834885597229e-01" purity="2.9384267330169678e-01" nType="0">
          <Node pos="l" depth="2" NCoef="0" IVar="-1" Cut="0.0000000000000000e+00" cType="1" res="-1.2338731437921524e-02" rms="3.6112445592880249e-01" purity="2.7422031760215759e-01" nType="-99"/>
          <Node pos="r" depth="2" NCoef="0" IVar="-1" Cut="0.0000000000000000e+00" cType="1" res="-6.6890880465507507e-02" rms="4.2963299155235291e-01" purity="3.9529076218605042e-01" nType="-99"/>
        </Node>
        <Node pos="r" depth="1" NCoef="0" IVar="0" Cut="4.7033779144287109e+01" cType="1" res="1.6952052712440491e-02" rms="4.0293478965759277e-01" purity="6.2009024620056152e-01" nType="0">
          <Node pos="l" depth="2" NCoef="0" IVar="-1" Cut="0.0000000000000000e+00" cType="1" res="3.0719980597496033e-02" rms="4.3520030379295349e-01" purity="3.3240136504173279e-01" nType="-99"/>
          <Node pos="r" depth="2" NCoef="0" IVar="-1" Cut="0.0000000000000000e+00" cType="1" res="3.5864850506186485e-03" rms="3.8071894645690918e-01" purity="8.0074000358581543e-01" nType="-99"/>
        </Node>
      </Node>
    </BinaryTree>
    <BinaryTree type="DecisionTree" boostWeight="1.0000000000000000e+00" itree="28">
      <Node pos="s" depth="0" NCoef="0" IVar="5" Cut="2.6387603282928467e+00" cType="1" res="8.9198751375079155e-03" rms="3.9171046018600464e-01" purity="5.0607287883758545e-01" nType="0">
        <Node pos="l" depth="1" NCoef="0" IVar="5" Cut="2.3845620155334473e+00" cType="1" res="-1.2181661091744900e-02" rms="3.8313254714012146e-01" purity="3.1655025482177734e-01" nType="0">
          <Node pos="l" depth="2" NCoef="0" IVar="-1" Cut="0.0000000000000000e+00" cType="1" res="-3.2472233287990093e-03" rms="3.6871150135993958e-01" purity="2.8935089707374573e-01" nType="-99"/>
          <Node pos="r" depth="2" NCoef="0" IVar="-1" Cut="0.0000000000000000e+00" cType="1" res="-4.5814704149961472e-02" rms="4.4062906503677368e-01" purity="4.4088032841682434e-01" nType="-99"/>
        </Node>
        <Node pos="r" depth="1" NCoef="0" IVar="5" Cut="2.8632986545562744e+00" cType="1" res="2.1860338747501373e-02" rms="3.9632380008697510e-01" purity="6.2229716777801514e-01" nType="0">
          <Node pos="l" depth="2" NCoef="0" IVar="-1" Cut="0.0000000000000000e+00" cType="1" res="5.1604576408863068e-02" rms="4.1121515631675720e-01" purity="6.6124945878982544e-01" nType="-99"/>
          <Node pos="r" depth="2" NCoef="0" IVar="-1" Cut="0.0000000000000000e+00" cType="1" res="1.2186610139906406e-02" rms="3.9317154884338379e-01" purity="6.1542809009552002e-01" nType="-99"/>
        </Node>
      </Node>
    </BinaryTree>
    <BinaryTree type="DecisionTree" boostWeight="1.0000000000000000e+00" itree="29">
      <Node pos="s" depth="0" NCoef="0" IVar="2" Cut="4.7126097679138184e+00" cType="1" res="-3.0533885583281517e-03" rms="3.9426916837692261e-01" purity="4.9374231696128845e-01" nType="0">
        <Node pos="l" depth="1" NCoef="0" IVar="1" Cut="2.3429418563842773e+01" cType="1" res="-1.0502946563065052e-02" rms="3.9901024103164673e-01" purity="4.8752099275588989e-01" nType="0">
          <Node pos="l" depth="2" NCoef="0" IVar="-1" Cut="0.0000000000000000e+00" cType="1" res="1.5157683752477169e-02" rms="3.5581243038177490e-01" purity="2.6571738719940186e-01" nType="-99"/>
          <Node pos="r" depth="2" NCoef="0" IVar="-1" Cut="0.0000000000000000e+00" cType="1" res="-1.5027564950287342e-02" rms="4.1161394119262695e-01" purity="5.5859327316284180e-01" nType="-99"/>
        </Node>
        <Node pos="r" depth="1" NCoef="0" IVar="7" Cut="3.2141616940498352e-01" cType="1" res="4.2507160454988480e-02" rms="3.6059853434562683e-01" purity="5.3179126977920532e-01" nType="0">
          <Node pos="l" depth="2" NCoef="0" IVar="-1" Cut="0.0000000000000000e+00" cType="1" res="1.4042573049664497e-02" rms="3.6093348264694214e-01" purity="5.2131652832031250e-01" nType="-99"/>
          <Node pos="r" depth="2" NCoef="0" IVar="-1" Cut="0.0000000000000000e+00" cType="1" res="8.1051617860794067e-02" rms="3.5665211081504822e-01" purity="5.4490262269973755e-01" nType="-99"/>
        </Node>
      </Node>
    </BinaryTree>
    <BinaryTree type="DecisionTree" boostWeight="1.0000000000000000e+00" itree="30">
      <Node pos="s" depth="0" NCoef="0" IVar="1" Cut="3.1743715286254883e+01" cType="1" res="-5.0740204751491547e-03" rms="3.8937160372734070e-01" purity="4.9843478202819824e-01" nType="0">
        <Node pos="l" depth="1" NCoef="0" IVar="2" Cut="2.1044437885284424e+00" cType="1" res="-1.5511549077928066e-02" rms="3.8153666257858276e-01" purity="3.2048636674880981e-01" nType="0">
          <Node pos="l" depth="2" NCoef="0" IVar="-1" Cut="0.0000000000000000e+00" cType="1" res="1.2332608923316002e-02" rms="3.8552033901214600e-01" purity="3.4299108386039734e-01" nType="-99"/>
          <Node pos="r" depth="2" NCoef="0" IVar="-1" Cut="0.0000000000000000e+00" cType="1" res="-4.2119935154914856e-02" rms="3.7602210044860840e-01" purity="3.0009785294532776e-01" nType="-99"/>
        </Node>
        <Node pos="r" depth="1" NCoef="0" IVar="2" Cut="2.4345846176147461e+00" cType="1" res="8.6968578398227692e-03" rms="3.9905619621276855e-01" purity="7.3321306705474854e-01" nType="0">
          <Node pos="l" depth="2" NCoef="0" IVar="-1" Cut="0.0000000000000000e+00" cType="1" res="-5.7177906855940819e-03" rms="4.2040640115737915e-01" purity="6.9703656435012817e-01" nType="-99"/>
          <Node pos="r" depth="2" NCoef="0" IVar="-1" Cut="0.0000000000000000e+00" cType="1" res="3.8886353373527527e-02" rms="3.5187512636184692e-01" purity="8.0349057912826538e-01" nType="-99"/>
        </Node>
      </Node>
    </BinaryTree>
    <BinaryTree type="DecisionTree" boostWeight="1.0000000000000000e+00" itree="31">
      <Node pos="s" depth="0" NCoef="0" IVar="5" Cut="6.9593912363052368e-01" cType="1" res="5.3568314760923386e-03" rms="3.8636377453804016e-01" purity="5.0024539232254028e-01" nType="0">
        <Node pos="l" depth="1" NCoef="0" IVar="-1" Cut="0.0000000000000000e+00" cType="1" res="-3.8233570754528046e-02" rms="3.1134003400802612e-01" purity="1.6147112846374512e-01" nType="-99"/>
        <Node pos="r" depth="1" NCoef="0" IVar="1" Cut="2.3762701034545898e+01" cType="1" res="7.8340778127312660e-03" rms="3.9174786210060120e-01" purity="5.2788597345352173e-01" nType="0">
          <Node pos="l" depth="2" NCoef="0" IVar="-1" Cut="0.0000000000000000e+00" cType="1" res="-7.2173471562564373e-03" rms="3.6215844750404358e-01" purity="2.8832536935806274e-01" nType="-99"/>
          <Node pos="r" depth="2" NCoef="0" IVar="-1" Cut="0.0000000000000000e+00" cType="1" res="1.1196919716894627e-02" rms="4.0226352214813232e-01" purity="6.1872899532318115e-01" nType="-99"/>
        </Node>
      </Node>
    </BinaryTree>
    <BinaryTree type="DecisionTree" boostWeight="1.0000000000000000e+00" itree="32">
      <Node pos="s" depth="0" NCoef="0" IVar="5" Cut="2.4997384548187256e+00" cType="1" res="6.1243634263519198e-05" rms="3.9475944638252258e-01" purity="5.0344473123550415e-01" nType="0">
        <Node pos="l" depth="1" NCoef="0" IVar="4" Cut="2.6615142822265625e+00" cType="1" res="2.1151212975382805e-02" rms="3.8658633828163147e-01" purity="3.2871273159980774e-01" nType="0">
          <Node pos="l" depth="2" NCoef="0" IVar="-1" Cut="0.0000000000000000e+00" cType="1" res="4.4041056185960770e-02" rms="3.9631801843643188e-01" purity="3.7171080708503723e-01" nType="-99"/>
          <Node pos="r" depth="2" NCoef="0" IVar="-1" Cut="0.0000000000000000e+00" cType="1" res="-8.0431215465068817e-03" rms="3.7127029895782471e-01" purity="2.7113240957260132e-01" nType="-99"/>
        </Node>
        <Node pos="r" depth="1" NCoef="0" IVar="4" Cut="1.3506815433502197e+00" cType="1" res="-1.1499755084514618e-02" rms="3.9869561791419983e-01" purity="5.9922856092453003e-01" nType="0">
          <Node pos="l" depth="2" NCoef="0" IVar="-1" Cut="0.0000000000000000e+00" cType="1" res="6.2160319648683071e-03" rms="3.9150139689445496e-01" purity="6.3938969373703003e-01" nType="-99"/>
          <Node pos="r" depth="2" NCoef="0" IVar="-1" Cut="0.0000000000000000e+00" cType="1" res="-2.0876431837677956e-02" rms="4.0294459462165833e-01" purity="5.7239192724227905e-01" nType="-99"/>
        </Node>
      </Node>
    </BinaryTree>
    <BinaryTree type="DecisionTree" boostWeight="1.0000000000000000e+00" itree="33">
      <Node pos="s" depth="0" NCoef="0" IVar="3" Cut="2.3239631652832031e+02" cType="1" res="7.4821156449615955e-03" rms="3.9840981364250183e-01" purity="5.1107656955718994e-01" nType="0">
        <Node pos="l" depth="1" NCoef="0" IVar="4" Cut="8.8635116815567017e-01" cType="1" res="1.4240599237382412e-02" rms="4.0643602609634399e-01" purity="4.7833409905433655e-01" nType="0">
          <Node pos="l" depth="2" NCoef="0" IVar="-1" Cut="0.0000000000000000e+00" cType="1" res="-1.3275025412440300e-02" rms="4.1968020796775818e-01" purity="4.6040350198745728e-01" nType="-99"/>
          <Node pos="r" depth="2" NCoef="0" IVar="-1" Cut="0.0000000000000000e+00" cType="1" res="2.0413734018802643e-02" rms="4.0185067057609558e-01" purity="4.8381575942039490e-01" nType="-99"/>
        </Node>
        <Node pos="r" depth="1" NCoef="0" IVar="7" Cut="2.9186883568763733e-01" cType="1" res="-1.3816468417644501e-02" rms="3.7118095159530640e-01" purity="6.1426067352294922e-01" nType="0">
          <Node pos="l" depth="2" NCoef="0" IVar="-1" Cut="0.0000000000000000e+00" cType="1" res="-9.3152895569801331e-02" rms="3.9689013361930847e-01" purity="5.8585065603256226e-01" nType="-99"/>
          <Node pos="r" depth="2" NCoef="0" IVar="-1" Cut="0.0000000000000000e+00" cType="1" res="4.2618319392204285e-02" rms="3.3975014090538025e-01" purity="6.3730615377426147e-01" nType="-99"/>
        </Node>
      </Node>
    </BinaryTree>
    <BinaryTree type="DecisionTree" boostWeight="1.0000000000000000e+00" itree="34">
      <Node pos="s" depth="0" NCoef="0" IVar="3" Cut="1.7673205566406250e+02" cType="1" res="-8.1588951870799065e-03" rms="3.8910955190658569e-01" purity="4.9210914969444275e-01" nType="0">
        <Node pos="l" depth="1" NCoef="0" IVar="0" Cut="8.7805648803710938e+01" cType="1" res="-2.0511273294687271e-02" rms="3.9997181296348572e-01" purity="4.1780957579612732e-01" nType="0">
          <Node pos="l" depth="2" NCoef="0" IVar="-1" Cut="0.0000000000000000e+00" cType="1" res="-2.7337152510881424e-02" rms="4.0892288088798523e-01" purity="3.4586179256439209e-01" nType="-99"/>
          <Node pos="r" depth="2" NCoef="0" IVar="-1" Cut="0.0000000000000000e+00" cType="1" res="3.9617978036403656e-02" rms="3.3258879184722900e-01" purity="8.5906833410263062e-01" nType="-99"/>
        </Node>
        <Node pos="r" depth="1" NCoef="0" IVar="4" Cut="3.3581063747406006e+00" cType="1" res="1.4972622506320477e-02" rms="3.6678966879844666e-01" purity="6.3124531507492065e-01" nType="0">
          <Node pos="l" depth="2" NCoef="0" IVar="-1" Cut="0.0000000000000000e+00" cType="1" res="2.6017617434263229e-02" rms="3.5897299647331238e-01" purity="6.7021632194519043e-01" nType="-99"/>
          <Node pos="r" depth="2" NCoef="0" IVar="-1" Cut="0.0000000000000000e+00" cType="1" res="-2.5921860709786415e-02" rms="3.9494886994361877e-01" purity="4.6878525614738464e-01" nType="-99"/>
        </Node>
      </Node>
    </BinaryTree>
    <BinaryTree type="DecisionTree" boostWeight="1.0000000000000000e+00" itree="35">
      <Node pos="s" depth="0" NCoef="0" IVar="5" Cut="6.9573247432708740e-01" cType="1" res="2.3659463040530682e-03" rms="3.8965690135955811e-01" purity="4.9827304482460022e-01" nType="0">
        <Node pos="l" depth="1" NCoef="0" IVar="-1" Cut="0.0000000000000000e+00" cType="1" res="-5.8113388717174530e-02" rms="3.0201113224029541e-01" purity="1.4336284995079041e-01" nType="-99"/>
        <Node pos="r" depth="1" NCoef="0" IVar="1" Cut="3.1743715286254883e+01" cType="1" res="5.5970801040530205e-03" rms="3.9570885896682739e-01" purity="5.2691787481307983e-01" nType="0">
          <Node pos="l" depth="2" NCoef="0" IVar="-1" Cut="0.0000000000000000e+00" cType="1" res="-3.5297435242682695e-03" rms="4.0254583954811096e-01" purity="3.5324993729591370e-01" nType="-99"/>
          <Node pos="r" depth="2" NCoef="0" IVar="-1" Cut="0.0000000000000000e+00" cType="1" res="1.5851046890020370e-02" rms="3.8610103726387024e-01" purity="7.5719404220581055e-01" nType="-99"/>
        </Node>
      </Node>
    </BinaryTree>
    <BinaryTree type="DecisionTree" boostWeight="1.0000000000000000e+00" itree="36">
      <Node pos="s" depth="0" NCoef="0" IVar="3" Cut="2.3135093688964844e+02" cType="1" res="7.6594743877649307e-03" rms="3.8757249712944031e-01" purity="5.0735527276992798e-01" nType="0">
        <Node pos="l" depth="1" NCoef="0" IVar="0" Cut="7.8260765075683594e+01" cType="1" res="1.4701823703944683e-02" rms="3.9514040946960449e-01" purity="4.7413012385368347e-01" nType="0">
          <Node pos="l" depth="2" NCoef="0" IVar="-1" Cut="0.0000000000000000e+00" cType="1" res="7.5817895121872425e-03" rms="4.1134393215179443e-01" purity="3.7421202659606934e-01" nType="-99"/>
          <Node pos="r" depth="2" NCoef="0" IVar="-1" Cut="0.0000000000000000e+00" cType="1" res="3.6742001771926880e-02" rms="3.2162624597549438e-01" purity="8.7158834934234619e-01" nType="-99"/>
        </Node>
        <Node pos="r" depth="1" NCoef="0" IVar="7" Cut="2.2184361517429352e-01" cType="1" res="-1.4458451420068741e-02" rms="3.6188879609107971e-01" purity="6.1170572042465210e-01" nType="0">
          <Node pos="l" depth="2" NCoef="0" IVar="-1" Cut="0.0000000000000000e+00" cType="1" res="-1.2882009148597717e-01" rms="4.2621642351150513e-01" purity="5.7197707891464233e-01" nType="-99"/>
          <Node pos="r" depth="2" NCoef="0" IVar="-1" Cut="0.0000000000000000e+00" cType="1" res="1.9992664456367493e-02" rms="3.3177778124809265e-01" purity="6.2462383508682251e-01" nType="-99"/>
        </Node>
      </Node>
    </BinaryTree>
    <BinaryTree type="DecisionTree" boostWeight="1.0000000000000000e+00" itree="37">
      <Node pos="s" depth="0" NCoef="0" IVar="0" Cut="4.6891437530517578e+01" cType="1" res="-2.2921169875189662e-04" rms="3.9328002929687500e-01" purity="4.9730253219604492e-01" nType="0">
        <Node pos="l" depth="1" NCoef="0" IVar="6" Cut="6.1741161346435547e-01" cType="1" res="1.1267405934631824e-02" rms="3.9114984869956970e-01" purity="2.4386468529701233e-01" nType="0">
          <Node pos="l" depth="2" NCoef="0" IVar="-1" Cut="0.0000000000000000e+00" cType="1" res="5.7447422295808792e-02" rms="4.2154932022094727e-01" purity="3.0696648359298706e-01" nType="-99"/>
          <Node pos="r" depth="2" NCoef="0" IVar="-1" Cut="0.0000000000000000e+00" cType="1" res="-8.0960802733898163e-02" rms="3.1691202521324158e-01" purity="1.3742169737815857e-01" nType="-99"/>
        </Node>
        <Node pos="r" depth="1" NCoef="0" IVar="4" Cut="7.9153215885162354e-01" cType="1" res="-1.2653992511332035e-02" rms="3.9519342780113220e-01" purity="7.7120137214660645e-01" nType="0">
          <Node pos="l" depth="2" NCoef="0" IVar="-1" Cut="0.0000000000000000e+00" cType="1" res="-4.1460938751697540e-02" rms="4.2676913738250732e-01" purity="7.0873105525970459e-01" nType="-99"/>
          <Node pos="r" depth="2" NCoef="0" IVar="-1" Cut="0.0000000000000000e+00" cType="1" res="-1.7399620264768600e-03" rms="3.8493850827217102e-01" purity="7.8923332691192627e-01" nType="-99"/>
        </Node>
      </Node>
    </BinaryTree>
    <BinaryTree type="DecisionTree" boostWeight="1.0000000000000000e+00" itree="38">
      <Node pos="s" depth="0" NCoef="0" IVar="2" Cut="1.3236008882522583e+00" cType="1" res="-1.5509343938902020e-03" rms="3.8295179605484009e-01" purity="5.0109362602233887e-01" nType="0">
        <Node pos="l" depth="1" NCoef="0" IVar="4" Cut="1.3609402179718018e+00" cType="1" res="1.1361933313310146e-02" rms="3.9693644642829895e-01" purity="5.4025262594223022e-01" nType="0">
          <Node pos="l" depth="2" NCoef="0" IVar="-1" Cut="0.0000000000000000e+00" cType="1" res="-2.7219275012612343e-02" rms="4.1698437929153442e-01" purity="4.9742665886878967e-01" nType="-99"/>
          <Node pos="r" depth="2" NCoef="0" IVar="-1" Cut="0.0000000000000000e+00" cType="1" res="2.9325244948267937e-02" rms="3.8451689481735229e-01" purity="5.6201136112213135e-01" nType="-99"/>
        </Node>
        <Node pos="r" depth="1" NCoef="0" IVar="1" Cut="2.7863710403442383e+01" cType="1" res="-8.8988803327083588e-03" rms="3.7456238269805908e-01" purity="4.7881054878234863e-01" nType="0">
          <Node pos="l" depth="2" NCoef="0" IVar="-1" Cut="0.0000000000000000e+00" cType="1" res="-2.9079735279083252e-02" rms="3.6762577295303345e-01" purity="2.6820167899131775e-01" nType="-99"/>
          <Node pos="r" depth="2" NCoef="0" IVar="-1" Cut="0.0000000000000000e+00" cType="1" res="6.4039593562483788e-03" rms="3.7997901439666748e-01" purity="6.6834509372711182e-01" nType="-99"/>
        </Node>
      </Node>
    </BinaryTree>
    <BinaryTree type="DecisionTree" boostWeight="1.0000000000000000e+00" itree="39">
      <Node pos="s" depth="0" NCoef="0" IVar="0" Cut="4.6809959411621094e+01" cType="1" res="3.4214786719530821e-03" rms="3.8990342617034912e-01" purity="5.0463217496871948e-01" nType="0">
        <Node pos="l" depth="1" NCoef="0" IVar="0" Cut="2.7337194442749023e+01" cType="1" res="1.2763760983943939e-02" rms="3.8889762759208679e-01" purity="2.4784362316131592e-01" nType="0">
          <Node pos="l" depth="2" NCoef="0" IVar="-1" Cut="0.0000000000000000e+00" cType="1" res="-2.8941126540303230e-02" rms="2.8566762804985046e-01" purity="9.4921365380287170e-02" nType="-99"/>
          <Node pos="r" depth="2" NCoef="0" IVar="-1" Cut="0.0000000000000000e+00" cType="1" res="2.3904217407107353e-02" rms="4.3529519438743591e-01" purity="3.3341598510742188e-01" nType="-99"/>
        </Node>
        <Node pos="r" depth="1" NCoef="0" IVar="2" Cut="2.0718626976013184e+00" cType="1" res="-6.4556882716715336e-03" rms="3.9072117209434509e-01" purity="7.7612304687500000e-01" nType="0">
          <Node pos="l" depth="2" NCoef="0" IVar="-1" Cut="0.0000000000000000e+00" cType="1" res="7.5400350615382195e-03" rms="3.9793536067008972e-01" purity="7.7081269025802612e-01" nType="-99"/>
          <Node pos="r" depth="2" NCoef="0" IVar="-1" Cut="0.0000000000000000e+00" cType="1" res="-2.6840481907129288e-02" rms="3.7992978096008301e-01" purity="7.8316634893417358e-01" nType="-99"/>
        </Node>
      </Node>
    </BinaryTree>
    <BinaryTree type="DecisionTree" boostWeight="1.0000000000000000e+00" itree="40">
      <Node pos="s" depth="0" NCoef="0" IVar="2" Cut="3.9673440456390381e+00" cType="1" res="-2.4691473226994276e-03" rms="3.8788148760795593e-01" purity="4.9918758869171143e-01" nType="0">
        <Node pos="l" depth="1" NCoef="0" IVar="1" Cut="2.8613182067871094e+01" cType="1" res="-8.2510560750961304e-03" rms="3.9379733800888062e-01" purity="4.9954757094383240e-01" nType="0">
          <Node pos="l" depth="2" NCoef="0" IVar="-1" Cut="0.0000000000000000e+00" cType="1" res="5.9564081020653248e-03" rms="3.7142956256866455e-01" purity="3.0012789368629456e-01" nType="-99"/>
          <Node pos="r" depth="2" NCoef="0" IVar="-1" Cut="0.0000000000000000e+00" cType="1" res="-1.5234057791531086e-02" rms="4.0901583433151245e-01" purity="6.4479458332061768e-01" nType="-99"/>
        </Node>
        <Node pos="r" depth="1" NCoef="0" IVar="6" Cut="5.0243127346038818e-01" cType="1" res="2.0575396716594696e-02" rms="3.6243215203285217e-01" purity="4.9775287508964539e-01" nType="0">
          <Node pos="l" depth="2" NCoef="0" IVar="-1" Cut="0.0000000000000000e+00" cType="1" res="4.3750867247581482e-02" rms="3.7609934806823730e-01" purity="6.7543226480484009e-01" nType="-99"/>
          <Node pos="r" depth="2" NCoef="0" IVar="-1" Cut="0.0000000000000000e+00" cType="1" res="-1.9776616245508194e-02" rms="3.3525666594505310e-01" purity="2.0252032577991486e-01" nType="-99"/>
        </Node>
      </Node>
    </BinaryTree>
    <BinaryTree type="DecisionTree" boostWeight="1.0000000000000000e+00" itree="41">
      <Node pos="s" depth="0" NCoef="0" IVar="5" Cut="2.6384663581848145e+00" cType="1" res="1.4680380700156093e-03" rms="3.9285615086555481e-01" purity="4.9803411960601807e-01" nType="0">
        <Node pos="l" depth="1" NCoef="0" IVar="4" Cut="2.2495348453521729e+00" cType="1" res="1.5731832012534142e-02" rms="3.7742111086845398e-01" purity="3.5574203729629517e-01" nType="0">
          <Node pos="l" depth="2" NCoef="0" IVar="-1" Cut="0.0000000000000000e+00" cType="1" res="3.0778771266341209e-02" rms="3.8112556934356689e-01" purity="3.9852115511894226e-01" nType="-99"/>
          <Node pos="r" depth="2" NCoef="0" IVar="-1" Cut="0.0000000000000000e+00" cType="1" res="1.4760164776816964e-03" rms="3.7309747934341431e-01" purity="3.1258428096771240e-01" nType="-99"/>
        </Node>
        <Node pos="r" depth="1" NCoef="0" IVar="4" Cut="3.0294334888458252e+00" cType="1" res="-7.7851391397416592e-03" rms="4.0228238701820374e-01" purity="5.9034150838851929e-01" nType="0">
          <Node pos="l" depth="2" NCoef="0" IVar="-1" Cut="0.0000000000000000e+00" cType="1" res="9.2566671082749963e-04" rms="4.0222373604774475e-01" purity="6.3243108987808228e-01" nType="-99"/>
          <Node pos="r" depth="2" NCoef="0" IVar="-1" Cut="0.0000000000000000e+00" cType="1" res="-2.8808591887354851e-02" rms="4.0132185816764832e-01" purity="4.6615558862686157e-01" nType="-99"/>
        </Node>
      </Node>
    </BinaryTree>
    <BinaryTree type="DecisionTree" boostWeight="1.0000000000000000e+00" itree="42">
      <Node pos="s" depth="0" NCoef="0" IVar="1" Cut="4.8480487823486328e+01" cType="1" res="-1.4836065471172333e-02" rms="3.8953617215156555e-01" purity="4.8116216063499451e-01" nType="0">
        <Node pos="l" depth="1" NCoef="0" IVar="1" Cut="2.9343400955200195e+01" cType="1" res="-1.8492378294467926e-02" rms="3.9884808659553528e-01" purity="4.1520312428474426e-01" nType="0">
          <Node pos="l" depth="2" NCoef="0" IVar="-1" Cut="0.0000000000000000e+00" cType="1" res="-8.6298370733857155e-03" rms="3.7667223811149597e-01" purity="2.9686164855957031e-01" nType="-99"/>
          <Node pos="r" depth="2" NCoef="0" IVar="-1" Cut="0.0000000000000000e+00" cType="1" res="-2.5395231321454048e-02" rms="4.2868751287460327e-01" purity="5.8757692575454712e-01" nType="-99"/>
        </Node>
        <Node pos="r" depth="1" NCoef="0" IVar="3" Cut="1.9883757019042969e+02" cType="1" res="6.9243749603629112e-03" rms="3.2786196470260620e-01" purity="8.7371551990509033e-01" nType="0">
          <Node pos="l" depth="2" NCoef="0" IVar="-1" Cut="0.0000000000000000e+00" cType="1" res="2.4715758860111237e-02" rms="3.4926876425743103e-01" purity="8.5471844673156738e-01" nType="-99"/>
          <Node pos="r" depth="2" NCoef="0" IVar="-1" Cut="0.0000000000000000e+00" cType="1" res="-2.1866472437977791e-02" rms="3.0142474174499512e-01" purity="8.9442330598831177e-01" nType="-99"/>
        </Node>
      </Node>
    </BinaryTree>
    <BinaryTree type="DecisionTree" boostWeight="1.0000000000000000e+00" itree="43">
      <Node pos="s" depth="0" NCoef="0" IVar="2" Cut="4.4139638543128967e-01" cType="1" res="2.7281574439257383e-03" rms="3.8631063699722290e-01" purity="5.0325614213943481e-01" nType="0">
        <Node pos="l" depth="1" NCoef="0" IVar="4" Cut="1.8140870332717896e+00" cType="1" res="-2.5912633165717125e-02" rms="4.0718591213226318e-01" purity="4.9289357662200928e-01" nType="0">
          <Node pos="l" depth="2" NCoef="0" IVar="-1" Cut="0.0000000000000000e+00" cType="1" res="-6.2664732336997986e-02" rms="4.1824471950531006e-01" purity="4.3309283256530762e-01" nType="-99"/>
          <Node pos="r" depth="2" NCoef="0" IVar="-1" Cut="0.0000000000000000e+00" cType="1" res="1.0814944282174110e-02" rms="3.9351689815521240e-01" purity="5.4373782873153687e-01" nType="-99"/>
        </Node>
        <Node pos="r" depth="1" NCoef="0" IVar="4" Cut="4.4411471486091614e-01" cType="1" res="6.4494744874536991e-03" rms="3.8335785269737244e-01" purity="5.0460261106491089e-01" nType="0">
          <Node pos="l" depth="2" NCoef="0" IVar="-1" Cut="0.0000000000000000e+00" cType="1" res="3.6283873021602631e-02" rms="4.1064295172691345e-01" purity="5.6651192903518677e-01" nType="-99"/>
          <Node pos="r" depth="2" NCoef="0" IVar="-1" Cut="0.0000000000000000e+00" cType="1" res="1.8145017093047500e-03" rms="3.7917542457580566e-01" purity="4.9596551060676575e-01" nType="-99"/>
        </Node>
      </Node>
    </BinaryTree>
    <BinaryTree type="DecisionTree" boostWeight="1.0000000000000000e+00" itree="44">
      <Node pos="s" depth="0" NCoef="0" IVar="4" Cut="3.9881641864776611e+00" cType="1" res="1.4528806321322918e-02" rms="3.8684931397438049e-01" purity="5.1205354928970337e-01" nType="0">
        <Node pos="l" depth="1" NCoef="0" IVar="2" Cut="5.2895746231079102e+00" cType="1" res="8.9682014659047127e-03" rms="3.8417911529541016e-01" purity="5.3270494937896729e-01" nType="0">
          <Node pos="l" depth="2" NCoef="0" IVar="-1" Cut="0.0000000000000000e+00" cType="1" res="3.6491290666162968e-03" rms="3.9025175571441650e-01" purity="5.2768820524215698e-01" nType="-99"/>
          <Node pos="r" depth="2" NCoef="0" IVar="-1" Cut="0.0000000000000000e+00" cType="1" res="5.2190802991390228e-02" rms="3.3316752314567566e-01" purity="5.7011616230010986e-01" nType="-99"/>
        </Node>
        <Node pos="r" depth="1" NCoef="0" IVar="4" Cut="4.7483868598937988e+00" cType="1" res="4.0810853242874146e-02" rms="3.9817878603935242e-01" purity="4.1444531083106995e-01" nType="0">
          <Node pos="l" depth="2" NCoef="0" IVar="-1" Cut="0.0000000000000000e+00" cType="1" res="6.3293583691120148e-02" rms="3.8913589715957642e-01" purity="4.8549857735633850e-01" nType="-99"/>
          <Node pos="r" depth="2" NCoef="0" IVar="-1" Cut="0.0000000000000000e+00" cType="1" res="1.5807548537850380e-02" rms="4.0358099341392517e-01" purity="3.5824790596961975e-01" nType="-99"/>
        </Node>
      </Node>
    </BinaryTree>
    <BinaryTree type="DecisionTree" boostWeight="1.0000000000000000e+00" itree="45">
      <Node pos="s" depth="0" NCoef="0" IVar="2" Cut="1.7333185672760010e+00" cType="1" res="-1.3520728098228574e-03" rms="3.8646048307418823e-01" purity="4.9949851632118225e-01" nType="0">
        <Node pos="l" depth="1" NCoef="0" IVar="0" Cut="4.8581394195556641e+01" cType="1" res="-1.8201591446995735e-02" rms="3.9449670910835266e-01" purity="4.9971300363540649e-01" nType="0">
          <Node pos="l" depth="2" NCoef="0" IVar="-1" Cut="0.0000000000000000e+00" cType="1" res="-4.0790267288684845e-02" rms="3.8133108615875244e-01" purity="2.1529540419578552e-01" nType="-99"/>
          <Node pos="r" depth="2" NCoef="0" IVar="-1" Cut="0.0000000000000000e+00" cType="1" res="3.3735858742147684e-03" rms="4.0509071946144104e-01" purity="7.6464945077896118e-01" nType="-99"/>
        </Node>
        <Node pos="r" depth="1" NCoef="0" IVar="7" Cut="3.7506982684135437e-01" cType="1" res="1.1832029558718204e-02" rms="3.7953266501426697e-01" purity="4.9933061003684998e-01" nType="0">
          <Node pos="l" depth="2" NCoef="0" IVar="-1" Cut="0.0000000000000000e+00" cType="1" res="-1.9863966852426529e-02" rms="3.7138450145721436e-01" purity="4.5787051320075989e-01" nType="-99"/>
          <Node pos="r" depth="2" NCoef="0" IVar="-1" Cut="0.0000000000000000e+00" cType="1" res="7.7319949865341187e-02" rms="3.8838356733322144e-01" purity="6.0151451826095581e-01" nType="-99"/>
        </Node>
      </Node>
    </BinaryTree>
    <BinaryTree type="DecisionTree" boostWeight="1.0000000000000000e+00" itree="46">
      <Node pos="s" depth="0" NCoef="0" IVar="5" Cut="2.0834770202636719e+00" cType="1" res="2.4700658395886421e-03" rms="3.8967674970626831e-01" purity="4.9768406152725220e-01" nType="0">
        <Node pos="l" depth="1" NCoef="0" IVar="5" Cut="9.9157220125198364e-01" cType="1" res="-1.5256877988576889e-02" rms="3.6956462264060974e-01" purity="2.5071382522583008e-01" nType="0">
          <Node pos="l" depth="2" NCoef="0" IVar="-1" Cut="0.0000000000000000e+00" cType="1" res="1.6829825937747955e-02" rms="3.6125481128692627e-01" purity="2.2921982407569885e-01" nType="-99"/>
          <Node pos="r" depth="2" NCoef="0" IVar="-1" Cut="0.0000000000000000e+00" cType="1" res="-4.0087070316076279e-02" rms="3.7456613779067993e-01" purity="2.6757135987281799e-01" nType="-99"/>
        </Node>
        <Node pos="r" depth="1" NCoef="0" IVar="4" Cut="1.3506815433502197e+00" cType="1" res="8.8167199864983559e-03" rms="3.9643687009811401e-01" purity="5.8610516786575317e-01" nType="0">
          <Node pos="l" depth="2" NCoef="0" IVar="-1" Cut="0.0000000000000000e+00" cType="1" res="2.6356475427746773e-02" rms="3.9549583196640015e-01" purity="6.2458503246307373e-01" nType="-99"/>
          <Node pos="r" depth="2" NCoef="0" IVar="-1" Cut="0.0000000000000000e+00" cType="1" res="-4.8714848235249519e-03" rms="3.9637425541877747e-01" purity="5.6150817871093750e-01" nType="-99"/>
        </Node>
      </Node>
    </BinaryTree>
    <BinaryTree type="DecisionTree" boostWeight="1.0000000000000000e+00" itree="47">
      <Node pos="s" depth="0" NCoef="0" IVar="4" Cut="1.8018660545349121e+00" cType="1" res="2.6479382067918777e-03" rms="3.8186618685722351e-01" purity="5.0456726551055908e-01" nType="0">
        <Node pos="l" depth="1" NCoef="0" IVar="2" Cut="3.0220856666564941e+00" cType="1" res="1.5266530215740204e-02" rms="3.7636780738830566e-01" purity="5.5734992027282715e-01" nType="0">
          <Node pos="l" depth="2" NCoef="0" IVar="-1" Cut="0.0000000000000000e+00" cType="1" res="3.0486586038023233e-03" rms="3.8993266224861145e-01" purity="5.2926337718963623e-01" nType="-99"/>
          <Node pos="r" depth="2" NCoef="0" IVar="-1" Cut="0.0000000000000000e+00" cType="1" res="4.2391888797283173e-02" rms="3.4226438403129578e-01" purity="6.2080407142639160e-01" nType="-99"/>
        </Node>
        <Node pos="r" depth="1" NCoef="0" IVar="1" Cut="2.3386625289916992e+01" cType="1" res="-8.6597139015793800e-03" rms="3.8637697696685791e-01" purity="4.5726808905601501e-01" nType="0">
          <Node pos="l" depth="2" NCoef="0" IVar="-1" Cut="0.0000000000000000e+00" cType="1" res="2.3790352046489716e-02" rms="3.5901501774787903e-01" purity="2.4542830884456635e-01" nType="-99"/>
          <Node pos="r" depth="2" NCoef="0" IVar="-1" Cut="0.0000000000000000e+00" cType="1" res="-1.7742775380611420e-02" rms="3.9657711982727051e-01" purity="5.4477268457412720e-01" nType="-99"/>
        </Node>
      </Node>
    </BinaryTree>
    <BinaryTree type="DecisionTree" boostWeight="1.0000000000000000e+00" itree="48">
      <Node pos="s" depth="0" NCoef="0" IVar="2" Cut="8.8213986158370972e-01" cType="1" res="-1.5239373315125704e-03" rms="3.8807445764541626e-01" purity="4.9990487098693848e-01" nType="0">
        <Node pos="l" depth="1" NCoef="0" IVar="3" Cut="6.2129711151123047e+01" cType="1" res="1.3191156089305878e-02" rms="4.0060758590698242e-01" purity="5.2440929412841797e-01" nType="0">
          <Node pos="l" depth="2" NCoef="0" IVar="-1" Cut="0.0000000000000000e+00" cType="1" res="3.9644010365009308e-02" rms="3.9295041561126709e-01" purity="4.3197861313819885e-01" nType="-99"/>
          <Node pos="r" depth="2" NCoef="0" IVar="-1" Cut="0.0000000000000000e+00" cType="1" res="-2.9047187417745590e-02" rms="4.0730434656143188e-01" purity="6.6252315044403076e-01" nType="-99"/>
        </Node>
        <Node pos="r" depth="1" NCoef="0" IVar="0" Cut="2.9563272476196289e+01" cType="1" res="-6.3391234725713730e-03" rms="3.8376191258430481e-01" purity="4.9188631772994995e-01" nType="0">
          <Node pos="l" depth="2" NCoef="0" IVar="-1" Cut="0.0000000000000000e+00" cType="1" res="-3.1701084226369858e-02" rms="2.9900181293487549e-01" purity="1.0885757952928543e-01" nType="-99"/>
          <Node pos="r" depth="2" NCoef="0" IVar="-1" Cut="0.0000000000000000e+00" cType="1" res="-1.4145361492410302e-03" rms="4.0854650735855103e-01" purity="6.2241971492767334e-01" nType="-99"/>
        </Node>
      </Node>
    </BinaryTree>
    <BinaryTree type="DecisionTree" boostWeight="1.0000000000000000e+00" itree="49">
      <Node pos="s" depth="0" NCoef="0" IVar="2" Cut="5.7303180694580078e+00" cType="1" res="-1.6157114878296852e-02" rms="3.8899004459381104e-01" purity="4.8601242899894714e-01" nType="0">
        <Node pos="l" depth="1" NCoef="0" IVar="4" Cut="4.5060682296752930e-01" cType="1" res="-1.2712545692920685e-02" rms="3.9451190829277039e-01" purity="4.8887211084365845e-01" nType="0">
          <Node pos="l" depth="2" NCoef="0" IVar="-1" Cut="0.0000000000000000e+00" cType="1" res="-4.4867374002933502e-02" rms="4.0883079171180725e-01" purity="4.6346205472946167e-01" nType="-99"/>
          <Node pos="r" depth="2" NCoef="0" IVar="-1" Cut="0.0000000000000000e+00" cType="1" res="-7.5878188945353031e-03" rms="3.9241328835487366e-01" purity="4.9212038516998291e-01" nType="-99"/>
        </Node>
        <Node pos="r" depth="1" NCoef="0" IVar="-1" Cut="0.0000000000000000e+00" cType="1" res="-6.4739570021629333e-02" rms="3.1759724020957947e-01" purity="4.5375561714172363e-01" nType="-99"/>
      </Node>
    </BinaryTree>
    <BinaryTree type="DecisionTree" boostWeight="1.0000000000000000e+00" itree="50">
      <Node pos="s" depth="0" NCoef="0" IVar="1" Cut="2.3373485565185547e+01" cType="1" res="4.4594397768378258e-03" rms="3.8448151946067810e-01" purity="5.0486910343170166e-01" nType="0">
        <Node pos="l" depth="1" NCoef="0" IVar="6" Cut="5.1160126924514771e-01" cType="1" res="-1.7198156565427780e-02" rms="3.3520382642745972e-01" purity="2.4427242577075958e-01" nType="0">
          <Node pos="l" depth="2" NCoef="0" IVar="-1" Cut="0.0000000000000000e+00" cType="1" res="3.9366237819194794e-02" rms="3.8381066918373108e-01" purity="3.1911346316337585e-01" nType="-99"/>
          <Node pos="r" depth="2" NCoef="0" IVar="-1" Cut="0.0000000000000000e+00" cType="1" res="-5.3540274500846863e-02" rms="3.0704018473625183e-01" purity="2.0970474183559418e-01" nType="-99"/>
        </Node>
        <Node pos="r" depth="1" NCoef="0" IVar="0" Cut="5.4559886932373047e+01" cType="1" res="1.1841070838272572e-02" rms="3.9962375164031982e-01" purity="5.9368920326232910e-01" nType="0">
          <Node pos="l" depth="2" NCoef="0" IVar="-1" Cut="0.0000000000000000e+00" cType="1" res="1.9362997263669968e-02" rms="4.3019491434097290e-01" purity="3.7820127606391907e-01" nType="-99"/>
          <Node pos="r" depth="2" NCoef="0" IVar="-1" Cut="0.0000000000000000e+00" cType="1" res="-6.2840158352628350e-04" rms="3.6534845829010010e-01" purity="8.1377798318862915e-01" nType="-99"/>
        </Node>
      </Node>
    </BinaryTree>
    <BinaryTree type="DecisionTree" boostWeight="1.0000000000000000e+00" itree="51">
      <Node pos="s" depth="0" NCoef="0" IVar="2" Cut="8.8239246606826782e-01" cType="1" res="6.8681995617225766e-04" rms="3.9021739363670349e-01" purity="5.0248128175735474e-01" nType="0">
        <Node pos="l" depth="1" NCoef="0" IVar="2" Cut="5.4636698961257935e-01" cType="1" res="-1.4313221909105778e-02" rms="3.9865320920944214e-01" purity="4.9508491158485413e-01" nType="0">
          <Node pos="l" depth="2" NCoef="0" IVar="-1" Cut="0.0000000000000000e+00" cType="1" res="-2.0570693595800549e-04" rms="3.7973788380622864e-01" purity="5.0988072156906128e-01" nType="-99"/>
          <Node pos="r" depth="2" NCoef="0" IVar="-1" Cut="0.0000000000000000e+00" cType="1" res="-3.3938564360141754e-02" rms="4.2701649665832520e-01" purity="4.7068125009536743e-01" nType="-99"/>
        </Node>
        <Node pos="r" depth="1" NCoef="0" IVar="4" Cut="4.5079240202903748e-01" cType="1" res="5.5859643034636974e-03" rms="3.8729655742645264e-01" purity="5.0489699840545654e-01" nType="0">
          <Node pos="l" depth="2" NCoef="0" IVar="-1" Cut="0.0000000000000000e+00" cType="1" res="2.5028688833117485e-02" rms="4.0403124690055847e-01" purity="5.7195699214935303e-01" nType="-99"/>
          <Node pos="r" depth="2" NCoef="0" IVar="-1" Cut="0.0000000000000000e+00" cType="1" res="2.1191767882555723e-03" rms="3.8454046845436096e-01" purity="4.9455067515373230e-01" nType="-99"/>
        </Node>
      </Node>
    </BinaryTree>
    <BinaryTree type="DecisionTree" boostWeight="1.0000000000000000e+00" itree="52">
      <Node pos="s" depth="0" NCoef="0" IVar="1" Cut="3.1743715286254883e+01" cType="1" res="-2.6617730036377907e-03" rms="3.9059519767761230e-01" purity="4.9099045991897583e-01" nType="0">
        <Node pos="l" depth="1" NCoef="0" IVar="4" Cut="4.5028319358825684e+00" cType="1" res="6.9235209375619888e-03" rms="3.9040347933769226e-01" purity="3.2914388179779053e-01" nType="0">
          <Node pos="l" depth="2" NCoef="0" IVar="-1" Cut="0.0000000000000000e+00" cType="1" res="-1.7776878084987402e-03" rms="3.8852789998054504e-01" purity="3.3287167549133301e-01" nType="-99"/>
          <Node pos="r" depth="2" NCoef="0" IVar="-1" Cut="0.0000000000000000e+00" cType="1" res="5.9112619608640671e-02" rms="3.9720997214317322e-01" purity="3.0818906426429749e-01" nType="-99"/>
        </Node>
        <Node pos="r" depth="1" NCoef="0" IVar="4" Cut="3.5403046607971191e+00" cType="1" res="-1.5506129711866379e-02" rms="3.9048326015472412e-01" purity="7.0786595344543457e-01" nType="0">
          <Node pos="l" depth="2" NCoef="0" IVar="-1" Cut="0.0000000000000000e+00" cType="1" res="-6.4067663624882698e-03" rms="3.8693058490753174e-01" purity="7.3191934823989868e-01" nType="-99"/>
          <Node pos="r" depth="2" NCoef="0" IVar="-1" Cut="0.0000000000000000e+00" cType="1" res="-4.6859435737133026e-02" rms="4.0567624568939209e-01" purity="5.8285653591156006e-01" nType="-99"/>
        </Node>
      </Node>
    </BinaryTree>
    <BinaryTree type="DecisionTree" boostWeight="1.0000000000000000e+00" itree="53">
      <Node pos="s" depth="0" NCoef="0" IVar="2" Cut="5.7306370735168457e+00" cType="1" res="-4.9125570803880692e-03" rms="3.8555020093917847e-01" purity="4.9479699134826660e-01" nType="0">
        <Node pos="l" depth="1" NCoef="0" IVar="2" Cut="2.1823630332946777e+00" cType="1" res="-2.0530452020466328e-03" rms="3.9152327179908752e-01" purity="4.9875843524932861e-01" nType="0">
          <Node pos="l" depth="2" NCoef="0" IVar="-1" Cut="0.0000000000000000e+00" cType="1" res="-8.5771363228559494e-03" rms="4.0068849921226501e-01" purity="4.9993139505386353e-01" nType="-99"/>
          <Node pos="r" depth="2" NCoef="0" IVar="-1" Cut="0.0000000000000000e+00" cType="1" res="8.1923287361860275e-03" rms="3.7821626663208008e-01" purity="4.9713471531867981e-01" nType="-99"/>
        </Node>
        <Node pos="r" depth="1" NCoef="0" IVar="-1" Cut="0.0000000000000000e+00" cType="1" res="-4.4649265706539154e-02" rms="3.0563950538635254e-01" purity="4.4868367910385132e-01" nType="-99"/>
      </Node>
    </BinaryTree>
    <BinaryTree type="DecisionTree" boostWeight="1.0000000000000000e+00" itree="54">
      <Node pos="s" depth="0" NCoef="0" IVar="5" Cut="2.0832746028900146e+00" cType="1" res="3.5746563225984573e-03" rms="3.8373029232025146e-01" purity="4.9381065368652344e-01" nType="0">
        <Node pos="l" depth="1" NCoef="0" IVar="6" Cut="4.8583045601844788e-01" cType="1" res="-1.9568772986531258e-02" rms="3.4888249635696411e-01" purity="2.3946957290172577e-01" nType="0">
          <Node pos="l" depth="2" NCoef="0" IVar="-1" Cut="0.0000000000000000e+00" cType="1" res="3.6110285669565201e-02" rms="3.9268726110458374e-01" purity="3.9142853021621704e-01" nType="-99"/>
          <Node pos="r" depth="2" NCoef="0" IVar="-1" Cut="0.0000000000000000e+00" cType="1" res="-5.6931480765342712e-02" rms="3.2641083002090454e-01" purity="1.7720630764961243e-01" nType="-99"/>
        </Node>
        <Node pos="r" depth="1" NCoef="0" IVar="4" Cut="1.5741212368011475e+00" cType="1" res="1.1891042813658714e-02" rms="3.9517247676849365e-01" purity="5.8520585298538208e-01" nType="0">
          <Node pos="l" depth="2" NCoef="0" IVar="-1" Cut="0.0000000000000000e+00" cType="1" res="1.2382583227008581e-03" rms="3.9240834116935730e-01" purity="6.0529762506484985e-01" nType="-99"/>
          <Node pos="r" depth="2" NCoef="0" IVar="-1" Cut="0.0000000000000000e+00" cType="1" res="1.7460608854889870e-02" rms="3.9721566438674927e-01" purity="5.6875997781753540e-01" nType="-99"/>
        </Node>
      </Node>
    </BinaryTree>
    <BinaryTree type="DecisionTree" boostWeight="1.0000000000000000e+00" itree="55">
      <Node pos="s" depth="0" NCoef="0" IVar="1" Cut="3.0053834915161133e+01" cType="1" res="5.4595377296209335e-03" rms="3.8748174905776978e-01" purity="5.0342762470245361e-01" nType="0">
        <Node pos="l" depth="1" NCoef="0" IVar="7" Cut="3.6780318617820740e-01" cType="1" res="-5.0994968041777611e-03" rms="3.8362509012222290e-01" purity="3.1302893161773682e-01" nType="0">
          <Node pos="l" depth="2" NCoef="0" IVar="-1" Cut="0.0000000000000000e+00" cType="1" res="-3.2261557877063751e-02" rms="3.7378731369972229e-01" purity="2.6811972260475159e-01" nType="-99"/>
          <Node pos="r" depth="2" NCoef="0" IVar="-1" Cut="0.0000000000000000e+00" cType="1" res="4.8958424478769302e-02" rms="4.0047860145568848e-01" purity="4.2336213588714600e-01" nType="-99"/>
        </Node>
        <Node pos="r" depth="1" NCoef="0" IVar="1" Cut="5.7287544250488281e+01" cType="1" res="1.6859857365489006e-02" rms="3.9128330349922180e-01" purity="7.0899611711502075e-01" nType="0">
          <Node pos="l" depth="2" NCoef="0" IVar="-1" Cut="0.0000000000000000e+00" cType="1" res="2.0735153928399086e-02" rms="4.0318915247917175e-01" purity="6.7286366224288940e-01" nType="-99"/>
          <Node pos="r" depth="2" NCoef="0" IVar="-1" Cut="0.0000000000000000e+00" cType="1" res="-3.6308176815509796e-02" rms="3.3067622780799866e-01" purity="8.6766469478607178e-01" nType="-99"/>
        </Node>
      </Node>
    </BinaryTree>
    <BinaryTree type="DecisionTree" boostWeight="1.0000000000000000e+00" itree="56">
      <Node pos="s" depth="0" NCoef="0" IVar="5" Cut="2.3608496189117432e+00" cType="1" res="6.1879367567598820e-03" rms="3.8825982809066772e-01" purity="5.0945991277694702e-01" nType="0">
        <Node pos="l" depth="1" NCoef="0" IVar="6" Cut="4.7492197155952454e-01" cType="1" res="2.4853691458702087e-02" rms="3.6746937036514282e-01" purity="3.0543172359466553e-01" nType="0">
          <Node pos="l" depth="2" NCoef="0" IVar="-1" Cut="0.0000000000000000e+00" cType="1" res="6.5592817962169647e-02" rms="3.9028015732765198e-01" purity="4.6621882915496826e-01" nType="-99"/>
          <Node pos="r" depth="2" NCoef="0" IVar="-1" Cut="0.0000000000000000e+00" cType="1" res="8.6405789479613304e-03" rms="3.5631367564201355e-01" purity="2.4080258607864380e-01" nType="-99"/>
        </Node>
        <Node pos="r" depth="1" NCoef="0" IVar="2" Cut="2.5991008281707764e+00" cType="1" res="-2.1923123858869076e-03" rms="3.9695480465888977e-01" purity="6.0106128454208374e-01" nType="0">
          <Node pos="l" depth="2" NCoef="0" IVar="-1" Cut="0.0000000000000000e+00" cType="1" res="5.9114689938724041e-03" rms="4.0031450986862183e-01" purity="6.1452507972717285e-01" nType="-99"/>
          <Node pos="r" depth="2" NCoef="0" IVar="-1" Cut="0.0000000000000000e+00" cType="1" res="-1.7871858552098274e-02" rms="3.9033800363540649e-01" purity="5.7706409692764282e-01" nType="-99"/>
        </Node>
      </Node>
    </BinaryTree>
    <BinaryTree type="DecisionTree" boostWeight="1.0000000000000000e+00" itree="57">
      <Node pos="s" depth="0" NCoef="0" IVar="5" Cut="1.2512049674987793e+00" cType="1" res="-3.6210620310157537e-03" rms="3.8731220364570618e-01" purity="4.9615770578384399e-01" nType="0">
        <Node pos="l" depth="1" NCoef="0" IVar="2" Cut="2.4342160224914551e+00" cType="1" res="-3.3617727458477020e-02" rms="3.0517932772636414e-01" purity="1.7398555576801300e-01" nType="0">
          <Node pos="l" depth="2" NCoef="0" IVar="-1" Cut="0.0000000000000000e+00" cType="1" res="-3.8767760270275176e-04" rms="3.2110995054244995e-01" purity="2.1080262959003448e-01" nType="-99"/>
          <Node pos="r" depth="2" NCoef="0" IVar="-1" Cut="0.0000000000000000e+00" cType="1" res="-1.2191291898488998e-01" rms="2.7761656045913696e-01" purity="1.2672798335552216e-01" nType="-99"/>
        </Node>
        <Node pos="r" depth="1" NCoef="0" IVar="5" Cut="2.0439941883087158e+00" cType="1" res="1.1445085983723402e-03" rms="3.9859881997108459e-01" purity="5.4734122753143311e-01" nType="0">
          <Node pos="l" depth="2" NCoef="0" IVar="-1" Cut="0.0000000000000000e+00" cType="1" res="5.1482129842042923e-02" rms="3.9619895815849304e-01" purity="3.7510427832603455e-01" nType="-99"/>
          <Node pos="r" depth="2" NCoef="0" IVar="-1" Cut="0.0000000000000000e+00" cType="1" res="-5.5592847056686878e-03" rms="3.9843481779098511e-01" purity="5.7400083541870117e-01" nType="-99"/>
        </Node>
      </Node>
    </BinaryTree>
    <BinaryTree type="DecisionTree" boostWeight="1.0000000000000000e+00" itree="58">
      <Node pos="s" depth="0" NCoef="0" IVar="0" Cut="7.9924308776855469e+01" cType="1" res="3.1366148032248020e-03" rms="3.8125014305114746e-01" purity="4.9985358119010925e-01" nType="0">
        <Node pos="l" depth="1" NCoef="0" IVar="4" Cut="3.6015923023223877e+00" cType="1" res="-1.7370081041008234e-03" rms="3.9745748043060303e-01" purity="4.0199410915374756e-01" nType="0">
          <Node pos="l" depth="2" NCoef="0" IVar="-1" Cut="0.0000000000000000e+00" cType="1" res="5.5961725302040577e-03" rms="3.9898973703384399e-01" purity="4.3351188302040100e-01" nType="-99"/>
          <Node pos="r" depth="2" NCoef="0" IVar="-1" Cut="0.0000000000000000e+00" cType="1" res="-2.4421159178018570e-02" rms="3.9167213439941406e-01" purity="3.0494776368141174e-01" nType="-99"/>
        </Node>
        <Node pos="r" depth="1" NCoef="0" IVar="4" Cut="1.4620496034622192e+00" cType="1" res="2.2009834647178650e-02" rms="3.0988579988479614e-01" purity="8.7881672382354736e-01" nType="0">
          <Node pos="l" depth="2" NCoef="0" IVar="-1" Cut="0.0000000000000000e+00" cType="1" res="4.5280037447810173e-03" rms="3.4837114810943604e-01" purity="8.3335298299789429e-01" nType="-99"/>
          <Node pos="r" depth="2" NCoef="0" IVar="-1" Cut="0.0000000000000000e+00" cType="1" res="4.3321337550878525e-02" rms="2.7492791414260864e-01" purity="9.1473519802093506e-01" nType="-99"/>
        </Node>
      </Node>
    </BinaryTree>
    <BinaryTree type="DecisionTree" boostWeight="1.0000000000000000e+00" itree="59">
      <Node pos="s" depth="0" NCoef="0" IVar="1" Cut="2.3773994445800781e+01" cType="1" res="-4.4708610512316227e-03" rms="3.8684386014938354e-01" purity="4.9487954378128052e-01" nType="0">
        <Node pos="l" depth="1" NCoef="0" IVar="7" Cut="2.9015955328941345e-01" cType="1" res="1.7228772863745689e-02" rms="3.5020527243614197e-01" purity="2.6803299784660339e-01" nType="0">
          <Node pos="l" depth="2" NCoef="0" IVar="-1" Cut="0.0000000000000000e+00" cType="1" res="-3.1238535419106483e-02" rms="3.4925773739814758e-01" purity="1.9961319863796234e-01" nType="-99"/>
          <Node pos="r" depth="2" NCoef="0" IVar="-1" Cut="0.0000000000000000e+00" cType="1" res="5.5247284471988678e-02" rms="3.4763580560684204e-01" purity="3.2049337029457092e-01" nType="-99"/>
        </Node>
        <Node pos="r" depth="1" NCoef="0" IVar="4" Cut="4.0206059813499451e-01" cType="1" res="-1.2685219757258892e-02" rms="3.9953091740608215e-01" purity="5.8075195550918579e-01" nType="0">
          <Node pos="l" depth="2" NCoef="0" IVar="-1" Cut="0.0000000000000000e+00" cType="1" res="-4.4340692460536957e-02" rms="4.2517516016960144e-01" purity="5.6492185592651367e-01" nType="-99"/>
          <Node pos="r" depth="2" NCoef="0" IVar="-1" Cut="0.0000000000000000e+00" cType="1" res="-6.9291787222027779e-03" rms="3.9591982960700989e-01" purity="5.8275115489959717e-01" nType="-99"/>
        </Node>
      </Node>
    </BinaryTree>
    <BinaryTree type="DecisionTree" boostWeight="1.0000000000000000e+00" itree="60">
      <Node pos="s" depth="0" NCoef="0" IVar="2" Cut="3.0324220657348633e+00" cType="1" res="9.1913212090730667e-03" rms="3.8358080387115479e-01" purity="5.0764423608779907e-01" nType="0">
        <Node pos="l" depth="1" NCoef="0" IVar="2" Cut="2.8924450278282166e-01" cType="1" res="1.5568329021334648e-02" rms="3.9358475804328918e-01" purity="5.2014797925949097e-01" nType="0">
          <Node pos="l" depth="2" NCoef="0" IVar="-1" Cut="0.0000000000000000e+00" cType="1" res="-3.2452557235956192e-02" rms="3.6387863755226135e-01" purity="4.5897957682609558e-01" nType="-99"/>
          <Node pos="r" depth="2" NCoef="0" IVar="-1" Cut="0.0000000000000000e+00" cType="1" res="2.0006392151117325e-02" rms="3.9696753025054932e-01" purity="5.2853673696517944e-01" nType="-99"/>
        </Node>
        <Node pos="r" depth="1" NCoef="0" IVar="4" Cut="2.7774536609649658e+00" cType="1" res="-5.5988756939768791e-03" rms="3.5887214541435242e-01" purity="4.7864443063735962e-01" nType="0">
          <Node pos="l" depth="2" NCoef="0" IVar="-1" Cut="0.0000000000000000e+00" cType="1" res="1.5894927084445953e-02" rms="3.5433316230773926e-01" purity="5.5961686372756958e-01" nType="-99"/>
          <Node pos="r" depth="2" NCoef="0" IVar="-1" Cut="0.0000000000000000e+00" cType="1" res="-6.0778245329856873e-02" rms="3.6472618579864502e-01" purity="2.9241347312927246e-01" nType="-99"/>
        </Node>
      </Node>
    </BinaryTree>
    <BinaryTree type="DecisionTree" boostWeight="1.0000000000000000e+00" itree="61">
      <Node pos="s" depth="0" NCoef="0" IVar="2" Cut="1.7636268138885498e+00" cType="1" res="-8.1043501268140972e-05" rms="3.8315972685813904e-01" purity="4.9183797836303711e-01" nType="0">
        <Node pos="l" depth="1" NCoef="0" IVar="5" Cut="9.7326588630676270e-01" cType="1" res="-1.3370314612984657e-02" rms="4.0086147189140320e-01" purity="4.8851048946380615e-01" nType="0">
          <Node pos="l" depth="2" NCoef="0" IVar="-1" Cut="0.0000000000000000e+00" cType="1" res="6.5258689224720001e-02" rms="3.6863636970520020e-01" purity="2.6019755005836487e-01" nType="-99"/>
          <Node pos="r" depth="2" NCoef="0" IVar="-1" Cut="0.0000000000000000e+00" cType="1" res="-1.8644694238901138e-02" rms="4.0420559048652649e-01" purity="5.1863634586334229e-01" nType="-99"/>
        </Node>
        <Node pos="r" depth="1" NCoef="0" IVar="5" Cut="2.0836024284362793e+00" cType="1" res="1.0853121988475323e-02" rms="3.6759692430496216e-01" purity="4.9457579851150513e-01" nType="0">
          <Node pos="l" depth="2" NCoef="0" IVar="-1" Cut="0.0000000000000000e+00" cType="1" res="-1.5225665643811226e-02" rms="3.4002465009689331e-01" purity="2.4532136321067810e-01" nType="-99"/>
          <Node pos="r" depth="2" NCoef="0" IVar="-1" Cut="0.0000000000000000e+00" cType="1" res="1.8062634393572807e-02" rms="3.7751221656799316e-01" purity="5.9250116348266602e-01" nType="-99"/>
        </Node>
      </Node>
    </BinaryTree>
    <BinaryTree type="DecisionTree" boostWeight="1.0000000000000000e+00" itree="62">
      <Node pos="s" depth="0" NCoef="0" IVar="1" Cut="2.3760856628417969e+01" cType="1" res="2.9043987160548568e-04" rms="3.8175779581069946e-01" purity="4.9908819794654846e-01" nType="0">
        <Node pos="l" depth="1" NCoef="0" IVar="1" Cut="1.8757249832153320e+01" cType="1" res="-1.2241551652550697e-02" rms="3.3366236090660095e-01" purity="2.4845740199089050e-01" nType="0">
          <Node pos="l" depth="2" NCoef="0" IVar="-1" Cut="0.0000000000000000e+00" cType="1" res="1.2545202858746052e-02" rms="3.0870589613914490e-01" purity="2.3951610922813416e-01" nType="-99"/>
          <Node pos="r" depth="2" NCoef="0" IVar="-1" Cut="0.0000000000000000e+00" cType="1" res="-2.6289410889148712e-02" rms="3.4484842419624329e-01" purity="2.5287708640098572e-01" nType="-99"/>
        </Node>
        <Node pos="r" depth="1" NCoef="0" IVar="5" Cut="8.3596181869506836e-01" cType="1" res="5.0118402577936649e-03" rms="3.9827233552932739e-01" purity="5.9351283311843872e-01" nType="0">
          <Node pos="l" depth="2" NCoef="0" IVar="-1" Cut="0.0000000000000000e+00" cType="1" res="-2.8962448239326477e-02" rms="3.6049258708953857e-01" purity="2.5195816159248352e-01" nType="-99"/>
          <Node pos="r" depth="2" NCoef="0" IVar="-1" Cut="0.0000000000000000e+00" cType="1" res="6.2206140719354153e-03" rms="4.0083643794059753e-01" purity="6.1883139610290527e-01" nType="-99"/>
        </Node>
      </Node>
    </BinaryTree>
    <BinaryTree type="DecisionTree" boostWeight="1.0000000000000000e+00" itree="63">
      <Node pos="s" depth="0" NCoef="0" IVar="4" Cut="9.0093290805816650e-01" cType="1" res="1.2790182372555137e-03" rms="3.8286456465721130e-01" purity="5.0397837162017822e-01" nType="0">
        <Node pos="l" depth="1" NCoef="0" IVar="5" Cut="2.3615210056304932e+00" cType="1" res="1.6369124874472618e-02" rms="3.8281756639480591e-01" purity="5.3646153211593628e-01" nType="0">
          <Node pos="l" depth="2" NCoef="0" IVar="-1" Cut="0.0000000000000000e+00" cType="1" res="-2.2309914231300354e-02" rms="3.1934955716133118e-01" purity="2.7355110645294189e-01" nType="-99"/>
          <Node pos="r" depth="2" NCoef="0" IVar="-1" Cut="0.0000000000000000e+00" cType="1" res="2.4227187037467957e-02" rms="4.0227195620536804e-01" purity="6.3004446029663086e-01" nType="-99"/>
        </Node>
        <Node pos="r" depth="1" NCoef="0" IVar="5" Cut="8.3449918031692505e-01" cType="1" res="-3.6768072750419378e-03" rms="3.8275024294853210e-01" purity="4.9331048130989075e-01" nType="0">
          <Node pos="l" depth="2" NCoef="0" IVar="-1" Cut="0.0000000000000000e+00" cType="1" res="4.5314438641071320e-02" rms="3.4629985690116882e-01" purity="2.3886092007160187e-01" nType="-99"/>
          <Node pos="r" depth="2" NCoef="0" IVar="-1" Cut="0.0000000000000000e+00" cType="1" res="-7.0691900327801704e-03" rms="3.8623625040054321e-01" purity="5.2045929431915283e-01" nType="-99"/>
        </Node>
      </Node>
    </BinaryTree>
    <BinaryTree type="DecisionTree" boostWeight="1.0000000000000000e+00" itree="64">
      <Node pos="s" depth="0" NCoef="0" IVar="5" Cut="6.9573247432708740e-01" cType="1" res="1.8566321814432740e-03" rms="3.8737064599990845e-01" purity="5.0140506029129028e-01" nType="0">
        <Node pos="l" depth="1" NCoef="0" IVar="-1" Cut="0.0000000000000000e+00" cType="1" res="6.3766650855541229e-02" rms="3.5710152983665466e-01" purity="2.2172933816909790e-01" nType="-99"/>
        <Node pos="r" depth="1" NCoef="0" IVar="2" Cut="2.9992616176605225e+00" cType="1" res="-1.4756721211597323e-03" rms="3.8960391283035278e-01" purity="5.2473068237304688e-01" nType="0">
          <Node pos="l" depth="2" NCoef="0" IVar="-1" Cut="0.0000000000000000e+00" cType="1" res="4.4203964062035084e-03" rms="3.9888927340507507e-01" purity="5.3766959905624390e-01" nType="-99"/>
          <Node pos="r" depth="2" NCoef="0" IVar="-1" Cut="0.0000000000000000e+00" cType="1" res="-1.7830083146691322e-02" rms="3.6637842655181885e-01" purity="4.9430251121520996e-01" nType="-99"/>
        </Node>
      </Node>
    </BinaryTree>
    <BinaryTree type="DecisionTree" boostWeight="1.0000000000000000e+00" itree="65">
      <Node pos="s" depth="0" NCoef="0" IVar="2" Cut="3.9678351879119873e+00" cType="1" res="-7.3123900219798088e-03" rms="3.8647779822349548e-01" purity="4.9204391241073608e-01" nType="0">
